tree
version=v4
num_class=1
num_tree_per_iteration=1
label_index=0
max_feature_idx=647
objective=binary sigmoid:1
feature_names=QRSDuration Q_TInterval QTCCalculation QTcFredericia QTcFramingham QTc_Bazett QOnset QOffset TOffset RAxis TAxis ECGSampleBase Q_PeakAmpl_I Q_Duration_I Q_Area_I Q_PeakTime_I R_PeakAmpl_I R_Duration_I R_Area_I R_PeakTime_I S_PeakAmpl_I S_Duration_I S_Area_I S_PeakTime_I RP_PeakAmpl_I RP_Duration_I RP_Area_I RP_PeakTime_I SP_PeakAmpl_I SP_Duration_I SP_Area_I SP_PeakTime_I STJ_I STM_I STE_I MaxST_I MinST_I T_Special_I QRS_Balance_I QRS_Deflection_I Max_R_Ampl_I Max_S_Ampl_I T_PeakAmpl_I T_Duration_I T_Area_I T_PeakTime_I TP_PeakAmpl_I TP_Duration_I TP_Area_I TP_PeakTime_I T_End_I QRS_Area_I TFull_Area_I QRSint_I TTALL_I STDOWN_I STELEV_I JELEV_I DLTWV_I STINJ_I PPDEEP_I QRS_T_REVERSE_I QRS_ST_REVERSE_I ST_T_REVERSE_I BRUGFLG_I Q_PeakAmpl_II Q_Duration_II Q_Area_II Q_PeakTime_II R_PeakAmpl_II R_Duration_II R_Area_II R_PeakTime_II S_PeakAmpl_II S_Duration_II S_Area_II S_PeakTime_II RP_PeakAmpl_II RP_Duration_II RP_Area_II RP_PeakTime_II SP_PeakAmpl_II SP_Duration_II SP_Area_II SP_PeakTime_II STJ_II STM_II STE_II MaxST_II MinST_II T_Special_II QRS_Balance_II QRS_Deflection_II Max_R_Ampl_II Max_S_Ampl_II T_PeakAmpl_II T_Duration_II T_Area_II T_PeakTime_II TP_PeakAmpl_II TP_Duration_II TP_Area_II TP_PeakTime_II T_End_II QRS_Area_II TFull_Area_II QRSint_II TTALL_II STDOWN_II STELEV_II JELEV_II DLTWV_II STINJ_II PPDEEP_II QRS_T_REVERSE_II QRS_ST_REVERSE_II ST_T_REVERSE_II BRUGFLG_II Q_PeakAmpl_III Q_Duration_III Q_Area_III Q_PeakTime_III R_PeakAmpl_III R_Duration_III R_Area_III R_PeakTime_III S_PeakAmpl_III S_Duration_III S_Area_III S_PeakTime_III RP_PeakAmpl_III RP_Duration_III RP_Area_III RP_PeakTime_III SP_PeakAmpl_III SP_Duration_III SP_Area_III SP_PeakTime_III STJ_III STM_III STE_III MaxST_III MinST_III T_Special_III QRS_Balance_III QRS_Deflection_III Max_R_Ampl_III Max_S_Ampl_III T_PeakAmpl_III T_Duration_III T_Area_III T_PeakTime_III TP_PeakAmpl_III TP_Duration_III TP_Area_III TP_PeakTime_III T_End_III QRS_Area_III TFull_Area_III QRSint_III TTALL_III STDOWN_III STELEV_III JELEV_III DLTWV_III STINJ_III PPDEEP_III QRS_T_REVERSE_III QRS_ST_REVERSE_III ST_T_REVERSE_III BRUGFLG_III Q_PeakAmpl_AVR Q_Duration_AVR Q_Area_AVR Q_PeakTime_AVR R_PeakAmpl_AVR R_Duration_AVR R_Area_AVR R_PeakTime_AVR S_PeakAmpl_AVR S_Duration_AVR S_Area_AVR S_PeakTime_AVR RP_PeakAmpl_AVR RP_Duration_AVR RP_Area_AVR RP_PeakTime_AVR SP_PeakAmpl_AVR SP_Duration_AVR SP_Area_AVR SP_PeakTime_AVR STJ_AVR STM_AVR STE_AVR MaxST_AVR MinST_AVR T_Special_AVR QRS_Balance_AVR QRS_Deflection_AVR Max_R_Ampl_AVR Max_S_Ampl_AVR T_PeakAmpl_AVR T_Duration_AVR T_Area_AVR T_PeakTime_AVR TP_PeakAmpl_AVR TP_Duration_AVR TP_Area_AVR TP_PeakTime_AVR T_End_AVR QRS_Area_AVR TFull_Area_AVR QRSint_AVR TTALL_AVR STDOWN_AVR STELEV_AVR JELEV_AVR DLTWV_AVR STINJ_AVR PPDEEP_AVR QRS_T_REVERSE_AVR QRS_ST_REVERSE_AVR ST_T_REVERSE_AVR BRUGFLG_AVR Q_PeakAmpl_AVL Q_Duration_AVL Q_Area_AVL Q_PeakTime_AVL R_PeakAmpl_AVL R_Duration_AVL R_Area_AVL R_PeakTime_AVL S_PeakAmpl_AVL S_Duration_AVL S_Area_AVL S_PeakTime_AVL RP_PeakAmpl_AVL RP_Duration_AVL RP_Area_AVL RP_PeakTime_AVL SP_PeakAmpl_AVL SP_Duration_AVL SP_Area_AVL SP_PeakTime_AVL STJ_AVL STM_AVL STE_AVL MaxST_AVL MinST_AVL T_Special_AVL QRS_Balance_AVL QRS_Deflection_AVL Max_R_Ampl_AVL Max_S_Ampl_AVL T_PeakAmpl_AVL T_Duration_AVL T_Area_AVL T_PeakTime_AVL TP_PeakAmpl_AVL TP_Duration_AVL TP_Area_AVL TP_PeakTime_AVL T_End_AVL QRS_Area_AVL TFull_Area_AVL QRSint_AVL TTALL_AVL STDOWN_AVL STELEV_AVL JELEV_AVL DLTWV_AVL STINJ_AVL PPDEEP_AVL QRS_T_REVERSE_AVL QRS_ST_REVERSE_AVL ST_T_REVERSE_AVL BRUGFLG_AVL Q_PeakAmpl_aVF Q_Duration_aVF Q_Area_aVF Q_PeakTime_aVF R_PeakAmpl_aVF R_Duration_aVF R_Area_aVF R_PeakTime_aVF S_PeakAmpl_aVF S_Duration_aVF S_Area_aVF S_PeakTime_aVF RP_PeakAmpl_aVF RP_Duration_aVF RP_Area_aVF RP_PeakTime_aVF SP_PeakAmpl_aVF SP_Duration_aVF SP_Area_aVF SP_PeakTime_aVF STJ_aVF STM_aVF STE_aVF MaxST_aVF MinST_aVF T_Special_aVF QRS_Balance_aVF QRS_Deflection_aVF Max_R_Ampl_aVF Max_S_Ampl_aVF T_PeakAmpl_aVF T_Duration_aVF T_Area_aVF T_PeakTime_aVF TP_PeakAmpl_aVF TP_Duration_aVF TP_Area_aVF TP_PeakTime_aVF T_End_aVF QRS_Area_aVF TFull_Area_aVF QRSint_aVF TTALL_AVF STDOWN_AVF STELEV_AVF JELEV_AVF DLTWV_AVF STINJ_AVF PPDEEP_AVF QRS_T_REVERSE_AVF QRS_ST_REVERSE_AVF ST_T_REVERSE_AVF BRUGFLG_AVF Q_PeakAmpl_V1 Q_Duration_V1 Q_Area_V1 Q_PeakTime_V1 R_PeakAmpl_V1 R_Duration_V1 R_Area_V1 R_PeakTime_V1 S_PeakAmpl_V1 S_Duration_V1 S_Area_V1 S_PeakTime_V1 RP_PeakAmpl_V1 RP_Duration_V1 RP_Area_V1 RP_PeakTime_V1 SP_PeakAmpl_V1 SP_Duration_V1 SP_Area_V1 SP_PeakTime_V1 STJ_V1 STM_V1 STE_V1 MaxST_V1 MinST_V1 T_Special_V1 QRS_Balance_V1 QRS_Deflection_V1 Max_R_Ampl_V1 Max_S_Ampl_V1 T_PeakAmpl_V1 T_Duration_V1 T_Area_V1 T_PeakTime_V1 TP_PeakAmpl_V1 TP_Duration_V1 TP_Area_V1 TP_PeakTime_V1 T_End_V1 QRS_Area_V1 TFull_Area_V1 QRSint_V1 TTALL_V1 STDOWN_V1 STELEV_V1 JELEV_V1 DLTWV_V1 STINJ_V1 PPDEEP_V1 QRS_T_REVERSE_V1 QRS_ST_REVERSE_V1 ST_T_REVERSE_V1 BRUGFLG_V1 Q_PeakAmpl_V2 Q_Duration_V2 Q_Area_V2 Q_PeakTime_V2 R_PeakAmpl_V2 R_Duration_V2 R_Area_V2 R_PeakTime_V2 S_PeakAmpl_V2 S_Duration_V2 S_Area_V2 S_PeakTime_V2 RP_PeakAmpl_V2 RP_Duration_V2 RP_Area_V2 RP_PeakTime_V2 SP_PeakAmpl_V2 SP_Duration_V2 SP_Area_V2 SP_PeakTime_V2 STJ_V2 STM_V2 STE_V2 MaxST_V2 MinST_V2 T_Special_V2 QRS_Balance_V2 QRS_Deflection_V2 Max_R_Ampl_V2 Max_S_Ampl_V2 T_PeakAmpl_V2 T_Duration_V2 T_Area_V2 T_PeakTime_V2 TP_PeakAmpl_V2 TP_Duration_V2 TP_Area_V2 TP_PeakTime_V2 T_End_V2 QRS_Area_V2 TFull_Area_V2 QRSint_V2 TTALL_V2 STDOWN_V2 STELEV_V2 JELEV_V2 DLTWV_V2 STINJ_V2 PPDEEP_V2 QRS_T_REVERSE_V2 QRS_ST_REVERSE_V2 ST_T_REVERSE_V2 BRUGFLG_V2 Q_PeakAmpl_V3 Q_Duration_V3 Q_Area_V3 Q_PeakTime_V3 R_PeakAmpl_V3 R_Duration_V3 R_Area_V3 R_PeakTime_V3 S_PeakAmpl_V3 S_Duration_V3 S_Area_V3 S_PeakTime_V3 RP_PeakAmpl_V3 RP_Duration_V3 RP_Area_V3 RP_PeakTime_V3 SP_PeakAmpl_V3 SP_Duration_V3 SP_Area_V3 SP_PeakTime_V3 STJ_V3 STM_V3 STE_V3 MaxST_V3 MinST_V3 T_Special_V3 QRS_Balance_V3 QRS_Deflection_V3 Max_R_Ampl_V3 Max_S_Ampl_V3 T_PeakAmpl_V3 T_Duration_V3 T_Area_V3 T_PeakTime_V3 TP_PeakAmpl_V3 TP_Duration_V3 TP_Area_V3 TP_PeakTime_V3 T_End_V3 QRS_Area_V3 TFull_Area_V3 QRSint_V3 TTALL_V3 STDOWN_V3 STELEV_V3 JELEV_V3 DLTWV_V3 STINJ_V3 PPDEEP_V3 QRS_T_REVERSE_V3 QRS_ST_REVERSE_V3 ST_T_REVERSE_V3 BRUGFLG_V3 Q_PeakAmpl_V4 Q_Duration_V4 Q_Area_V4 Q_PeakTime_V4 R_PeakAmpl_V4 R_Duration_V4 R_Area_V4 R_PeakTime_V4 S_PeakAmpl_V4 S_Duration_V4 S_Area_V4 S_PeakTime_V4 RP_PeakAmpl_V4 RP_Duration_V4 RP_Area_V4 RP_PeakTime_V4 SP_PeakAmpl_V4 SP_Duration_V4 SP_Area_V4 SP_PeakTime_V4 STJ_V4 STM_V4 STE_V4 MaxST_V4 MinST_V4 T_Special_V4 QRS_Balance_V4 QRS_Deflection_V4 Max_R_Ampl_V4 Max_S_Ampl_V4 T_PeakAmpl_V4 T_Duration_V4 T_Area_V4 T_PeakTime_V4 TP_PeakAmpl_V4 TP_Duration_V4 TP_Area_V4 TP_PeakTime_V4 T_End_V4 QRS_Area_V4 TFull_Area_V4 QRSint_V4 TTALL_V4 STDOWN_V4 STELEV_V4 JELEV_V4 DLTWV_V4 STINJ_V4 PPDEEP_V4 QRS_T_REVERSE_V4 QRS_ST_REVERSE_V4 ST_T_REVERSE_V4 BRUGFLG_V4 Q_PeakAmpl_V5 Q_Duration_V5 Q_Area_V5 Q_PeakTime_V5 R_PeakAmpl_V5 R_Duration_V5 R_Area_V5 R_PeakTime_V5 S_PeakAmpl_V5 S_Duration_V5 S_Area_V5 S_PeakTime_V5 RP_PeakAmpl_V5 RP_Duration_V5 RP_Area_V5 RP_PeakTime_V5 SP_PeakAmpl_V5 SP_Duration_V5 SP_Area_V5 SP_PeakTime_V5 STJ_V5 STM_V5 STE_V5 MaxST_V5 MinST_V5 T_Special_V5 QRS_Balance_V5 QRS_Deflection_V5 Max_R_Ampl_V5 Max_S_Ampl_V5 T_PeakAmpl_V5 T_Duration_V5 T_Area_V5 T_PeakTime_V5 TP_PeakAmpl_V5 TP_Duration_V5 TP_Area_V5 TP_PeakTime_V5 T_End_V5 QRS_Area_V5 TFull_Area_V5 QRSint_V5 TTALL_V5 STDOWN_V5 STELEV_V5 JELEV_V5 DLTWV_V5 STINJ_V5 PPDEEP_V5 QRS_T_REVERSE_V5 QRS_ST_REVERSE_V5 ST_T_REVERSE_V5 BRUGFLG_V5 Q_PeakAmpl_V6 Q_Duration_V6 Q_Area_V6 Q_PeakTime_V6 R_PeakAmpl_V6 R_Duration_V6 R_Area_V6 R_PeakTime_V6 S_PeakAmpl_V6 S_Duration_V6 S_Area_V6 S_PeakTime_V6 RP_PeakAmpl_V6 RP_Duration_V6 RP_Area_V6 RP_PeakTime_V6 SP_PeakAmpl_V6 SP_Duration_V6 SP_Area_V6 SP_PeakTime_V6 STJ_V6 STM_V6 STE_V6 MaxST_V6 MinST_V6 T_Special_V6 QRS_Balance_V6 QRS_Deflection_V6 Max_R_Ampl_V6 Max_S_Ampl_V6 T_PeakAmpl_V6 T_Duration_V6 T_Area_V6 T_PeakTime_V6 TP_PeakAmpl_V6 TP_Duration_V6 TP_Area_V6 TP_PeakTime_V6 T_End_V6 QRS_Area_V6 TFull_Area_V6 QRSint_V6 TTALL_V6 STDOWN_V6 STELEV_V6 JELEV_V6 DLTWV_V6 STINJ_V6 PPDEEP_V6 QRS_T_REVERSE_V6 QRS_ST_REVERSE_V6 ST_T_REVERSE_V6 BRUGFLG_V6
feature_infos=[8:302] [116:750] [84:824] [94:782] [8:65518] [84:824] [141:247] [249:349] [285:589] [-89:270] [-89:270] none [0:10126] [0:302] [0:16832] [0:214] [0:10034] [0:256] [0:9877] [0:200] [0:7617] [0:202] [0:22013] [0:202] [0:9965] [0:154] [0:32766] [0:200] [0:415] [0:101] [0:894] [0:150] [-6919:7089] [-6392:6894] [-5118:5717] [-5118:7089] [-6919:6894] [-5926:484] [-7495:9814] [1:13421] [0:10034] [0:10126] [-5170:1083] [0:496] [-13093:4740] [0:408] [-302:3334] [0:317] [-2380:1204] [0:384] [-782:3286] [-20975:32766] [-13013:12593] [0:214] [0:1] [0:2] [0:4] [0:8] [0:16] [0:32] none [0:128] [0:256] [0:512] none [0:10820] [0:292] [0:13277] [0:200] [0:3959] [0:222] [0:14061] [0:170] [0:10004] [0:210] [0:8487] [0:190] [0:1943] [0:114] [0:4937] [0:144] [0:844] [0:135] [0:1771] [0:202] [-1304:2250] [-1285:2197] [-1431:2143] [-1036:2250] [-1304:2197] [-1479:679] [-9595:3876] [1:13549] [0:3959] [0:10820] [-1440:2143] [0:492] [-7177:8097] [0:376] [-327:415] [0:430] [-1405:4307] [0:400] [-645:917] [-13076:13858] [-14253:8079] [0:200] [0:1] [0:2] [0:4] [0:8] [0:16] [0:32] none [0:128] [0:256] [0:512] none [0:10410] [0:282] [0:14796] [0:188] [0:7451] [0:254] [0:30894] [0:192] [0:19892] [0:198] [0:32767] [0:194] [0:2221] [0:115] [0:4506] [0:160] [0:11738] [0:144] [0:13248] [0:190] [-6919:6757] [-6719:6215] [-5572:4946] [-5572:6757] [-6919:6215] [-3090:855] [-19653:7373] [1:20131] [0:7451] [0:19892] [-1176:5009] [0:496] [-13708:12533] [0:366] [-3090:546] [0:404] [-1789:6975] [0:412] [-3042:830] [-31459:30442] [-13647:12458] [0:194] [0:1] [0:2] [0:4] [0:8] [0:16] [0:32] none [0:128] [0:256] [0:512] none [0:4829] [0:256] [0:3565] [0:202] [0:10473] [0:302] [0:11475] [0:214] [0:4506] [0:154] [0:18642] [0:208] [0:1000] [0:170] [0:3561] [0:156] [0:937] [0:80] [0:1107] [0:152] [-3633:3540] [-3536:3281] [-2935:2641] [-2935:3540] [-3633:3281] [-1791:347] [-4448:7461] [1:13485] [0:10473] [0:4829] [-1616:2666] [0:492] [-5276:6821] [0:388] [-1791:190] [0:276] [-1491:1005] [0:370] [-1768:415] [-17037:11413] [-6667:7429] [0:214] [0:1] [0:2] [0:4] [0:8] none [0:32] none [0:128] [0:256] [0:512] none [0:4716] [0:254] [0:23851] [0:176] [0:10224] [0:266] [0:11534] [0:200] [0:7534] [0:209] [0:21813] [0:192] [0:14931] [0:151] [0:9855] [0:192] [0:502] [0:64] [0:539] [0:180] [-6836:7006] [-6304:6806] [-5030:5644] [-5030:7006] [-6836:6806] [-5922:527] [-7432:14736] [1:15126] [0:14931] [0:7534] [-5087:830] [0:496] [-12809:6575] [0:428] [-234:3212] [0:293] [-1900:1459] [0:406] [-757:3164] [-23513:32113] [-12735:12223] [0:200] [0:1] [0:2] [0:4] [0:8] [0:16] [0:32] none [0:128] [0:256] [0:512] none [0:5756] [0:288] [0:10734] [0:192] [0:4233] [0:254] [0:22491] [0:192] [0:14907] [0:221] [0:16751] [0:224] [0:2304] [0:115] [0:4727] [0:204] [0:888] [0:136] [0:2397] [0:158] [-3375:3300] [-3272:3022] [-2710:2387] [-2710:3300] [-3375:3022] [-2099:767] [-14556:4233] [1:15258] [0:4233] [0:14907] [-1181:2426] [0:496] [-6830:8718] [0:368] [-1420:444] [0:418] [-2447:5656] [0:400] [-1397:834] [-15076:22150] [-13950:8687] [0:192] [0:1] [0:2] [0:4] [0:8] [0:16] [0:32] none [0:128] [0:256] [0:512] none [0:5029] [0:244] [0:32767] [0:178] [0:8046] [0:302] [0:15651] [0:200] [0:5073] [0:229] [0:12345] [0:190] [0:2695] [0:157] [0:6870] [0:196] [0:5009] [0:127] [0:13977] [0:178] [-7608:2280] [-7198:2026] [-6783:1547] [-6783:2280] [-7608:2026] [-2998:1431] [-3657:3794] [1:13119] [0:8046] [0:5073] [-2998:2451] [0:496] [-7997:14022] [0:474] [-341:434] [0:379] [-1124:1992] [0:430] [-3746:478] [-32767:15417] [-14091:14014] [0:200] [0:1] [0:2] [0:4] [0:8] [0:16] [0:32] [0:64] [0:128] [0:256] [0:512] none [0:6103] [0:237] [0:32767] [0:178] [0:7431] [0:294] [0:15967] [0:216] [0:9697] [0:185] [0:16756] [0:220] [0:2934] [0:136] [0:10653] [0:196] [0:5405] [0:134] [0:14816] [0:198] [-7867:2407] [-7584:2607] [-7256:1953] [-7256:2607] [-7867:2407] [-4033:1954] [-9531:3697] [1:12997] [0:7431] [0:9697] [-4033:2329] [0:496] [-16877:17672] [0:386] [-751:703] [0:368] [-5550:4324] [0:370] [-4732:898] [-32767:15893] [-16234:17604] [0:220] [0:1] [0:2] [0:4] [0:8] [0:16] [0:32] none [0:128] [0:256] [0:512] none [0:5820] [0:244] [0:31883] [0:178] [0:8261] [0:222] [0:23851] [0:180] [0:9580] [0:243] [0:24084] [0:240] [0:4619] [0:123] [0:10269] [0:170] [0:4130] [0:155] [0:14970] [0:186] [-8213:3471] [-8101:3041] [-7793:2646] [-7793:3471] [-8213:3041] [-2001:2119] [-8623:6441] [1:13114] [0:8261] [0:9580] [-2001:4765] [0:496] [-21695:20001] [0:366] [-1230:761] [0:350] [-6943:3200] [0:372] [-3692:4184] [-32767:23752] [-21614:19926] [0:186] [0:1] [0:2] [0:4] [0:8] [0:16] [0:32] none [0:128] [0:256] [0:512] none [0:7241] [0:302] [0:32767] [0:216] [0:7915] [0:222] [0:22861] [0:198] [0:9799] [0:201] [0:17144] [0:226] [0:3525] [0:91] [0:3287] [0:154] [0:4492] [0:146] [0:12111] [0:174] [-4336:1132] [-5235:1152] [-4297:1733] [-4297:1733] [-5235:1132] [-3393:2007] [-9443:5781] [1:13129] [0:7915] [0:9799] [-3393:2719] [0:496] [-28374:15461] [0:378] [-2509:1044] [0:361] [-9148:5354] [0:420] [-3873:1450] [-32767:22782] [-28031:15443] [0:222] [0:1] [0:2] [0:4] [0:8] [0:16] [0:32] none [0:128] [0:256] [0:512] none [0:7397] [0:302] [0:29451] [0:216] [0:15058] [0:222] [0:21291] [0:198] [0:9951] [0:194] [0:20152] [0:226] [0:4077] [0:83] [0:4050] [0:212] [0:2329] [0:142] [0:5844] [0:164] [-7662:4785] [-7710:4570] [-7437:4589] [-7437:4785] [-7710:4570] [-4497:1734] [-9532:13848] [1:16268] [0:15058] [0:9951] [-4497:4682] [0:452] [-32767:32766] [0:406] [-3828:3974] [0:385] [-32767:22886] [0:402] [-3589:4721] [-29154:20801] [-32767:32766] [0:216] [0:1] [0:2] [0:4] [0:8] [0:16] [0:32] none [0:128] [0:256] [0:512] none [0:9345] [0:302] [0:22577] [0:214] [0:12543] [0:256] [0:25137] [0:180] [0:5434] [0:189] [0:17651] [0:178] [0:3320] [0:99] [0:4467] [0:210] [0:1040] [0:156] [0:2910] [0:164] [-7354:4790] [-7603:4409] [-7330:4072] [-7330:4790] [-7603:4409] [-4399:3370] [-8887:9379] [1:15707] [0:12543] [0:9345] [-4399:5214] [0:496] [-26176:32766] [0:478] [-883:1894] [0:303] [-3692:5291] [0:312] [-3741:3271] [-22468:24647] [-24407:32766] [0:214] [0:1] [0:2] [0:4] [0:8] [0:16] [0:32] none [0:128] [0:256] [0:512] none
tree_sizes=11224 11287 11225 11202 11280 11230 11231 11279 11252 11226 11258 11292 11266 11233 11250 11149 11272 11205 11249 11252 11250 11223 11267 11242 11156 11163 11280 11159 11266 11208 11255 11160 11328 11167 11268 11221 11158 11137 11132 11255 11267 11274 11296 11174 11293 11165 11249 10257 11271 11198 11275 11177 11227 10250 11241 11114 11239 10910 11217 10812 11179 11249 11223 8210 11234 11066 10696 8815 11191 9817 11299 11230 11181 7999 10831 11301 8841 6233 11228 9190 10673 9828 8443 9849 10039 10032 6786 9162 7516 8434 10602 7712 8818 7038 9823 10843 6804 5101 11152 8012 6942 10186 6417 8727 5355 10542 7784 10027 9173 8812 9409 8004 9889 8815 5513 6676 5416 9042 4652 6895 9170 8948 5178 9069 6438 7907 7982 8727 4197 9021 4688 6744 4500 4798 5817 6886 8935 8398 8833 6146 5353 7905 6560 4549 7767 7100 4353 8691 8275 6377 4155 6744 4934 7875 7705 7721 4924 5971 7883 7867 5824 4374 8046 7152 6600 4917 7717 5507 6600 7497 4719 7146 7885 4800 7039 5045 3680 7193 6610 6491 5891 3678 3931 5441 7231 5510 4685 3914 6031 3236 6342 5739 3874 3815 2470 6757 6939 6167 4657 7094 6984 6552 4477 7150 4947 5261 4545 5913 5029 6487 2828 4560 4672 7005 6381 4583 6691 3370 6426 5570 3553 6398 4129 5897 6143 4370 5805 3572 6551 6191 5791 6227 4668 5618 5907 3958 5817 5587 3270 4148 5900 6248 5282 3817 5227 4663 3212 6049 3725 5597 5525 4423 5265 5394 5293 2689 4277 5672 5445 5697 3468 3872 3894 5862 4300 4558 5396 5318 5611 4660 3773 5587 5473 3492 4629 5253 4712 4328 5370 4940 4777 5316 4059 4860 4390 2337 4741 4932 4993 4398 3417 5123 3292 5468 4004 5031 3638 3706 4714 5149 4717 4934 3944 3739 4700 4590 3482 3895 4911 3718 5006 4270 3955 3975 4365 4286 4732 4900 3514 4628 4467 4686 4095 4725 4434 4194 4101 4305 4418 3653 4348 4581 4645 2986 3988 4622 2724 4138 4813 4507 3633 4522 3011 4376 4074 3948 3693 4395 3999 4042 3207 4208 4232 4051 4186 3977 2747 4194 4025 2957 4039 3893 4327 4308 4152 4126 4574 3691 3478 3381 4142 3477 3568 3515 3900 2907 4003 3786 3872 3064 4117 4106 4014 4066 3983 4221 3991 3887 3832 4053 3709 4179 4073 3960 3491 4084 3580 3937 3635 3853 3987 3841 3883 3763 3722 3985 3782 3880 3569 3586 3535 3959 3434 3612 3799 3484 3224 2589 3149 3821 3760 3533 3692 3953 3758 3190 2719 3623 3668 3274 3505 3465 3352 3535 3598 3548 3485 3707 3438 3369 3155 3496 3156 3528 2916 3548 3216 3322 2916 3337 3360 3611 3325 3352 3374 3455 3348 3337 3400 3204 2681 3188 3420 3348 3463 3472 3326 3476 3160 3431 3131 3406 3245 3217 3214 3023 3382 2914 3225 2893 3264 3095 3005 1996 3166 3140 3143 3071 3196 3294 3264 3241 3269 3331 3253 2826 2927 3178 3043 2987 2812 2780 3237 3046 3152 3032 3181 3041 3144 3250 3002 2888 3031 2959 3058 2876 2914 2780 2894 2852 2991 2895 2857 3053 2927 2849 2795 2839 2559 2905 2979 3213 2808 2744 2837 2905 2836 3056 2941 2723 2791 2868 2910 3166 2774 2811 2938 2780 2911 2583 2794 2808 3033 2424 2979 2765 2700 2655 2933 2803 2737 2901 2925 2827 2800 2972 2551 2725 2752 2813 2831 2833 2829 2548 2728 2662 2537 2741 2582 2815 2535 2844 2455 2534 2873 2572 2724 2837 2668 2681 2738 2649 2372 2638 2772 2705 2561 2671 2805 2528 2665 2742 2580 2586 2046 2405 2380 2815 2641 2542 2575 2405 2596 2381 2601 2523 2527 2505 2462 1858 2538 2614 2614 2487 2353 2556 2483 2652 2603 2477 2569 2389 2528 2527 2587 2449 2355 2577 2355 2495 2516 2728 2523 2591 2448 2464 2726 2465 2589 2461 2500 2653 2385 2571 2485 2563 2516 2607 2422 2392 2372 2494 2504 2308 2477 2378 2428 2364 2401 2352 2436 2691 2335 2256 2352 2496 2452 2402 2397 2342 2258 2321 2413 2600 2266 2149 2473 2387 2352 2260 2193 2376 2326 2173 2552 2307 2284 2202 2432 2297 2290 2414 2288 2479 2372 2266 2237 2352 2468 2393 2310 2457 2156 2561 2368 2469 2063 2273 2297 2272 2441 2288 2266 2351 2392 2295 2512 2338 2333 2269 2219 2251 2289 2118 2393 2260 2357 2194 2179 2235 2345 2269 2048 2350 2219 2095 2309 2224 2074 2289 2294 2162 2305 2459 2242 2226 2087 2278 2167 2162 2299 2341 2188 2178 2163 2281 2179 2057 2177 2135 2310 2097 2208 2084 2305 2309 2224 2110 2118 2293 2249 2277 2076 2357 2228 2121 2156 2068 2282 2094 2254 2324 2211 2051 2121 2105 2135 2112 2069 2030 2198 2072 1811 2295 2192 2161 2184 1977 2162 2045 2151 2258 2203 2261 2229 2120 1995 2111 2137 2119 2019 2136 2154 2097 1994 2040 2025 2200 2091 2115 2025 2043 2026 1950 2172 2189 2086 2047 2111 2061 2096 1934 1869 2047 2189 2250 1970 2065 2156 2081 2033 1984 2084 1984 1987 1998 1989 1935 2065 1978 2167 2088 2056 1958 2086 1918 2132 1880 2049 2076 1937 2062 2028 1879 2226 2050 1994 2063 1932 1854 2123 2103 1908 2189 1995 1963 1913 2059 1908 1962 1861 2135 1911 1984 1949 2002 2079 2088 1865 2143 1860 1836 1892 2036 1920 2048 1827 1993 1876 1860 2127 1905 1896 1932 1904 1867 1983 1935 2053 2097 1805 1957 1902 1800 1908 2059 1954 1665 1973 1941 2072 1831 1982 1833 1759 1870 1860 1828 1841 1991 1751 1811 1923 1849 1834 1946 1929 1986 1937 1977 2049 1820 1964 1976 1741 1871 1766 1765 1964 1878 1928 1962 1763 1861 1640 1780 1861 1758 1839 1984 1585 1968 1848 1759 1783 1874 1907 1771 1832 1785 1792 1907 1893 1890 1874 1772 1736 1938 1838 1756 1883 1858 1843 1766 1883 1910 1642 1872 1960 1888

Tree=0
num_leaves=106
num_cat=0
split_feature=356 229 622 622 620 248 8 306 632 620 545 103 580 18 474 229 176 636 569 89 493 8 567 622 39 410 567 179 332 469 52 252 622 440 529 90 604 623 359 332 478 105 355 359 363 255 477 622 336 318 98 10 410 458 414 387 633 622 391 621 286 391 251 600 497 628 635 229 463 363 68 39 67 36 149 103 460 471 234 74 338 615 355 466 108 362 230 446 36 16 75 0 410 447 475 248 44 458 463 580 352 252 628 39 552
split_gain=596.699 297.587 293.634 190.757 170.096 136.795 129.79 83.4914 82.1682 77.1363 80.2035 70.9375 69.6396 68.8563 67.9114 67.5709 65.9425 63.9415 56.3533 56.3161 48.5529 47.7935 47.5135 45.5227 45.3834 41.9916 40.3828 38.451 37.4177 36.9756 39.9766 36.8021 36.4682 48.4386 36.0548 34.6453 38.6559 32.3189 33.2776 30.904 28.9372 28.5595 27.4768 27.2138 26.9729 26.4699 26.9166 25.8663 25.6988 25.384 25.2123 24.2231 24.0899 23.8715 23.608 23.3286 24.0745 22.6858 22.5488 22.296 22.1256 21.1655 30.7255 21.0167 20.5201 19.8794 19.4425 19.0703 18.8523 18.8296 18.8172 18.8097 18.6221 18.3616 22.4205 18.2881 20.8871 18.2283 18.0546 17.8701 19.56 17.5359 17.1087 17.1005 17.0463 16.8057 16.2093 15.8527 15.779 15.5043 15.3058 15.25 15.4727 14.7515 14.4806 24.873 14.47 14.4676 13.8934 13.8392 13.1696 15.929 12.986 12.6924 12.1574
threshold=-436.99999999999994 42.500000000000007 1981.5000000000002 1066.0000000000002 164.00000000000003 -22.499999999999996 379.50000000000006 182.50000000000003 39.000000000000007 198.00000000000003 11.000000000000002 1.0000000180025095e-35 99.500000000000014 778.50000000000011 99.500000000000014 57.500000000000007 16.500000000000004 35.000000000000007 1764.0000000000002 -51.499999999999993 1530.5000000000002 387.50000000000006 312.50000000000006 1273.5000000000002 861.00000000000011 2433.0000000000005 149.00000000000003 75.500000000000014 301.50000000000006 69.000000000000014 -55.499999999999993 480.50000000000006 2628.0000000000005 1066.5000000000002 429.50000000000006 229.50000000000003 30.500000000000004 876.00000000000011 50.500000000000007 301.50000000000006 1.0000000180025095e-35 -265.49999999999994 -135.49999999999997 221.50000000000003 41.000000000000007 163.50000000000003 33.000000000000007 1456.5000000000002 1182.5000000000002 59.000000000000007 53.000000000000007 45.500000000000007 1727.5000000000002 36.500000000000007 220.50000000000003 1198.5000000000002 -27.499999999999996 1178.0000000000002 1388.5000000000002 2104.5000000000005 8.5000000000000018 1359.5000000000002 1081.0000000000002 55.500000000000007 246.50000000000003 129.00000000000003 1085.5000000000002 49.500000000000007 1664.5000000000002 45.000000000000007 9.0000000000000018 661.00000000000011 90.500000000000014 -7.4999999999999991 143.50000000000003 45.500000000000007 -7.4999999999999991 48.500000000000007 90.500000000000014 37.500000000000007 119.50000000000001 -37.499999999999993 -49.999999999999993 534.50000000000011 1.0000000180025095e-35 1000.5000000000001 204.50000000000003 1736.5000000000002 -7.4999999999999991 319.50000000000006 636.50000000000011 93.000000000000014 2499.5000000000005 55.000000000000007 -388.49999999999994 1.0000000180025095e-35 644.50000000000011 187.50000000000003 1217.0000000000002 31.500000000000004 36.500000000000007 421.50000000000006 125.00000000000001 402.00000000000006 953.50000000000011
decision_type=2 2 2 2 2 2 2 2 2 2 2 2 2 2 2 2 2 2 2 2 2 2 2 2 2 2 2 2 2 2 2 2 2 2 2 2 2 2 2 2 2 2 2 2 2 2 2 2 2 2 2 2 2 2 2 2 2 2 2 2 2 2 2 2 2 2 2 2 2 2 2 2 2 2 2 2 2 2 2 2 2 2 2 2 2 2 2 2 2 2 2 2 2 2 2 2 2 2 2 2 2 2 2 2 2
left_child=2 9 4 16 6 24 18 19 15 10 21 39 31 20 25 17 51 23 29 -5 35 28 32 58 34 85 54 41 -2 53 -31 47 33 60 -4 36 98 38 -23 90 77 -18 48 81 -22 -43 -47 -13 -12 -34 -44 84 -40 -1 100 56 78 -27 103 -36 88 -26 -63 -60 -11 -17 -29 104 -16 -66 -20 -69 -68 -38 -75 -21 -77 -39 -19 80 -48 -33 -49 -62 -3 94 -52 -67 -7 -37 -9 92 -58 -81 -15 -96 -54 -25 -6 -97 101 -10 -93 -8 -45
right_child=1 3 5 7 13 22 8 11 26 64 42 12 -14 14 68 65 27 55 70 75 44 37 -24 97 61 57 -28 66 -30 30 -32 43 49 -35 59 89 73 40 52 -41 -42 45 50 67 -46 46 79 82 -50 -51 86 -53 96 -55 -56 -57 91 -59 63 -61 83 62 -64 -65 69 87 72 71 -70 -71 -72 -73 -74 74 -76 76 -78 -79 -80 93 -82 -83 -84 -85 -86 -87 -88 -89 -90 -91 -92 102 -94 -95 95 99 -98 -99 -100 -101 -102 -103 -104 -105 -106
leaf_value=-0.29489895862307314 -0.37666684565593034 -0.21984635028592922 -0.21984646394262664 -0.24311519640077972 -0.29489895862307314 -0.19741532373175508 -0.26458875419924599 -0.37390709670701638 -0.30962365204409742 -0.29132243271243424 -0.36306729384475039 -0.24069171444862431 -0.3559136591638053 -0.19074235177837079 -0.26639135706783484 -0.18781917307887369 -0.31137032721056579 -0.29549909181017109 -0.36929090378495016 -0.36609525554400446 -0.27195165628962348 -0.36190061287857311 -0.37093355897082214 -0.33727758955017806 -0.1954371202384193 -0.23533719865058345 -0.34400898916397038 -0.18698961641824388 -0.28344393487862884 -0.22457684637415812 -0.36600589898918567 -0.32658947502996499 -0.36815695080822902 -0.37971908922790548 -0.38092070781345905 -0.27852200611377259 -0.2192160465860698 -0.37727624431517653 -0.24496826319394269 -0.25582527706913838 -0.27506501536579553 -0.20499264438620052 -0.29462913669321622 -0.30386708901693266 -0.38271500865816332 -0.31904680364484389 -0.2328039153606776 -0.36510819428539287 -0.24754774180548161 -0.2740745784970775 -0.26250878705835107 -0.34939466517119594 -0.35992566644398338 -0.21082531419135975 -0.29880128201134909 -0.26620335981447552 -0.20803816692544824 -0.34400898864793034 -0.3305602895303566 -0.27867710564411585 -0.34295978462591636 -0.30254620599165827 -0.21308609632207737 -0.23061846515101375 -0.30093617083537511 -0.20604304447781002 -0.2818534471327141 -0.26713535734101868 -0.36361162174961958 -0.38163578052262326 -0.27749081101348561 -0.19499244628422219 -0.19748844662502918 -0.22832882051080722 -0.32956257505239883 -0.36361162249562989 -0.26924076856212137 -0.29489895862307314 -0.21458202439809454 -0.19447263352585309 -0.32040004810849176 -0.23886961810871776 -0.27195165370248653 -0.25264042629024985 -0.3026972680722072 -0.26032501800618996 -0.20020846310523346 -0.27118635178084288 -0.27867712337961198 -0.21221510470542437 -0.29994381830703037 -0.18761106343772294 -0.27118635197415975 -0.26227808965855809 -0.20286615565618893 -0.22953845437759379 -0.26896749250972574 -0.2575915877051384 -0.36929090347713278 -0.31463867961188247 -0.21343362402231653 -0.22586059757879662 -0.23503222816784217 -0.21069066989522528 -0.22457684677610229
leaf_weight=10.480071723461149 41.377729266881943 14.281901180744171 14.281914949417112 20.569913014769554 11.842044621706011 22.520488277077675 18.057268023490906 18.976372539997101 10.341133937239649 11.352774217724798 10.413841992616655 22.804727345705032 13.977694585919378 114.13644097745419 10.513062283396723 1030.4282971769571 10.585773035883902 12.820628494024279 14.083479270339014 38.475012809038162 9.3956342637538928 9.9245613962411863 26.943746194243431 16.212550371885303 62.70825369656086 10.79077783226967 10.063415095210074 156.38056890666485 15.928270384669302 10.056850686669351 11.881697058677672 10.202273011207582 23.029462203383446 9.0517711937427503 10.76426935195923 15.194342657923697 22.10391403734684 25.33703276515007 60.698094621300697 16.834129184484482 19.769838824868202 92.984593942761421 17.885409086942673 9.6071923226118106 14.923191353678702 11.808991670608519 15.505122408270838 11.392411947250368 10.407277807593344 11.246989637613295 20.781481966376305 11.531269982457159 9.1906287521123904 64.982746735215187 13.30991408228874 18.301983773708344 146.27069725096226 10.063415139913557 10.93620039522648 11.736274585127829 9.8187732845544833 16.139839380979538 27.829911634325981 11.663563489913939 11.458559095859526 97.698942214250565 15.683627590537069 13.72648826241493 10.65848460793495 44.419146403670311 9.8849194347858411 92.072161599993706 16.549848899245262 10.301493793725969 14.010767325758932 10.658484488725664 15.577843144536017 9.9907040148973447 16.027490571141243 31.982273161411285 12.053628310561178 14.876999765634535 9.3956345468759519 13.620702639222143 11.70320138335228 18.930126324295998 40.048907086253166 14.215772897005079 11.736279577016829 44.974829912185669 15.650554329156874 299.91400943696499 14.215772882103918 16.205983251333237 41.655621841549873 9.1840653121471423 9.1509919762611371 9.7791347652673704 14.083479329943655 11.075058385729788 65.961315095424652 13.653776884078978 23.188267663121223 86.352733448147774 10.056850790977476
leaf_count=30 164 25 25 43 33 33 43 75 32 31 40 47 52 161 25 1421 33 37 55 147 23 38 105 56 92 21 36 213 42 18 46 34 89 37 44 39 39 101 130 38 50 149 50 29 61 38 30 44 22 28 49 42 35 109 39 44 241 36 37 30 35 48 47 22 34 158 41 33 41 179 25 135 24 19 47 41 38 28 27 46 39 30 23 30 35 44 61 35 30 76 46 412 35 38 65 17 22 22 55 35 113 25 46 145 18
internal_value=-0.229892 -0.262395 -0.216437 -0.243466 -0.210636 -0.269089 -0.204495 -0.272883 -0.201147 -0.301475 -0.290105 -0.25786 -0.244022 -0.242928 -0.224788 -0.198397 -0.219294 -0.212017 -0.258455 -0.318072 -0.270704 -0.309211 -0.308701 -0.243087 -0.233504 -0.21586 -0.245994 -0.212655 -0.350087 -0.240369 -0.299156 -0.235657 -0.29234 -0.269118 -0.285789 -0.257874 -0.283443 -0.293163 -0.273124 -0.312954 -0.324679 -0.230303 -0.251101 -0.22316 -0.338429 -0.225291 -0.247588 -0.280003 -0.303443 -0.336133 -0.236731 -0.287762 -0.261207 -0.222764 -0.235903 -0.203178 -0.201031 -0.289765 -0.229967 -0.326223 -0.250649 -0.215961 -0.246715 -0.280685 -0.352781 -0.190307 -0.195139 -0.212975 -0.313624 -0.365984 -0.329926 -0.203833 -0.236678 -0.254084 -0.28811 -0.342701 -0.306322 -0.353582 -0.251632 -0.235826 -0.272516 -0.276202 -0.321252 -0.292429 -0.25844 -0.208198 -0.220504 -0.213842 -0.223598 -0.22807 -0.342066 -0.198132 -0.213305 -0.216019 -0.20291 -0.226457 -0.312568 -0.305567 -0.334219 -0.277738 -0.226138 -0.263452 -0.190818 -0.219479 -0.264995
internal_weight=3856.29 1130.25 2726.05 762.112 2454.62 271.429 2060.78 344.855 1939.41 368.135 300.905 259.573 208.112 393.837 237.007 1826.08 417.257 683.74 121.37 85.2813 156.83 201.368 127.968 153.001 143.46 215.836 113.33 379.74 57.306 97.4014 21.9385 194.135 101.024 66.748 36.7825 132.511 72.3417 144.062 88.9643 51.4611 55.0976 191.126 99.5369 150.542 24.3188 180.541 87.556 43.5928 20.8211 34.2765 78.7158 37.5164 79.0397 75.4628 103.266 530.739 512.437 20.8542 127.01 22.5005 57.6962 106.678 43.9698 22.5998 67.2305 1142.34 188.614 125.463 21.1715 55.8777 23.9684 105.799 32.2335 46.4162 24.3123 64.7113 26.2363 35.3277 28.8481 75.747 27.5588 25.0793 20.788 23.4395 25.9851 194.981 60.8304 111.915 34.2568 60.1692 34.6269 483.589 160.486 48.1883 176.051 61.9147 18.3416 25.9917 25.9255 20.2591 89.9562 23.9949 323.102 104.41 19.664
internal_count=7521 2702 4819 1626 4146 673 3309 873 3026 1076 832 604 445 837 445 2781 753 1167 283 269 392 610 387 325 286 379 245 651 206 203 64 393 282 165 99 308 193 404 225 159 179 373 222 279 84 340 191 114 62 117 160 102 187 139 209 842 798 57 247 74 128 187 95 59 244 1614 278 215 66 213 80 168 65 105 66 226 79 129 64 153 69 64 67 65 60 322 110 193 63 115 121 734 276 84 278 117 57 78 88 52 170 57 458 188 47
is_linear=0
shrinkage=1


Tree=1
num_leaves=106
num_cat=0
split_feature=356 229 622 622 230 248 567 306 6 7 620 545 103 580 176 39 86 624 620 8 16 463 103 389 120 529 315 463 8 631 332 2 229 412 462 37 527 475 0 332 493 624 302 51 67 389 1 230 39 530 601 355 95 10 345 361 2 635 441 562 562 516 198 123 0 95 606 108 76 90 51 628 622 500 332 380 0 74 2 571 32 440 302 363 310 2 1 39 421 209 547 139 583 516 104 298 330 22 475 138 86 569 74 316 582
split_gain=523.136 264.379 256.893 167.893 148.665 122.238 108.878 74.5715 72.6081 71.7525 69.9618 71.8063 63.1847 62.2886 58.3637 52.5913 52.4887 51.2424 48.5544 43.31 41.8977 39.1962 38.1065 37.1758 43.6241 37.0494 36.3096 53.3022 35.8543 34.985 34.3755 34.0917 33.0597 36.2361 33.7765 30.6368 30.6243 29.8849 29.916 27.9671 27.8116 27.21 29.6928 26.8266 26.0333 42.4879 42.9948 26.6666 25.5986 25.0421 24.8142 24.4099 34.3926 24.3642 24.0553 27.9908 23.9017 23.6907 23.6381 22.9473 27.3927 27.0221 22.0116 31.0346 22.0021 21.9577 21.9517 21.8522 21.7067 20.2649 20.1466 20.0738 21.416 19.7765 19.7759 19.7073 19.6897 19.325 18.7919 18.7617 26.1521 18.6388 17.6344 17.5151 17.0614 16.6386 16.2793 16.0913 15.1106 14.9489 23.811 14.8489 14.8434 14.4638 14.222 14.1467 13.7095 16.6875 13.9202 13.2537 13.239 13.2335 13.1419 12.8641 12.8275
threshold=-436.99999999999994 42.500000000000007 1981.5000000000002 1066.0000000000002 581.50000000000011 -7.4999999999999991 149.00000000000003 182.50000000000003 200.50000000000003 258.50000000000006 198.00000000000003 11.000000000000002 1.0000000180025095e-35 99.500000000000014 17.500000000000004 856.00000000000011 -66.499999999999986 221.50000000000003 151.50000000000003 387.50000000000006 343.50000000000006 1706.0000000000002 55.500000000000007 87.500000000000014 141.50000000000003 806.50000000000011 31.500000000000004 2484.5000000000005 373.50000000000006 22.000000000000004 301.50000000000006 523.50000000000011 49.500000000000007 60.500000000000007 -295.49999999999994 102.50000000000001 70.500000000000014 -134.49999999999997 87.000000000000014 301.50000000000006 1300.5000000000002 192.50000000000003 66.000000000000014 385.50000000000006 45.500000000000007 105.50000000000001 359.00000000000006 1079.5000000000002 370.50000000000006 33.000000000000007 728.50000000000011 -135.49999999999997 45.500000000000007 44.500000000000007 57.000000000000007 135.50000000000003 450.50000000000006 1105.5000000000002 19.500000000000004 -46.499999999999993 -56.499999999999993 2406.5000000000005 641.00000000000011 36.500000000000007 107.00000000000001 192.50000000000003 47.000000000000007 1.0000000180025095e-35 69.000000000000014 149.00000000000003 -358.49999999999994 77.000000000000014 1217.0000000000002 41.000000000000007 709.50000000000011 1.0000000180025095e-35 99.000000000000014 41.500000000000007 493.50000000000006 524.50000000000011 1.0000000180025095e-35 138.50000000000003 71.000000000000014 95.000000000000014 75.000000000000014 395.50000000000006 301.00000000000006 665.50000000000011 26.500000000000004 -22.499999999999996 34.500000000000007 16.500000000000004 45.000000000000007 1422.0000000000002 278.50000000000006 21.500000000000004 563.50000000000011 21.500000000000004 -388.49999999999994 26.500000000000004 6.5000000000000009 2028.0000000000002 39.500000000000007 964.50000000000011 1086.5000000000002
decision_type=2 2 2 2 2 2 2 2 2 2 2 2 2 2 2 2 2 2 2 2 2 2 2 2 2 2 2 2 2 2 2 2 2 2 2 2 2 2 2 2 2 2 2 2 2 2 2 2 2 2 2 2 2 2 2 2 2 2 2 2 2 2 2 2 2 2 2 2 2 2 2 2 2 2 2 2 2 2 2 2 2 2 2 2 2 2 2 2 2 2 2 2 2 2 2 2 2 2 2 2 2 2 2 2 2
left_child=2 10 4 14 6 15 9 16 -6 21 11 19 39 32 53 25 -5 37 29 30 22 74 77 82 -25 -4 27 36 -16 44 -2 49 34 -34 -14 50 96 78 -39 88 -17 -42 -43 48 45 -10 47 91 -19 56 54 70 94 67 55 -21 -30 89 -24 60 61 -7 63 76 -61 73 -26 -3 -64 83 -13 72 -18 -52 -1 -31 -35 93 86 87 -81 -12 -22 -37 -27 -84 -11 -48 -9 -51 -91 -47 -86 -8 -53 -59 97 98 -20 -57 -23 -36 -73 -83 -88
right_child=1 3 5 7 8 59 20 12 18 17 81 51 13 -15 28 40 71 43 26 35 23 100 58 24 66 84 -28 -29 31 75 -32 -33 33 62 101 69 -38 38 -40 -41 41 42 -44 -45 -46 46 79 -49 -50 57 65 52 -54 -55 -56 99 -58 95 -60 64 -62 -63 68 -65 -66 -67 -68 -69 -70 -71 -72 102 -74 -75 -76 -77 -78 -79 -80 80 -82 103 85 -85 92 -87 104 -89 -90 90 -92 -93 -94 -95 -96 -97 -98 -99 -100 -101 -102 -103 -104 -105 -106
leaf_value=0.074793744912201976 -0.07854230580632994 0.075395502745258636 0.056626577638417899 0.066465927751867104 -0.032796619854128101 0.025871204268209626 -0.012567039098893172 -0.085557627344754916 0.0980565208215642 0.031631192997468104 0.0017347238689957216 0.03766798751112118 0.07226387419866083 -0.058423260794347481 -0.016554087859362906 0.092500671642570975 0.045701553488885882 0 0.083528462267047257 -0.071310235394827878 0.0091656688452434673 -0.073661227188895742 0.078404932210000708 -0.046346860458882484 0.075213937558900504 -0.084128520824139158 0.089856144605302751 -0.055648204736982634 0.068437695254204414 -0.01662873490427768 0.010841063674290687 0.00037163648970661364 -0.021838344626181772 0.019618413766876668 0.00776493994953034 0.083495992835043789 -0.004527323020168156 -0.020533708895953628 0.068071486326539657 0.036839289327891211 0.078229518306965007 -0.04308865143716975 0.050945602073388808 -0.021203193897566721 0.10570016505616675 -0.068925095805012979 0.014951474140147211 0.060699079631096033 0.074048805630690689 0.10608054489192469 0.0072866608792137039 0.045534300379354402 0.075683995178742816 -0.04508647233632742 0.083599464914865154 -0.0054907641497823241 -0.014724773052992567 0.0086450156039551071 -0.0042184000212557348 -0.077052900413078773 0.077030285842238505 -0.07399856771878055 0.10291647383649635 -0.027287356664202657 0.0057267062148374341 0.023551648571122217 -7.6433927062812061e-05 -0.012519839707831612 0.034064458602406061 -0.027898618622225622 -0.064875663504552233 -0.082432389440131398 -0.044837440053588806 -0.077185191123509286 -0.010546567997732762 0.064564315213642712 0.096337192959496193 0.0231761579122979 0.034936107198229309 0.067487389329643432 -0.028814820747582695 -0.08374802181471247 0.0044412010671718086 0.0034479829369880189 -0.042040445674886538 0.086255938775630758 0.097110405875943037 0.091014410034781681 -0.01155990234526222 0.012024653450846799 0.088705708616119192 0.020306312694067425 0.04086902815719521 -0.08794187239089106 -0.040996871938569109 0.073117675085967532 0.09255648899922965 -0.009941752443073314 0.024002715787064071 0.07222532193609224 0.0054964470543272118 -0.070329140802847509 -0.0051952227723581126 -0.019760030192655764 0.055830949649154117
leaf_weight=25.180739030241966 40.81881383061409 18.431081846356392 23.341265872120857 14.873821079730986 13.105934530496596 13.949655875563623 14.576473534107206 14.77714531123638 539.21710231900215 14.649673342704771 11.764630064368246 11.154605627059938 14.364210799336432 13.840831622481344 10.188215911388395 62.931230813264847 11.968609601259233 18.011979267001152 34.323490753769875 12.330278709530829 14.152958288788794 12.887568503618242 19.266429826617241 21.491996198892593 26.275315329432487 10.671954274177549 117.03753232955933 11.993645563721655 33.150144040584564 10.388701528310774 15.954490497708319 15.413124933838843 11.329147458076475 17.787089616060257 10.86052940785885 23.162772685289383 17.340114653110504 13.287477239966391 42.26849302649498 16.924362421035767 31.204588070511818 16.019991844892502 21.607469633221626 16.101037472486496 483.18359935283661 9.9699927866458911 9.7532191276550275 21.315559089183807 46.399613246321678 171.58839832246304 9.0097488909959775 9.0844146311283129 58.254245683550835 13.545276403427122 10.251639887690542 13.361884862184526 12.495587632060049 16.033036217093468 17.520515650510788 32.776308685541153 9.5902690291404706 15.188880875706671 73.766172960400581 12.104677960276602 11.099390551447867 10.988966464996336 16.576428025960922 12.429994329810144 18.589960351586342 9.4841434657573682 9.6180676817893964 31.193812280893326 17.569542616605759 32.334218814969063 9.6420382410287839 30.478673592209816 25.330545142292976 10.817471668124197 19.952818661928177 35.483905985951424 9.301926448941229 40.786740183830261 9.0741450041532499 13.231457427144049 12.789918407797815 69.366349920630455 370.56224089860916 187.29127545654774 19.591365948319435 15.344072222709654 70.260638892650604 9.4477008283138257 10.901244774460791 17.79588671028614 11.94090850651264 32.187469735741615 45.765114724636078 9.4315572530031186 20.288209438323975 9.8544033616781217 9.0505052357912046 11.38906057178974 9.309724882245062 14.034069389104841 29.550263613462448
leaf_count=43 164 31 46 27 43 34 44 61 753 34 33 25 25 52 31 93 26 50 54 48 37 50 32 75 45 44 179 44 60 32 42 42 36 44 29 38 50 41 76 38 52 55 44 50 624 38 24 40 80 221 24 19 100 48 16 39 38 42 51 130 16 60 98 39 30 27 47 38 42 31 37 126 62 128 29 57 36 26 45 64 30 166 24 36 45 109 525 279 60 39 107 23 24 73 41 56 67 28 49 17 24 44 28 45 58
internal_value=0.0610842 0.0306705 0.0735981 0.0484124 0.078978 0.0243734 0.0610037 0.0207893 0.0885577 0.0726268 -0.00624127 0.00453956 0.0349167 0.0478924 0.0709473 0.0479264 -0.0220381 0.0783027 0.0895838 -0.0136049 0.0299776 0.0146753 -0.000769833 0.0458906 0.0139471 0.00481493 0.0675917 0.0483909 0.0777504 0.0937208 -0.0527485 0.0805019 0.0557223 0.0662265 0.0087851 0.00161102 0.0586587 0.0848269 0.0461113 -0.0171787 0.0664224 0.0416367 0.00974759 0.0378613 0.095268 0.0890428 0.0715976 0.0195442 0.0533242 0.0838937 -0.0148127 0.0413083 0.0547583 0.012134 0.0129748 -0.00675742 0.0447896 0.0895436 0.0381958 -0.0291058 0 -0.0249624 0.0733115 0.0447832 -0.0552464 -0.0398805 0.0453063 0.0388381 0.0896893 0.0375328 -0.00803131 -0.0416634 -0.00660995 -0.0578274 0.0500561 0.0429085 0.0660614 -0.0349873 0.0896378 0.0801495 0.0464664 -0.0553819 0.067499 0.0558538 -0.0293332 0.077396 0.0921363 0.0874986 -0.0451178 0.0961964 0.0755596 -0.0237003 -0.00205752 -0.0557793 -0.0014657 0.0527689 0.0690124 0.0511393 0.0624699 0.0261998 -0.0394591 -0.0307307 -0.0659169 -0.0683602 0.0942167
internal_weight=3885.71 1134.06 2751.65 766.638 2479.58 272.072 864.458 345.571 1615.12 627.544 367.421 300.835 260.655 209.362 421.067 189.468 84.9155 570.784 1602.01 200.783 236.914 56.7609 79.9768 156.937 64.3437 57.7044 256.18 139.142 376.661 1345.83 56.7733 366.472 195.521 158.908 36.6138 144.01 127.148 490.271 55.556 51.2929 131.763 68.832 37.6275 80.5126 1304.96 821.781 282.564 40.7333 64.4116 351.059 98.1311 100.052 79.2796 44.4064 45.7982 35.5466 45.6457 305.414 36.7869 82.6045 38.7288 29.1385 147.578 55.2223 43.8757 52.3329 42.8517 30.8611 92.3561 45.8784 20.7727 70.0417 29.5382 41.344 34.8228 40.8674 43.1176 43.1898 434.715 241.83 44.7858 66.5854 92.5935 36.3942 34.3631 78.4405 414.762 197.044 34.3685 257.193 85.6047 19.4177 23.6912 32.3724 21.0253 48.2205 109.808 64.0433 54.6117 23.2163 21.9381 22.2496 40.5035 54.8208 400.113
internal_count=7521 2702 4819 1626 4146 673 1668 873 2478 1105 1076 832 604 445 753 403 269 959 2435 610 563 146 226 337 167 159 471 292 636 1964 206 605 393 295 98 404 248 779 117 159 244 151 99 180 1875 1251 498 101 130 563 299 222 160 117 120 104 98 465 83 270 110 94 259 119 160 179 92 69 140 105 62 242 88 152 72 89 80 143 662 397 94 244 170 74 113 133 617 303 121 367 146 61 69 117 60 98 198 131 103 56 74 73 154 211 583
is_linear=0
shrinkage=0.0530772


Tree=2
num_leaves=106
num_cat=0
split_feature=356 66 622 229 627 8 248 8 622 632 252 518 103 283 360 229 636 352 411 551 198 440 623 330 8 567 624 567 615 39 40 627 36 279 298 94 622 440 18 411 529 627 17 499 145 198 575 569 490 604 1 70 403 7 516 350 3 318 585 414 332 623 263 182 0 140 553 251 622 287 389 109 147 211 7 43 571 552 158 315 368 23 250 516 307 514 633 553 143 176 474 128 302 442 36 530 98 411 306 250 410 228 198 306 389
split_gain=462.049 248.335 226.535 173.18 134.241 124.213 110.383 90.0158 78.7437 70.4111 70.1516 63.1646 61.1441 59.6146 50.6123 49.6374 51.4169 48.6065 47.3831 47.1546 45.6186 64.2942 44.0345 43.8249 41.6138 40.6855 40.162 36.129 36.1242 35.9576 34.8169 33.6724 32.7784 32.3013 31.9238 31.8302 31.2813 34.6203 29.7902 30.6381 29.6813 27.7647 27.3389 26.3759 26.0459 39.8061 25.8644 24.4437 24.4227 24.2703 24.1551 24.0434 23.9275 23.0829 28.1484 28.9421 22.8196 22.1909 21.795 21.7661 21.6466 21.3089 21.0971 20.9287 21.5809 20.1724 20.1624 20.0956 19.9937 19.8749 19.7293 19.6302 18.553 28.4053 18.2409 17.8849 20.1041 17.8341 17.6644 17.6253 17.6196 17.013 16.8661 16.7996 17.8392 25.5303 16.7021 16.6206 15.2454 14.8427 13.9363 21.1611 13.913 13.7283 13.495 13.2922 13.2237 11.4895 19.152 11.4631 11.2411 10.5402 10.6623 10.3135 10.2846
threshold=-436.99999999999994 26.500000000000004 1981.5000000000002 60.500000000000007 1224.5000000000002 379.50000000000006 -22.499999999999996 375.50000000000006 1205.5000000000002 39.000000000000007 158.50000000000003 36.500000000000007 -12.499999999999998 19.500000000000004 45.500000000000007 57.500000000000007 35.000000000000007 50.500000000000007 597.50000000000011 44.500000000000007 702.50000000000011 133.50000000000003 1139.5000000000002 192.50000000000003 388.50000000000006 312.50000000000006 299.50000000000006 149.00000000000003 -115.49999999999999 861.00000000000011 465.50000000000006 1697.0000000000002 -22.499999999999996 160.50000000000003 21.500000000000004 70.500000000000014 2628.0000000000005 797.50000000000011 837.50000000000011 924.50000000000011 429.50000000000006 1588.5000000000002 22.500000000000004 1026.5000000000002 421.00000000000006 753.00000000000011 85.000000000000014 1881.0000000000002 23.500000000000004 46.500000000000007 447.00000000000006 66.500000000000014 99.500000000000014 259.50000000000006 1857.0000000000002 11.500000000000002 413.50000000000006 59.000000000000007 1.0000000180025095e-35 220.50000000000003 255.50000000000003 1232.5000000000002 -871.99999999999989 33.000000000000007 97.000000000000014 -12.499999999999998 43.000000000000007 539.00000000000011 797.00000000000011 45.500000000000007 172.50000000000003 1.0000000180025095e-35 417.00000000000006 -1154.4999999999998 264.50000000000006 208.50000000000003 417.00000000000006 853.50000000000011 274.50000000000006 -1.0000000180025095e-35 -7.4999999999999991 51.000000000000007 820.50000000000011 2518.5000000000005 80.500000000000014 117.50000000000001 -27.499999999999996 55.000000000000007 19.500000000000004 34.500000000000007 1.0000000180025095e-35 104.50000000000001 66.000000000000014 45.500000000000007 -7.4999999999999991 33.000000000000007 119.00000000000001 60.500000000000007 334.00000000000006 361.50000000000006 2409.0000000000005 495.50000000000006 216.00000000000003 124.00000000000001 1094.5000000000002
decision_type=2 2 2 2 2 2 2 2 2 2 2 2 2 2 2 2 2 2 2 2 2 2 2 2 2 2 2 2 2 2 2 2 2 2 2 2 2 2 2 2 2 2 2 2 2 2 2 2 2 2 2 2 2 2 2 2 2 2 2 2 2 2 2 2 2 2 2 2 2 2 2 2 2 2 2 2 2 2 2 2 2 2 2 2 2 2 2 2 2 2 2 2 2 2 2 2 2 2 2 2 2 2 2 2 2
left_child=2 3 4 8 5 17 29 66 11 15 48 -2 68 32 44 16 26 34 50 43 62 -22 31 24 51 36 47 59 -19 40 42 63 -10 83 93 56 37 69 39 49 -4 -21 -26 58 45 -12 -30 79 81 -24 72 -13 80 54 -18 -56 -32 -38 61 90 -43 95 -15 64 -14 70 -3 -42 -9 -8 -46 -25 73 -16 82 101 99 -33 -49 -7 -44 -6 -31 84 85 -23 100 -20 -73 -28 91 -11 -66 -1 -78 -5 103 -74 -99 -77 -55 102 -17 -37 -88
right_child=1 7 6 19 10 9 25 12 13 27 14 23 22 20 18 75 53 28 87 41 21 33 38 71 30 -27 89 -29 46 74 35 77 -34 -35 -36 96 57 -39 -40 -41 67 60 52 -45 65 -47 -48 78 -50 -51 -52 -53 -54 86 55 -57 -58 -59 -60 -61 -62 -63 -64 -65 92 -67 -68 -69 -70 -71 -72 88 97 -75 -76 76 94 -79 -80 -81 -82 -83 -84 -85 -86 -87 104 -89 -90 -91 -92 -93 -94 -95 -96 -97 -98 98 -100 -101 -102 -103 -104 -105 -106
leaf_value=0.0034005209669134805 -0.08457640301441452 0.011058509012908141 0.067167270511158866 0.0095604918869132069 -0.077585766908526213 0.01406680675089513 0.066535237535994246 0.027070939040911821 0.09208905662179824 -0.033044753603088756 -0.054303704690089549 -0.078699615839252224 -0.0016596794032942054 0.00056960466196948425 0.05441855798200753 0.019028202227032092 0.074041557392760707 -0.035244418596439848 -0.086092800245666304 0.080282395680841903 0.086476011289102359 -0.045691553530202184 -0.021032779269827842 0.07790571117353623 0.049689545485858563 -0.071107293007057551 -0.067470895382630222 -0.041458134260378275 0.083182204081625036 -0.0086235493076924543 0.042837240744351579 0.0542500906609635 -0.022563605601026285 0.028554278381977525 0.047170298382742996 0.012060857351538492 -0.06906662073260364 -0.047034241542036316 0.066468869949302303 -0.083289336857410509 0.014884590581643788 -0.046170840941549711 -0.013015318676416894 -0.064691423089241612 0.076305187737326405 0.091140596445679428 0 -0.040063653784623128 0.051835685771220899 0.089554306073263729 -0.021135609646652825 0.009211790454717832 0.040316046504636854 0 -0.068540117899649297 0.060685869616336083 -0.05278363059778448 0.018897736437509985 -0.031402445006956513 -0.0076622880924795645 0.063245830795922442 -0.027167742323419768 -0.077290271610766445 0.094563461068401744 0.090468067647379177 0.090220838158651881 -0.085275581191928157 -0.082700527827267126 -0.066077671782938954 -0.0007413555117391199 0 -0.025085734375699335 0.094549854684428294 -0.052688019852054395 0.084814966050732618 0.018054391836290345 0.05893992859292789 -0.030121446844753992 0.052542766760320748 0.074066932121602036 -0.087955623286830348 0 0.066086939481797807 -0.070843133607143283 -0.069131965177581953 0.072852393921003816 0.089210254200044664 0 0.060559687995519577 0.021952345607014992 0.073830970824061759 0.066560570224930934 0.022515457980931911 -0.064758520269158876 -0.018654878218943099 0.075021890177669956 0.0037900162779450773 0.073196941451775452 -0.014220627689900836 0.086551826235957363 0.072009799620444501 0.097721798560122225 0.085095831940008457 0.076722500997111878 0.041176477941758438
leaf_weight=11.145889878273008 17.498175039887428 10.376607567071916 14.497912883758543 13.941037088632582 17.199878633022308 18.158017382025719 35.505527943372726 14.762156426906587 15.606456950306894 9.8141015022993106 10.839228689670565 22.548145443201065 12.632980138063429 9.8939562290906888 19.567322075366977 9.0727624297142011 35.713775783777237 10.276668220758436 10.976803958415987 110.94877870380878 14.230251684784887 9.6999556124210411 11.274041101336485 42.007087305188179 14.05123659968376 26.340858995914459 10.14627216756344 12.348840385675429 57.838738739490509 13.437346294522284 11.861367389559748 19.756853178143505 11.511392936110495 18.079405024647713 16.663556545972824 10.180066376924513 22.596049949526787 14.413600683212278 31.699741497635841 9.668976351618765 11.932704433798792 9.3192543685436267 19.257548987865444 9.1454196572303754 20.085108906030655 9.5917414128780347 13.549662649631498 11.47198708355427 9.7718939334154111 9.8003966957330686 13.477524757385252 12.798066794872282 9.1610310524702054 11.709066972136499 9.7281107306480425 9.0790466964244825 15.765014410018919 11.291352286934851 12.80843874812126 13.623527094721792 10.175186350941656 9.2239156365394575 81.209474414587021 219.99883694946766 35.964079901576042 114.59876704216003 12.349956661462782 10.352668970823286 10.739565074443815 16.974740505218506 16.158453091979027 11.807254523038866 29.765308722853661 10.142806753516195 75.796233236789703 9.2940939366817457 13.892607584595682 9.9183421581983549 10.939492300152777 106.0156716555357 19.199795946478847 16.550294235348701 19.062163352966309 42.55535314977169 11.520399853587149 9.8269830942153913 454.05588202178478 13.76214788854122 10.418478921055792 9.2288472056388837 67.807740852236748 13.363103196024893 13.858378261327742 22.84179998934269 10.009893059730528 34.515039414167404 13.178853169083593 19.421729743480686 9.7077601402997953 107.63398335874081 13.061027780175207 813.04067000746727 223.91369380056858 48.416833430528641 17.227817192673683
leaf_count=30 73 27 25 36 68 45 64 34 22 32 39 91 36 28 38 21 59 34 45 178 22 35 36 70 29 105 39 43 89 39 25 39 37 43 34 26 89 52 56 40 31 33 58 35 32 13 37 39 19 14 42 35 19 32 37 16 57 28 42 40 18 30 324 305 53 166 51 43 42 49 45 38 40 36 115 22 25 33 21 178 79 47 33 166 45 17 655 38 19 22 114 23 33 86 30 57 36 32 29 157 22 1065 334 80 36
internal_value=0.0576057 0.0290142 0.0693172 0.00980698 0.0743425 0.079275 0.0230761 0.0612417 -0.00704741 0.0825503 0.0430894 0.0117015 0.067121 -0.0304904 0.0523125 0.0850318 0.0735918 0.0288606 0.026257 0.0502591 -0.0407603 -0.0164523 0.0725473 0.0184265 0.0057023 -0.012747 0.0469187 0.0416747 0.0542125 0.0547208 0.0173542 0.0807764 0.0421532 -0.0331434 -0.0112522 0.036864 0.00225731 0.0236791 0.0305227 -0.00545719 0.00795096 0.0699867 -0.0134249 0.0172535 0.0712689 0.0122535 0.0677921 0.0564872 -0.0190189 0.0289509 0.0424145 -0.0458632 -0.0331569 0.0815215 0.046493 -0.00393026 -0.0101648 -0.0385935 0.02874 0.0519964 0.00886202 0.0429391 -0.0683904 0.086492 0.0570345 0.0789339 -0.0398784 -0.0290717 -0.0108205 0.0440856 0.0415862 0.0564453 0.0526076 0.0162441 0.0701388 0.0918803 0.0723017 0.0245918 0.00334549 0.0656986 -0.0519607 -0.0410956 0.0341006 -0.0489404 -0.0171255 0.0120062 0.0852519 -0.0383825 0.0134389 -0.0230231 0.0613974 0.022673 0.0726926 -0.0413267 0.0248476 0.0572599 0.0555282 0.0700352 0.0427619 0.0815396 0.0387753 0.094452 0.0827378 0.0663481 0.0875751
internal_weight=3901.64 1135.16 2766.48 712.36 2494.28 2152.67 272.201 422.801 502.283 2020.35 341.617 278.149 400.074 224.134 298.095 1903.39 716.535 132.316 126.821 210.077 197.016 105.912 374.573 260.651 196.418 127.122 165.96 116.957 81.6651 145.079 161.072 312.129 27.1178 91.6821 50.6512 99.4021 100.781 66.8939 62.4432 30.7434 36.7833 130.443 61.6696 79.6339 171.273 20.431 71.3884 146.585 43.5221 21.0744 102.082 35.3462 47.6184 550.575 54.5209 18.8072 27.6264 33.8874 70.4884 104.608 19.4944 57.68 91.1034 282.454 62.4554 150.842 22.7266 22.2854 25.5017 52.4803 36.2436 64.2328 88.6049 29.7101 108.296 1186.86 140.831 29.6752 22.4115 124.174 38.4573 33.7502 32.4995 73.6027 31.0473 19.5269 496.054 24.739 22.2257 19.3751 90.9849 23.1772 49.8225 33.9877 23.9025 48.4561 71.7758 58.8948 29.1295 116.928 24.7701 1046.03 232.986 58.5969 471.284
internal_count=7521 2702 4819 1903 4146 3417 673 799 1474 3107 729 735 721 739 595 2855 1201 310 300 429 680 328 645 662 535 387 344 252 160 286 409 499 59 306 150 224 282 165 146 90 99 229 185 200 295 52 126 283 134 50 217 126 156 857 112 53 82 117 165 209 51 123 352 427 122 243 78 74 76 113 77 127 175 74 187 1654 234 72 60 223 137 115 72 263 97 52 745 83 57 61 169 55 86 116 55 93 142 101 61 179 54 1420 355 106 691
is_linear=0
shrinkage=0.0530772


Tree=3
num_leaves=106
num_cat=0
split_feature=229 622 569 625 359 5 36 1 39 35 7 230 603 411 8 90 493 527 145 567 315 378 279 66 517 103 365 265 309 263 463 16 620 151 622 192 570 624 528 355 138 257 142 318 103 73 409 359 465 172 619 284 369 500 569 332 336 71 445 315 463 440 67 297 409 121 462 98 515 622 543 514 626 8 85 564 249 339 605 359 92 463 283 158 543 42 230 363 551 143 0 90 572 581 147 91 172 350 35 518 307 498 7 468 369
split_gain=415.247 222.907 175.533 136.847 129.188 117.856 101.939 91.3201 80.2336 70.5256 62.0117 61.8245 68.716 76.9275 57.0581 54.3124 52.6441 45.2495 53.035 42.8525 41.8661 39.2514 38.1849 37.8057 36.51 34.7397 34.6883 34.6752 34.9943 32.8352 32.6922 32.6504 29.681 30.8709 29.0908 28.3869 28.3037 26.365 26.5931 25.6311 25.5038 25.3973 25.2791 25.0572 26.8677 24.7538 24.2796 24.1037 23.4856 23.4123 26.4505 23.3981 25.4771 22.718 22.145 22.0136 34.8677 21.4797 21.2188 20.2781 26.4908 20.1635 34.1019 26.4696 19.8973 19.3803 25.8417 18.5223 18.1645 18.0549 26.0853 19.6085 17.436 17.3511 18.2463 17.0159 16.8863 16.7988 16.6622 16.4501 16.0734 15.5641 15.147 14.7913 14.7073 14.6881 14.2322 13.5336 13.4282 12.9516 12.9473 12.8289 12.5937 19.8423 18.1432 12.1568 11.8489 12.4965 11.5859 10.7673 10.5009 10.0892 10.0758 12.9496 10.0639
threshold=44.500000000000007 1981.5000000000002 1891.0000000000002 270.50000000000006 504.50000000000006 499.50000000000006 -17.499999999999996 317.00000000000006 856.00000000000011 -17.499999999999996 257.50000000000006 887.50000000000011 26.500000000000004 617.50000000000011 377.50000000000006 -40.999999999999993 460.50000000000006 89.500000000000014 382.00000000000006 97.500000000000014 31.500000000000004 1.0000000180025095e-35 495.50000000000006 25.500000000000004 1256.5000000000002 16.500000000000004 10.500000000000002 95.000000000000014 683.50000000000011 -46.499999999999993 1051.0000000000002 319.50000000000006 178.00000000000003 115.00000000000001 1188.0000000000002 -46.499999999999993 514.50000000000011 192.50000000000003 1019.5000000000001 -121.49999999999999 31.500000000000004 25.000000000000004 -17.499999999999996 59.000000000000007 45.500000000000007 75.500000000000014 -465.99999999999994 50.500000000000007 724.50000000000011 69.500000000000014 -37.499999999999993 51.000000000000007 -1086.4999999999998 63.000000000000007 2003.0000000000002 1939.5000000000002 123.50000000000001 404.50000000000006 14.500000000000002 -12.499999999999998 1891.0000000000002 602.50000000000011 47.500000000000007 21.500000000000004 -421.99999999999994 9.0000000000000018 188.00000000000003 101.00000000000001 -724.99999999999989 1151.5000000000002 13.500000000000002 19.500000000000004 198.50000000000003 417.50000000000006 -32.499999999999993 41.000000000000007 -40.999999999999993 65.500000000000014 650.50000000000011 988.50000000000011 1413.0000000000002 1771.5000000000002 188.50000000000003 -110.49999999999999 10.500000000000002 172.50000000000003 941.50000000000011 43.000000000000007 41.500000000000007 -38.499999999999993 75.000000000000014 66.000000000000014 231.50000000000003 947.50000000000011 314.50000000000006 -696.49999999999989 71.500000000000014 6.5000000000000009 -7.4999999999999991 236.50000000000003 343.50000000000006 59.500000000000007 259.50000000000006 870.50000000000011 -1557.4999999999998
decision_type=2 2 2 2 2 2 2 2 2 2 2 2 2 2 2 2 2 2 2 2 2 2 2 2 2 2 2 2 2 2 2 2 2 2 2 2 2 2 2 2 2 2 2 2 2 2 2 2 2 2 2 2 2 2 2 2 2 2 2 2 2 2 2 2 2 2 2 2 2 2 2 2 2 2 2 2 2 2 2 2 2 2 2 2 2 2 2 2 2 2 2 2 2 2 2 2 2 2 2 2 2 2 2 2 2
left_child=2 3 4 5 14 7 8 16 42 15 35 12 65 26 68 83 41 18 -5 69 29 30 43 32 -10 81 49 28 55 -15 48 75 33 47 -22 -6 -37 -26 82 -25 79 -2 -3 101 -45 -31 -17 -16 -11 78 -51 54 -53 73 -32 56 77 -44 -19 60 99 95 63 86 89 66 96 98 -1 -12 71 -71 -28 74 -49 88 -38 -7 -14 -18 -40 -20 -39 -4 -77 -54 -63 -41 -21 -33 -61 -58 93 94 -56 -27 -9 -98 -62 -13 -92 -8 103 -67 -100
right_child=1 6 9 17 10 27 22 11 24 21 19 59 13 20 23 46 40 58 25 31 34 -23 -24 39 37 61 72 -29 -30 45 51 64 -34 -35 -36 36 76 38 80 87 -42 -43 57 44 -46 -47 -48 53 -50 50 -52 52 85 -55 92 -57 91 -59 -60 90 67 62 -64 -65 -66 102 -68 -69 -70 70 -72 -73 -74 -75 -76 84 -78 -79 -80 -81 -82 -83 -84 -85 -86 -87 -88 -89 -90 -91 100 -93 -94 -95 -96 -97 97 -99 104 -101 -102 -103 -104 -105 -106
leaf_value=0.0047209138746626194 0.00034229222390868961 -0.083891691588817485 -0.084370607690754176 -0.046163514060997363 0.073392640967371456 -0.079834961759159134 -0.073961381637316942 0.08454966118319765 0.091200396465899586 -0.02922178158438361 0.083439031888947607 0.022836715053392992 0.077010068779692353 0.071812747384167708 -0.048190851255802462 0.085888163858906644 -0.07765170977003652 0.03107007216937396 0.03120079133439645 -0.0046001659555567507 0.075114375910850295 0.054610442205768814 0.046220329917511509 -0.01130717931231247 0.073827268174806157 0.01397815827860689 -0.052052753191809499 -0.069115157888788928 0.064042195733417379 -0.080977181905882781 0.00093296418071701936 0.015862716055224161 -0.052309245726796912 -0.048407436726278723 -0.0049700880693436247 0.042838947452878404 0 0.08102899827024837 -0.085091228951674563 0.011623435394410402 0.034444917284953781 0.084631343752623961 -0.062145495539670366 -0.050768067614944783 0.067850428819387867 -0.0031235523494241597 0.002318156841166652 0.063097331805322676 0.078970077425276605 0.069970988278887272 -0.015702407695975616 0.047963551330047705 -0.083647847720227028 -0.043815730669173873 0.025264966117374093 0.074271573328889576 0.0014117702356209972 0.033611248713431074 -0.051666419816823204 0.031881670324767034 0.092116413571072947 -0.085719470682472779 0.075843645502386675 0.045407611059922491 0 0.011999983060107317 0 -0.03462958255248496 -0.077012496496885477 -0.052757540921858748 0.076134272444507975 0.043633952848078722 0.043358965236000163 0.068110111471633705 -0.0024454548022938673 -0.06205374775532408 -0.087140898023057717 0 0.021316701546130825 0.00046092112777508114 0.0055474439758125592 -0.039684945561775542 0 0.00086671734042244276 0.019630284750600493 0.0016130167124007158 0.0014651144050129099 0.088036305509076193 0.073467205184163234 0.075861838121085087 0.09094386362846224 0.081401599765891078 -0.077712482152030096 -0.073485089527803263 -0.064292591443499233 0.0829797985552016 -0.0016683234469779601 0.062234361789314976 0.05534830950736723 0.087741819685651437 0.042148982976338234 -0.0084790638728335626 0.092262278197353456 0.079763071458220425 -0.014868612551038067
leaf_weight=9.3740233331918699 15.167369678616522 12.484195888042448 9.6797026842832583 17.363560378551483 10.743050187826155 18.001069396734241 43.598261371254921 83.807808935642242 63.026905000209808 10.080467537045481 197.82671844959259 10.175619572401045 318.44680632650852 10.607990041375158 10.765448838472365 36.526647374033928 17.845444098114971 12.64769162237644 20.010986104607582 10.783753976225855 39.99261549115181 14.493912011384962 15.480305120348929 11.964978486299513 29.842182338237762 9.735556483268736 9.6509834080934542 10.148439750075338 50.141980826854706 17.034815847873688 17.346263021230698 14.373357102274893 22.12116152048111 18.500906020402908 17.22617544233799 11.634139090776442 9.7866535037755948 14.168972179293634 9.470419719815256 9.7662455141544324 16.743337690830231 37.323388859629631 9.0286712795496005 10.919775784015657 9.8907507658004743 37.973935529589653 14.83525490760803 17.385055154561996 11.232135325670241 20.379180744290352 18.470676481723785 15.021479919552801 10.838098496198656 9.0148577094078046 17.102575078606609 10.377602726221083 14.878896266222002 21.651349291205406 24.116734251379967 13.628918737173079 11.178702518343924 9.7578665465116519 32.947509050369263 19.386325791478157 15.415582776069639 13.020501822233198 16.625015407800674 9.143580809235571 26.162754043936729 9.6720257997512835 35.671950370073318 14.166056811809538 11.433898642659186 39.533530309796333 33.290723666548729 14.846093937754633 16.23896232247353 11.217906787991522 18.486221715807915 11.194573625922201 10.683936253190039 14.951625153422354 11.866304218769072 11.170163154602049 9.2476851195096952 9.6494463980197889 9.0859679877758008 35.680814266204834 11.702571198344229 67.983519554138184 979.96602031588554 10.098831936717032 62.969749674201012 24.663797587156296 9.560239911079405 81.331980407238007 9.9119425266981107 32.577279016375542 11.410480067133902 86.345074445009232 16.759926840662956 9.7231937199830991 336.37249693274498 30.665169805288315 9.6614977270364779
leaf_count=26 41 52 40 61 18 71 175 120 86 34 293 23 500 17 40 55 71 28 45 31 63 28 32 36 48 24 34 39 89 67 48 35 82 66 50 24 27 21 39 24 37 55 35 40 17 105 40 32 17 33 54 30 45 32 42 16 40 50 86 29 14 40 53 40 42 32 44 29 108 34 56 29 23 70 95 56 67 30 44 30 28 51 33 30 22 27 24 51 19 109 1315 15 257 97 37 121 27 56 20 120 34 30 449 46 29
internal_value=0.0544904 0.0644382 0.0242752 0.0691134 0.0385141 0.0730088 0.0184097 0.075756 0.0412745 -0.011465 0.0553691 0.0780112 0.0683945 0.054409 0.00715784 0.0332158 0.0249497 0.0314815 0.040868 0.0622044 0.0171689 -0.0276018 -0.0275866 0.0179487 0.060944 0.0488119 0.0658034 0.0222328 0.0308595 -0.0112258 -0.0342352 0.0383069 0.00363429 0.0137071 0.0503615 -0.000507077 -0.0231668 0.0350195 0.00868196 0.0545236 -0.0158618 0.061243 -0.0210834 -0.0437114 0.00374158 -0.028343 0.0627493 0.0246568 0.0261294 0.0695174 0.0283428 -0.0422249 -0.00265718 0.033124 -0.0525384 0.00423872 -0.00873881 0.00368766 -0.0220176 0.0866844 0.0659713 0.0591358 0.0365187 0.0011587 0.0556924 0.0821681 0.0640408 0.028511 -0.0544004 0.0753777 0.0475544 0.00255695 0 0.0414176 0.01945 0.00076305 -0.0544732 -0.0484893 0.0741055 -0.0463956 -0.0356036 0 0.0446171 -0.037348 -0.0290891 -0.0420131 -0.0421112 0.0727553 0.0345999 0.0660147 0.0894472 0.0360814 -0.0610098 -0.0393267 -0.00563155 0.0761504 0.0722127 0.0464188 0.0479019 0.0814433 0.0901805 -0.0629473 0.0888116 0.0607818 0.0213977
internal_weight=3906.09 2937.26 968.823 2665.43 693.653 2414.09 271.835 2289.23 182.223 275.17 450.092 2190.95 1042.68 519.703 243.56 72.2118 98.2741 251.336 214.571 401.689 122.836 202.958 89.6123 208.024 139.059 197.208 396.868 124.865 114.716 65.6167 188.464 144.353 150.612 128.491 57.2188 48.4028 37.6598 76.0318 46.1896 57.412 45.7834 52.4908 43.1642 74.132 20.8105 55.0088 51.3619 109.99 21.3126 375.783 38.8499 167.152 35.509 99.2242 131.643 64.5743 54.1967 30.68 36.7644 1148.27 137.915 162.245 71.1777 38.2302 97.7725 522.98 142.922 41.3943 35.5368 257.337 59.51 23.8381 21.0849 90.2093 50.6758 46.5801 26.0256 29.219 336.933 29.04 20.1544 34.9626 26.0353 20.8499 24.0938 20.4875 18.8438 45.4471 22.4863 82.3569 1010.35 24.9777 114.296 51.3266 26.6628 91.0675 126.297 42.4892 32.2507 96.5207 996.726 53.3215 380.058 43.6857 21.072
internal_count=7521 5170 2351 4484 1524 3911 686 3611 392 827 862 3377 1764 990 662 165 234 573 459 726 302 662 294 528 255 398 688 300 261 189 634 314 417 335 113 136 118 169 121 111 138 96 137 262 57 172 95 269 51 631 87 583 102 229 481 172 156 85 114 1613 235 302 157 104 186 774 247 92 134 412 119 63 57 197 127 128 94 101 544 101 67 96 54 70 78 72 64 75 50 144 1378 55 433 176 79 145 203 83 63 143 1349 205 527 78 49
is_linear=0
shrinkage=0.0530772


Tree=4
num_leaves=106
num_cat=0
split_feature=356 66 622 229 620 248 8 8 622 632 518 103 283 633 198 516 229 602 569 524 198 440 551 365 330 620 8 16 567 40 96 279 36 410 17 529 410 53 158 459 334 499 70 623 42 245 403 263 411 303 562 562 516 249 36 495 414 585 411 251 0 98 553 623 474 414 463 103 615 103 527 413 628 572 68 622 8 1 622 282 516 209 95 105 109 253 408 463 145 580 408 8 194 599 403 2 530 463 391 363 567 547 245 315 17
split_gain=375.159 206.772 179.52 142.244 110.679 91.243 86.4762 74.7321 66.8495 56.0335 53.7019 52.138 50.9562 48.7892 47.0969 45.0751 44.1799 44.8423 43.9842 41.2748 40.3083 54.5376 39.4783 38.6858 38.7707 38.6272 35.4838 32.579 29.9482 27.5362 27.6927 27.4667 27.4219 27.308 27.1931 26.6501 26.4105 24.1984 22.933 33.7774 22.6062 22.337 22.3125 21.688 21.6184 25.2652 19.848 19.4 19.3523 22.6825 19.2868 21.6922 22.4271 19.1926 19.1518 22.8263 19.7993 19.0325 18.9895 30.3381 18.3333 18.1146 18.0816 17.8753 17.3338 17.3035 17.2745 17.2406 17.0686 16.5066 16.0427 15.9538 15.7744 15.4809 15.4435 15.3202 15.1374 14.8579 14.7017 14.5559 14.5374 16.296 19.7422 14.525 14.4467 14.1733 13.9587 13.8694 16.1408 13.8063 14.6459 12.7656 12.6914 12.2313 22.3275 11.811 11.7157 13.0568 11.4831 10.8082 10.5244 10.3072 9.87638 10.0161 9.69598
threshold=-436.99999999999994 26.500000000000004 1981.5000000000002 60.500000000000007 164.00000000000003 -7.4999999999999991 379.50000000000006 375.50000000000006 1205.5000000000002 39.000000000000007 36.500000000000007 -12.499999999999998 19.500000000000004 65.500000000000014 485.00000000000006 1530.0000000000002 57.500000000000007 37.000000000000007 1764.0000000000002 29.500000000000004 702.50000000000011 133.50000000000003 44.500000000000007 81.500000000000014 192.50000000000003 146.50000000000003 388.50000000000006 812.50000000000011 149.00000000000003 465.50000000000006 217.50000000000003 160.50000000000003 -22.499999999999996 2731.0000000000005 22.500000000000004 429.50000000000006 2379.0000000000005 81.000000000000014 352.50000000000006 65.500000000000014 568.50000000000011 1026.5000000000002 66.500000000000014 1134.5000000000002 80.500000000000014 -7.4999999999999991 99.500000000000014 -871.99999999999989 656.50000000000011 183.00000000000003 -46.499999999999993 -56.499999999999993 2406.5000000000005 112.50000000000001 -7.4999999999999991 1782.5000000000002 195.50000000000003 1.0000000180025095e-35 602.50000000000011 1120.0000000000002 107.00000000000001 111.00000000000001 43.000000000000007 1232.5000000000002 36.500000000000007 220.50000000000003 2252.5000000000005 26.500000000000004 -27.499999999999996 21.500000000000004 21.500000000000004 260.50000000000006 129.00000000000003 280.50000000000006 9.0000000000000018 1322.5000000000002 407.50000000000006 351.00000000000006 1249.5000000000002 54.500000000000007 2518.5000000000005 -32.499999999999993 153.50000000000003 1417.5000000000002 1.0000000180025095e-35 36.500000000000007 188.00000000000003 1549.0000000000002 656.00000000000011 1.0000000180025095e-35 68.500000000000014 393.50000000000006 21.500000000000004 514.50000000000011 36.500000000000007 465.50000000000006 43.000000000000007 1715.0000000000002 1686.5000000000002 97.000000000000014 156.50000000000003 36.500000000000007 1.0000000180025095e-35 -12.499999999999998 63.500000000000007
decision_type=2 2 2 2 2 2 2 2 2 2 2 2 2 2 2 2 2 2 2 2 2 2 2 2 2 2 2 2 2 2 2 2 2 2 2 2 2 2 2 2 2 2 2 2 2 2 2 2 2 2 2 2 2 2 2 2 2 2 2 2 2 2 2 2 2 2 2 2 2 2 2 2 2 2 2 2 2 2 2 2 2 2 2 2 2 2 2 2 2 2 2 2 2 2 2 2 2 2 2 2 2 2 2 2 2
left_child=2 3 4 8 6 27 18 62 10 16 -2 64 32 14 44 104 17 19 33 48 47 -22 41 24 26 43 42 35 65 34 69 80 -10 38 -28 -4 54 66 39 -1 53 57 -12 89 -6 -46 -36 -14 73 -50 51 52 -7 70 -16 61 -57 63 91 -60 -52 -56 -3 96 -9 98 99 77 -45 -31 -27 -17 102 75 -20 -8 -47 -19 -38 85 81 82 -23 -63 -81 -37 -72 -74 -89 90 -13 -29 -68 -26 -95 -73 97 -5 -11 -24 -79 -41 -18 -104 -15
right_child=1 7 5 22 13 50 9 11 12 28 23 25 20 15 36 71 72 67 74 -21 21 31 37 -25 93 40 29 58 -30 30 -32 -33 -34 -35 46 79 78 -39 -40 101 -42 -43 -44 68 45 76 -48 -49 49 -51 60 -53 -54 -55 55 56 -58 -59 59 -61 -62 83 -64 -65 -66 -67 92 -69 -70 -71 86 95 87 -75 -76 -77 -78 100 -80 84 -82 -83 -84 -85 -86 -87 -88 88 -90 -91 -92 -93 -94 94 -96 -97 -98 -99 -100 -101 -102 -103 103 -105 -106
leaf_value=-0.045307929066451473 -0.080133998291841868 0.010317114738347271 0.059067999159718408 0.053050554042435812 -0.066744269111590121 0.023924942526235959 0.06870795797456733 -0.056976114166309336 0.083469249446621013 0.062636426740022899 -0.074282789239888736 0.072961510043178537 0.0011781941225914756 0.0029032400795559322 0.079534605096225494 0.013769575760054406 0.088530927668660359 0.0030735321115696089 -0.071782987917160423 -0.03073442658648139 0.078489426784091723 0.063437049513882682 0.089621892188857091 -0.083157737533287937 0.078849244782737526 -0.027451910269101935 0.056063457396158999 0.0065987097962477426 -0.047293537936479495 0 -0.046263491271383815 0.025275958469120695 -0.021248108002859638 -0.036276917187380547 -0.047619286781833782 0.00094505480839238121 0.041127193982065456 -5.3474797695725138e-05 0.079354711021490443 0.085483840598228902 -0.024105594012711815 -0.061452845916036218 0.012691286731253927 0.057873715599489228 0.062404902901459405 0.018194407925031072 0.036787973814482643 -0.073546248860936345 -0.032818212429894675 0.063265566094410849 -0.070888326633859591 0.068788393387969243 -0.067797145187963259 0.0812267801874344 0.070931463372563938 -0.054119304587529483 0.049943636284439638 -0.031152412782932584 -0.052327906084362455 0.060666944903715499 0.0047916481825535798 -0.025586590709216671 -0.081293199076986844 -0.02590439287277508 0.028790163927571194 -0.0074480765144401724 -0.0070466882726107913 0.083332581694545549 -0.020204418851607338 0.057551933530696188 0.064500701484873954 -0.087564238286764184 0.077113492475627127 0 0.010892198684448904 0.022734265319319609 -0.066290972465480755 0.070757770192732231 -0.031165403344041415 0.059351776493224227 -0.066787057120400978 -0.065854818005749258 -0.04138429244610712 0.048272750239912753 -0.019036962220713965 -0.080739732020612145 -0.001536251268400758 -0.0075740301305753221 0.059172474774381069 0.086559504924600156 0.0017198778518621412 0.075933628813183995 0.068457902101412185 -0.015010537001827409 0.077350968950620935 -0.0071874406805173133 0.087590872710766446 -0.017297116753365295 0.0081076385535119137 0.035359618869329319 0.022275855419427015 0.017745605530730239 0.043049270059201061 0.078892087211942047 0.071536017841699842
leaf_weight=13.055329874157904 16.939316838979721 10.36211681365967 22.052800700068474 21.439477786421779 9.8409962952136976 13.931488469243051 160.36889278888702 12.373404875397684 15.726812437176706 76.72462372481823 20.865355253219604 24.398465305566788 9.8581620305776578 10.504844680428507 117.87027630209923 9.7067817449569684 793.66776062548161 13.60253883898258 13.86803610622883 17.135361984372139 14.379726678133009 10.157553836703306 78.010184958577156 10.104478091001509 34.231555834412575 11.617429599165915 13.158130466938017 9.7964513599872571 9.9692134559154493 17.272675737738609 9.4840342700481397 18.161271646618843 11.432118237018583 10.001342833042143 35.910299643874168 9.6358214020729083 18.327231809496883 14.029097616672514 45.971024081110954 15.487891495227815 14.472092926502226 9.0023986399173719 12.302568569779394 24.508616894483566 20.166724219918251 12.664129614830019 9.18122550845146 79.411553502082825 15.020184263587 12.014691501855848 31.556897670030594 9.6899055838584882 14.639492824673651 28.320407941937447 81.454349279403687 10.330592051148416 9.5636391937732679 12.77034544944763 10.294632464647295 17.026190802454948 11.081573367118834 10.923326179385187 12.050774216651915 9.157929375767706 13.00243730843067 13.392635077238081 12.494765639305117 303.70576384663582 10.359197393059729 70.003586634993553 24.687352746725082 17.420172661542896 71.984954327344894 12.894256398081778 9.9796551913022977 27.264822289347649 10.049827262759207 117.01761065423489 12.96741086244583 11.484181672334671 41.593029052019119 11.541328519582747 9.1189282834529859 19.647083714604378 13.710944399237633 12.024383783340452 12.134089261293409 14.199370414018629 28.009583294391632 211.22740821540356 14.032174929976462 83.967553034424782 10.625273570418356 14.588283166289331 13.291946262121199 9.0861213952302915 17.278626814484596 9.9292449802160245 14.970393136143683 15.868345111608503 17.609784632921219 14.135576426982878 32.119237080216408 224.97798223793507 18.056120082736015
leaf_count=46 73 27 40 40 38 34 263 46 22 133 86 39 28 27 175 24 1035 34 55 54 22 18 105 42 53 37 25 24 36 47 34 43 37 33 128 27 38 39 69 21 47 35 33 45 35 31 19 324 48 20 130 16 60 42 132 37 18 42 37 30 30 34 51 30 30 39 35 426 32 131 43 72 106 34 25 64 39 184 43 21 166 46 33 38 44 51 34 39 48 290 36 129 17 44 20 27 23 30 37 33 40 34 62 324 29
internal_value=0.0516753 0.0258695 0.0622147 0.00826723 0.0666738 0.0209113 0.0715733 0.0552178 -0.00710808 0.0742693 0.0101358 0.0605314 -0.0288882 0.0407254 0.0489012 -0.00077875 0.0765165 0.0655549 0.0276388 0.0466738 -0.0385229 -0.0156003 0.0448358 0.0162651 0.0205526 0.065519 0.0082434 0.0410799 0.0374239 0.0191042 0.0365091 -0.0312379 0.0380874 0.0434561 -0.00911285 0.0110901 0.0575334 0.0628174 0.053035 0.0233003 0.0344043 0.0145549 -0.0409222 0.0752942 0.00199605 0.0191496 -0.0293441 -0.0648382 0.052727 0.00854752 -0.0258989 0.000398058 -0.0218109 0.0460498 0.0633215 0.0483507 -0.00196102 0.0250934 0.0577169 0.0164158 -0.0503265 0.0576495 -0.0374946 0.038365 -0.0115408 0.0459897 0.0707034 0.0756421 0.0334782 0.046133 0.0241985 -0.0405935 0.0830145 0.0584452 -0.0357159 0.0623074 -0.017717 0.0594485 0.00979484 -0.0108252 -0.0460543 -0.0162865 0.0117836 0.0204934 0.0153003 -0.0429563 0.0417526 0.0623693 0.0358166 0.0809112 0.0482924 0.0691954 0.0262756 0.0569198 0.0278731 -0.0620362 0.0514354 0.0294723 0.0542622 0.0810599 0.064804 0.0551391 0.0851974 0.0746412 0.0480996
internal_weight=3901.49 1132.87 2768.62 709.32 2497.73 270.892 2099.15 423.546 498.714 1976.65 277.333 401.133 221.38 398.58 333.806 64.774 1861.59 696.634 122.499 244.698 194.222 104.952 210.606 260.394 250.29 375.757 188.178 189.993 115.057 155.01 96.7603 90.5721 27.1589 98.6512 58.2497 68.9081 281.084 131.028 88.6498 42.6788 91.2314 79.578 33.1679 284.526 52.7217 42.8807 45.0915 89.2697 227.563 27.0349 80.8994 38.2609 28.571 76.7593 249.789 131.919 19.8942 70.5756 121.085 27.3208 42.6385 112.025 22.4129 57.8053 25.3758 105.088 116.999 451.936 34.8678 87.2763 48.4389 36.2131 1164.96 200.528 23.8477 187.634 22.714 148.23 31.2946 46.8553 72.4108 30.8178 19.2765 30.5704 25.1951 21.6602 36.8214 114.194 42.209 249.658 38.4306 93.764 23.12 62.1118 27.8802 26.5063 48.6473 31.3687 91.695 93.8785 134.627 29.6235 1050.76 257.097 28.561
internal_count=7521 2702 4819 1903 4146 673 3309 799 1474 3026 735 721 739 837 658 179 2781 1167 283 483 680 328 429 662 620 645 503 403 245 384 212 306 59 203 172 183 515 229 170 101 203 200 119 442 143 105 147 352 429 68 270 110 94 156 434 259 55 165 220 67 160 204 78 123 76 209 190 684 77 178 114 123 1614 361 80 327 70 258 81 143 263 97 51 72 65 78 77 193 87 365 75 153 52 117 64 99 93 70 170 138 224 55 1421 386 56
is_linear=0
shrinkage=0.0530772


Tree=5
num_leaves=106
num_cat=0
split_feature=229 622 516 359 627 2 16 8 32 579 464 67 440 357 636 567 0 572 279 264 387 635 66 340 118 145 316 200 365 209 315 244 517 603 625 408 467 38 493 411 156 156 394 39 178 565 312 368 1 191 249 193 247 421 98 66 527 341 139 622 350 203 440 363 231 575 120 119 232 18 563 628 390 383 371 249 297 37 0 182 498 304 40 318 371 423 332 18 230 18 356 174 92 1 498 582 522 210 394 497 413 251 603 192 446
split_gain=342.992 181.069 175.671 134.094 116.096 105.736 85.0938 76.3431 61.1261 59.2975 52.7714 54.2874 44.8921 44.3084 43.3331 42.2687 40.8125 39.3897 38.8194 37.7625 37.732 37.2725 42.2514 35.1198 34.7079 34.5565 37.4405 34.1667 30.5872 30.4356 29.9411 28.2421 27.8389 27.4718 26.6262 25.7904 24.4361 23.8514 23.1653 35.198 22.7934 22.5598 22.2459 26.9533 22.1958 39.9128 24.3208 23.0021 22.1066 21.8157 24.5662 21.7583 24.2633 22.1596 21.3883 21.2833 21.4545 22.4526 21.1897 27.0409 20.6075 19.7211 18.5267 21.2317 24.0317 18.4971 17.6273 17.5164 24.6106 17.4187 17.0488 16.7377 16.7135 16.5657 16.3343 15.2674 15.2418 15.2051 21.8976 14.3784 14.5131 14.3033 13.8392 12.8722 12.8165 13.5519 12.7933 12.5598 12.0855 11.6585 11.3881 11.3242 22.3721 11.7535 11.3083 11.2419 11.3123 10.8928 10.0868 9.90251 9.8847 9.46508 9.26645 11.3712 9.03305
threshold=44.500000000000007 1981.5000000000002 2282.0000000000005 504.50000000000006 1197.5000000000002 503.50000000000006 734.50000000000011 372.50000000000006 -12.499999999999998 125.00000000000001 890.50000000000011 89.500000000000014 153.50000000000003 202.00000000000003 37.000000000000007 229.50000000000003 77.000000000000014 124.00000000000001 495.50000000000006 32.500000000000007 1017.5000000000001 635.50000000000011 27.500000000000004 2074.0000000000005 617.50000000000011 453.50000000000006 -2984.4999999999995 109.50000000000001 16.500000000000004 -27.499999999999996 -22.499999999999996 -7.4999999999999991 1266.5000000000002 138.50000000000003 241.50000000000003 154.00000000000003 152.50000000000003 -182.99999999999997 910.50000000000011 876.00000000000011 1.0000000180025095e-35 50.500000000000007 41.000000000000007 646.00000000000011 59.000000000000007 -37.499999999999993 42.500000000000007 11.500000000000002 349.00000000000006 -7.4999999999999991 87.500000000000014 -129.49999999999997 11.500000000000002 41.000000000000007 125.00000000000001 27.500000000000004 -66.499999999999986 43.000000000000007 16.500000000000004 1239.5000000000002 -7.4999999999999991 14.500000000000002 99.500000000000014 99.000000000000014 31.000000000000004 93.000000000000014 572.50000000000011 21.500000000000004 211.50000000000003 866.50000000000011 11.500000000000002 77.000000000000014 35.000000000000007 99.500000000000014 47.000000000000007 -20.999999999999996 -22.499999999999996 -10.999999999999998 93.000000000000014 37.000000000000007 31.500000000000004 692.50000000000011 251.00000000000003 53.000000000000007 47.000000000000007 2500.5000000000005 1176.5000000000002 515.50000000000011 460.50000000000006 715.50000000000011 -634.49999999999989 35.000000000000007 514.00000000000011 357.00000000000006 42.500000000000007 -263.49999999999994 107.00000000000001 -628.49999999999989 57.000000000000007 529.50000000000011 368.50000000000006 570.50000000000011 65.500000000000014 -12.499999999999998 2041.0000000000002
decision_type=2 2 2 2 2 2 2 2 2 2 2 2 2 2 2 2 2 2 2 2 2 2 2 2 2 2 2 2 2 2 2 2 2 2 2 2 2 2 2 2 2 2 2 2 2 2 2 2 2 2 2 2 2 2 2 2 2 2 2 2 2 2 2 2 2 2 2 2 2 2 2 2 2 2 2 2 2 2 2 2 2 2 2 2 2 2 2 2 2 2 2 2 2 2 2 2 2 2 2 2 2 2 2 2 2
left_child=2 4 3 13 5 7 23 12 32 14 25 24 76 -1 20 16 17 -5 72 95 28 22 38 41 31 29 -27 -7 58 79 -15 71 -8 94 44 -23 -34 -36 -4 74 -17 77 102 -44 46 -46 47 48 60 50 -42 -37 -53 88 82 56 -16 101 59 -9 -32 -14 -18 67 -65 -38 -67 68 75 -59 -49 -12 -10 -39 97 -64 -2 78 -3 80 -6 -45 -28 -13 85 -33 -19 -72 -54 -30 -66 93 -93 -84 -22 -11 -97 -40 -41 -51 -94 -58 -29 -104 -76
right_child=1 6 21 15 10 27 8 9 18 19 11 83 61 30 55 40 62 86 -20 -21 33 35 -24 -25 -26 26 54 42 89 -31 34 84 36 -35 37 51 65 73 39 98 49 -43 43 81 45 -47 -48 70 -50 99 -52 52 53 -55 -56 -57 57 69 -60 -61 -62 -63 63 64 90 66 -68 -69 -70 -71 87 -73 -74 -75 104 -77 -78 -79 -80 -81 -82 -83 91 -85 -86 -87 -88 -89 -90 -91 -92 92 100 -95 -96 96 -98 -99 -100 -101 -102 -103 103 -105 -106
leaf_value=-0.071774882253716213 0 0.035391338224285494 -0.068171614419100746 -0.05102259783048451 0.053300078592009623 -0.056243729467053444 0.082458699955018325 0.064810347788556003 -0.059169629862147306 0.075268490706612998 0.056527951667161624 0.02238202033683594 -0.061967663746642504 -0.067855654323418779 0.0048106262115700212 -0.062903292753997531 0.076777623037495857 0.010012965943392245 0.069623835570114631 -0.044655980763129377 0 -0.069810278029037692 0.060755420280174666 0.061385207836312489 0.048519349868409507 -0.017322314932565194 0 0.084203925061398677 -0.038298552676734259 -0.060528831705852763 -0.048728182282531292 0.018431857155545902 -0.020178486028823876 -0.045415647148648056 0.041084318980906746 0.04606131404424333 0.076215659969693789 -0.074755206822309961 0.022631295417493119 -0.081646572327441075 -0.047266543067305967 0.023922955843308311 -0.071720689657975178 -0.012532838156140876 0.066906444237813764 -0.060466857308346861 -0.04757940428519998 -0.045763089433694337 0.063250260602956826 0.009085740031598304 0.058092166178243976 -0.08290513948701958 -0.0094832651483892361 -0.058203828337075693 0.0026749209278722407 0.086724062743576469 0.066043775371099192 0.041159807853079607 0.079627294859229758 0.024070540555753188 0.047725747161465319 0.024107758382216255 0.068719015812835696 -0.046114862462074087 0.06993168155865323 -0.036335355056920163 0.054687423586756857 0.077404982762269106 -0.035919027835591408 0.070122891096542697 -0.0037421552969379313 -0.034515312140336832 0.018708720961820861 0.0067585538091085419 0.01293540577594833 0.0016955212983936737 0.073165466407414503 -0.072199192108479221 -0.066138723829401627 0.083949739107060634 -0.030289024054966623 0.057469360609604538 0.026717333618283625 0.09177311842834876 -0.08664845241113335 -0.066965615300989351 0.094344668534380102 0.071375767801235585 0.063755884664153301 0.037080135248619313 0 -0.015485438119653508 0.082791873118086431 0.084254269892068093 0.076136201778290974 -0.016831483302210379 0.058369605586360764 -0.04205663612130732 -0.0053004990727036697 0.074225281414647917 0.032378181105631842 0.085651465228975085 0.06649559749629301 -0.012386152086699881 0.082048620341436701
leaf_weight=19.888119742274284 11.216968342661856 11.089530497789385 17.814976677298546 17.842840984463692 10.450868904590608 16.455003634095192 61.355296611785889 265.20794367790222 28.874422892928123 19.970337212085724 11.545673951506616 16.356163084506989 20.864424809813503 12.637475192546843 14.389762014150618 9.1894006729125959 173.5925654321909 11.743197888135912 11.739830464124678 17.928604200482368 10.488854721188547 47.463502496480942 26.892275303602219 10.505850523710249 16.861401259899139 17.146171674132347 9.0862580537796003 18.354934200644493 10.01122045516968 13.357203245162962 10.706252396106722 9.2212715148925799 17.608812570571899 14.990614637732504 10.805539011955259 11.669434383511541 31.728834554553032 20.660438358783725 16.460287854075435 14.784316182136537 17.660232022404674 12.058963969349859 10.606140270829199 13.797227770090105 9.9186789840459841 20.306538343429565 9.4339954406023008 13.435199216008185 81.568920359015465 11.768050730228422 9.040199086070059 17.609526246786118 12.122026681900026 14.460309475660322 17.465041607618332 566.4962824434042 123.00204525887966 93.358266189694405 231.21682526171207 60.541614383459091 13.829483687877653 10.510829240083693 41.02492967247963 11.730708211660383 16.700638145208359 10.554840400815012 12.452251955866812 82.308230668306351 9.7601695358753187 226.66676525771618 12.711657777428629 10.139867231249807 9.3868725001811963 9.1027394533157331 11.467138543725016 14.227281808853148 28.123589634895325 40.67418546974659 11.720636606216429 10.500010728836058 12.052604779601095 17.179084196686745 13.786228552460669 18.528620138764381 24.180436730384827 10.031664252281187 10.925186842679976 10.360659062862394 11.201355949044226 12.594116941094397 11.198138982057573 11.311928465962408 32.665738612413406 121.98159910738468 13.632074773311613 11.327444612979891 9.7138213515281659 12.414459466934202 9.1565552800893766 22.007067143917084 22.755047589540482 377.64018462598324 9.4797979891300219 9.1360955834388715 13.900762200355528
leaf_count=84 30 25 69 63 19 60 85 435 113 29 21 38 79 51 35 36 256 30 19 60 27 192 47 20 32 52 24 25 33 50 40 22 54 51 24 25 48 85 39 63 63 29 41 41 17 77 34 48 145 30 16 75 38 56 45 734 197 187 327 137 28 25 65 40 26 36 22 123 32 348 37 34 23 25 29 37 44 165 47 14 39 31 30 23 101 39 13 16 20 25 30 33 44 169 19 33 16 44 28 35 48 496 15 27 20
internal_value=0.0491237 0.0581821 0.0215778 0.0345541 0.0623984 0.067164 0.016509 0.0695896 0.0369906 0.0714396 0.0361312 0.00554106 0.0145092 0.00339637 0.0729781 0.0513518 0.0580076 0.00624687 -0.0123174 0.0178683 0.0608712 -0.0179189 0.00206022 -0.0266914 -0.0176652 0.0481839 0.0561101 0.0117743 0.0642882 0.00507121 0.0100174 -0.0356159 0.055738 0.00903151 0.0147184 -0.0396786 0.032218 -0.0235114 -0.0140822 -0.000979124 0.0123285 -0.0397172 0.0267405 0 0.02349 -0.0169916 0.0318393 0.03749 0.0499651 0.0247419 -0.00973106 -0.0174814 -0.0318305 -0.0063958 0.0618117 0.0782765 0.0724629 0.0735943 0.0667467 0.0574022 0.00381632 -0.031819 0.0636932 0.0512023 0.0150853 0.0498771 0.0111549 0.0605716 0.0383236 0.0618582 0 0.0121147 -0.0389485 -0.0485853 0.0221155 0.0523466 0.0525034 -0.0525415 -0.0151074 0.0332433 0.00684461 0.0251027 0.066478 0.0609651 -0.0603469 -0.0242293 0.0532847 0.0286629 0.0242549 0.0017466 0.0425793 0.0693508 0.0491856 0.0788057 0.0447865 0.0463799 0.0162221 -0.00386 -0.0546821 0.0530941 0.0631727 0.0809657 0.0565057 0.0259518 0.0530393
internal_weight=3887.58 2924.08 963.501 726.085 2654.32 2244.9 269.75 2149.89 183.701 2079.18 409.424 116.865 70.7158 255.366 2020.24 470.719 401.054 40.5112 50.0011 58.9402 618.683 237.417 122.891 86.0492 81.9803 292.559 246.198 95.0083 579.572 46.3607 235.478 65.1189 133.7 39.1115 222.84 114.526 72.3447 40.5687 95.9985 78.1835 69.6649 75.5433 78.5533 41.5825 182.271 30.2252 152.046 142.612 106.105 60.4755 26.7004 67.0627 55.3932 37.7837 229.052 1401.55 835.057 820.667 556.966 325.75 24.5357 31.3753 360.543 186.95 39.6295 54.7359 23.0071 147.321 65.0124 320.025 36.5075 21.6855 38.2613 29.7632 54.2426 55.2522 39.3406 63.4844 22.8102 33.0035 22.5035 30.9763 211.587 34.8848 43.4334 19.2529 22.6684 23.0723 23.3234 22.6053 27.8988 202.501 66.7327 135.768 24.1209 41.0116 21.0413 28.8747 23.9409 33.7751 55.4208 500.642 36.9708 18.6159 25.3679
internal_count=7521 5170 2351 1606 4484 3607 686 3367 400 3189 877 310 178 711 3051 895 715 106 155 138 1054 745 339 286 249 567 445 240 957 122 627 217 245 97 576 406 160 134 292 223 180 266 180 113 442 94 348 314 213 144 79 214 189 114 393 1997 1263 1228 899 572 68 104 609 353 96 106 58 257 134 535 101 55 136 110 132 102 74 237 72 72 58 72 348 61 162 61 43 53 58 58 56 324 125 199 46 78 49 83 91 65 92 693 67 42 49
is_linear=0
shrinkage=0.0530772


Tree=6
num_leaves=106
num_cat=0
split_feature=250 622 7 549 159 442 622 16 16 277 369 387 620 474 8 248 511 39 530 583 464 103 120 339 7 98 527 623 368 158 617 391 563 249 150 384 156 387 143 527 572 622 620 444 359 356 96 2 464 624 252 464 363 249 628 279 409 436 175 363 301 1 191 44 369 8 174 246 408 353 87 331 10 445 477 158 173 245 92 139 522 235 306 388 121 148 412 229 341 622 422 442 285 146 467 424 8 386 7 175 103 52 410 304 357
split_gain=313.358 210.191 123.854 112.385 108.136 101.946 101.255 74.6958 73.3523 72.8741 63.3556 53.871 50.3036 50.1812 48.5224 45.7888 44.4548 42.4493 41.3986 40.3866 45.2225 36.9612 36.3763 36.0075 32.142 31.9255 30.4137 27.8276 27.3508 26.9033 26.8906 26.4171 24.7114 24.2841 24.0999 23.5388 28.9934 34.0975 23.2816 22.3918 22.1614 22.1163 22.0381 38.4042 21.9016 21.4503 28.8197 20.7048 20.6407 21.5209 20.4206 20.2134 20.6879 20.035 19.0386 18.9306 18.6789 37.3759 18.6706 18.3226 18.2198 17.6721 18.7403 17.5779 17.3135 17.1879 25.2805 20.0758 16.6045 15.5061 15.9781 15.0702 14.5908 14.1542 13.8925 13.8406 13.6604 13.4695 13.4681 13.0408 12.7758 12.6718 12.6216 11.9535 11.6347 15.4347 11.5994 11.5449 11.4333 10.9444 10.9252 10.5451 21.381 10.4968 22.0236 10.0476 13.7033 9.90527 9.62839 9.90802 9.41327 15.9322 16.3405 9.34293 9.18621
threshold=429.50000000000006 1159.0000000000002 259.50000000000006 33.000000000000007 91.000000000000014 625.50000000000011 1981.5000000000002 324.50000000000006 710.00000000000011 182.50000000000003 -396.49999999999994 75.500000000000014 151.50000000000003 104.50000000000001 394.50000000000006 -7.4999999999999991 -90.499999999999986 202.00000000000003 33.000000000000007 37.000000000000007 1584.0000000000002 21.500000000000004 275.50000000000006 59.500000000000007 255.50000000000003 127.00000000000001 26.500000000000004 2511.5000000000005 45.500000000000007 481.50000000000006 11.500000000000002 1237.5000000000002 -51.499999999999993 154.00000000000003 -584.49999999999989 30.500000000000004 -1.0000000180025095e-35 558.50000000000011 -28.499999999999996 -22.499999999999996 148.50000000000003 1032.0000000000002 188.00000000000003 348.50000000000006 793.00000000000011 278.50000000000006 128.50000000000003 523.50000000000011 1418.0000000000002 168.00000000000003 202.50000000000003 890.50000000000011 63.000000000000007 43.500000000000007 31.000000000000004 495.50000000000006 -1852.9999999999998 1696.5000000000002 50.500000000000007 91.000000000000014 45.500000000000007 435.00000000000006 6.5000000000000009 213.50000000000003 -1275.4999999999998 386.50000000000006 29.000000000000004 -32.499999999999993 332.50000000000006 26.500000000000004 31.500000000000004 82.500000000000014 -9.4999999999999982 37.500000000000007 33.000000000000007 98.500000000000014 236.50000000000003 11.500000000000002 495.00000000000006 -17.499999999999996 47.000000000000007 53.000000000000007 104.50000000000001 37.500000000000007 19.000000000000004 31.500000000000004 578.50000000000011 66.500000000000014 41.000000000000007 1564.0000000000002 -98.499999999999986 1568.5000000000002 163.50000000000003 251.00000000000003 181.50000000000003 51.000000000000007 426.50000000000006 13.000000000000002 263.50000000000006 99.500000000000014 -1.0000000180025095e-35 -132.49999999999997 2123.5000000000005 641.00000000000011 475.00000000000006
decision_type=2 2 2 2 2 2 2 2 2 2 2 2 2 2 2 2 2 2 2 2 2 2 2 2 2 2 2 2 2 2 2 2 2 2 2 2 2 2 2 2 2 2 2 2 2 2 2 2 2 2 2 2 2 2 2 2 2 2 2 2 2 2 2 2 2 2 2 2 2 2 2 2 2 2 2 2 2 2 2 2 2 2 2 2 2 2 2 2 2 2 2 2 2 2 2 2 2 2 2 2 2 2 2 2 2
left_child=1 2 14 11 6 7 12 32 -8 16 17 26 19 35 29 48 53 44 34 20 24 39 28 45 87 40 71 42 38 72 -27 -23 63 97 -12 36 37 69 61 -16 -19 90 93 -44 76 46 -11 65 98 -50 82 52 89 -7 -53 75 57 -42 -31 79 -56 62 -20 -5 -45 66 -21 -68 -22 -14 -71 84 -1 -61 -38 -17 -4 -39 -36 -43 -6 -34 -28 -74 85 -3 -58 -2 -46 -18 -26 92 -40 94 -9 96 -88 -13 99 -10 101 -67 -103 -81 -24
right_child=4 3 10 5 80 9 8 27 15 23 18 33 13 -15 21 55 51 25 22 47 68 31 104 -25 41 30 50 -29 -30 58 -32 -33 81 -35 78 -37 74 77 91 -41 56 59 43 64 88 -47 -48 -49 49 -51 -52 54 -54 -55 60 -57 86 -59 -60 73 -62 -63 -64 -65 -66 100 67 -69 -70 70 -72 -73 83 -75 -76 -77 -78 -79 -80 103 -82 -83 -84 -85 -86 -87 95 -89 -90 -91 -92 -93 -94 -95 -96 -97 -98 -99 -100 -101 -102 102 -104 -105 -106
leaf_value=0 -0.040935425982519341 -0.079034845297127329 -0.074269420926662333 -0.020086340577892717 -0.0038266527960324481 0.057665041499937987 -0.060798545945389443 0.063314951340188386 0 0.023376965875377836 0.041217086578610063 -0.074358154542394431 0.06558904127672692 -0.038531242395022466 0.039660730728643234 -0.056712258157370424 0.061546238266451767 0.076747088789644383 -0.083426441805958595 0.07211875159482678 -0.037003638054994702 0.060510313523761981 0.023492410403872892 0.065323841210988026 0.078197437302475067 0.045166035893572633 -0.048341753200048382 -0.017916834211435275 -0.05712205300435718 0.0585402969013918 -0.04593464553220928 -0.013117247949759417 -0.077013962406555142 0.022093462574483129 -0.085861610134987207 0.07533859501127553 0 0 0.060737974932825324 -0.054707639347424827 -0.051995583964873228 0.010457938990251279 0.078593747512678822 0.017516453872918149 0.003385399504430548 0.04609989013590348 -0.084422463032411618 0.016758250195559325 0.067541523813982332 -0.030070201994524211 0.059413577740042481 0.0099829298856147219 -0.056896930163785484 -0.029564319729258805 -0.069418987064664428 0.052799684595743267 0.00072258315094881481 0.07083008626336941 -0.028096546992130093 0.055788671891708323 -0.002649629352908188 0.041168942723127357 0.01005866347537694 0.074550670395720983 -0.068823643381802829 0.083188495208211866 0.044566822039549966 -0.05676299477584755 0.038302268411234873 0.042503020503629592 -0.04258660962079712 -0.082016284703493314 -0.080945497471835048 -0.019200268715905178 0.061636061526331852 0.0157198891975825 0.0084372378216085054 -0.08465822217900211 -0.0074203712002716702 0.04930201523970159 -0.088415666163547277 0 0.03353331558566134 -0.012908069834840325 0.037738227172675352 0.0024135864597779762 0.059922330775621022 0.037413967889978264 0.081209529119315477 -0.010326025352752267 0.040400388334188242 0.086389039532731984 -0.025328991123630268 0.071918147785607067 -0.015372408112421109 0.082981702026966336 0.00021605381559900116 -0.019610172103567223 0.072821997469033534 0.069801524086268149 0.081258343989011037 0.052636582693667194 -0.022945960505451838 0.087654999413071491 0.076945509451692942
leaf_weight=13.451873227953909 10.654822260141374 10.280079111456873 9.4196790158748644 10.550211101770403 10.238738074898722 22.946541637182236 23.6742172986269 32.571373179554939 12.64412695169449 12.922381773591043 11.523318529129027 66.670004621148109 26.599776387214661 17.625691369175911 10.259707659482958 20.657581359148029 12.208813548088076 389.42471452057362 10.728475749492647 44.161354705691338 18.02765654027462 71.891313046216965 13.987351775169371 48.869172751903534 237.15209801495075 36.801409438252449 10.884299457073213 13.646542102098463 11.417581290006636 14.788819417357447 11.402187645435331 15.698791354894636 17.991540923714641 9.0410130769014341 13.391320437192919 88.564824491739273 12.536982551217077 11.556410849094393 23.607687786221504 19.463667973875999 12.948581948876383 17.068387076258659 18.708826333284378 13.479680821299555 11.405346870422365 16.298549741506577 13.578082367777823 18.124844431877136 10.322344049811365 15.01481746137142 28.315851897001266 11.836690068244932 12.236423775553702 9.9197464436292631 73.508669957518578 9.3142888695001584 10.15401780605316 14.128995254635809 12.063332289457319 10.806971818208696 15.2828431725502 14.313241913914679 11.654047921299933 10.052216365933416 11.324617758393286 44.736194089055061 12.887308493256571 9.091028615832327 14.530843734741209 14.313616245985033 10.279662325978277 11.495278954505919 28.040098771452904 18.330150067806244 121.33803269267082 10.109153896570204 11.329501003026961 10.104862302541731 13.748233661055563 60.167212426662445 12.38447195291519 9.8727589547634107 9.3340834230184537 12.161603778600691 9.2331690937280637 14.61501123011112 88.98146864771843 9.7995779961347562 12.232152059674261 9.5970532149076444 30.453551009297371 17.171751871705055 11.253417208790777 153.89956903457642 13.125186592340468 57.726944983005524 13.984501823782919 13.772675201296805 81.157368749380112 9.1266992241144163 865.56387470662594 33.864131361246109 9.4396593570709211 35.596768692135811 60.864681497216225
leaf_count=38 36 44 36 33 29 42 93 55 33 30 24 275 43 60 21 81 21 555 45 66 58 124 31 80 331 69 41 45 42 27 39 46 73 22 56 129 33 32 42 70 45 41 27 32 28 33 57 43 16 49 51 31 46 34 296 17 26 21 40 18 46 30 30 15 45 58 24 32 28 27 34 49 116 54 205 27 28 42 42 110 51 28 20 38 20 40 154 19 16 30 59 23 36 237 38 79 36 45 123 14 1153 60 28 44 87
internal_value=0.0467779 0.0308583 0.0457189 0.00910883 0.0611892 0.020885 0.0625026 0.0416668 0.0254293 -0.00344139 0.0541369 -0.0268243 0.0663994 0.0465356 0.00744914 0.0379038 -0.0243961 0.0621163 0.0284868 0.0705024 0.0569878 0.0293586 0.0395416 0.0343388 0.0615551 0.0656341 0.000773577 0.0531078 0.017936 -0.0239335 0.0225663 0.0468236 -0.018009 -0.0562429 -0.0203568 0.0517954 0.0413996 0.0135836 0.0282503 -0.0206225 0.069081 0.0647991 0.0572903 0.0213503 0.0106725 -0.000263716 -0.0305979 0.0764649 0.053404 0.00836345 0.0303654 -0.0380323 -0.00133085 0.0300061 -0.0499772 -0.0106616 0.0536799 0.010599 0.0181592 0.046816 -0.0584617 -0.00304248 -0.0333977 0.0244626 -0.0205621 0.0774782 0.0490879 0.000504513 -0.00203669 0.0375876 0.00511457 -0.0297594 -0.0457817 0.00745403 0.0561467 -0.0316088 -0.0276227 -0.0409038 -0.0482483 0.0565493 -0.0526029 -0.0508632 -0.00850948 -0.0616935 -0.0103045 -0.0300875 0.060223 -0.00132414 0.0460085 0.0282742 0.0741108 0.0510264 0.0317512 0.0648627 0.039827 0.0637059 0.0522568 -0.0656342 0.064013 0.0286401 0.0793849 0.0602493 0.035124 0.0642529 0.067674
internal_weight=3867.51 1839.49 1091.42 748.069 2028.02 564.427 2005.4 305.223 192.021 259.205 893.601 183.641 1813.38 312.92 197.819 168.346 167.537 679.94 213.661 1500.46 462.588 117.313 174.998 91.6682 430.03 635.553 94.1578 256.756 100.146 80.5057 48.2036 87.5901 48.4667 89.4837 38.6629 295.294 206.729 72.8543 88.7286 29.7234 587.349 409.575 243.109 43.5131 44.3867 42.799 26.5005 1037.87 128.265 25.3372 48.5342 134.67 34.0423 32.8663 100.628 40.081 197.925 27.0776 26.8522 141.969 88.7915 36.6958 22.3825 20.6024 24.8043 1019.74 66.1397 21.9783 32.5585 51.1931 24.5933 45.6235 53.6536 29.1371 133.875 30.7667 20.7492 21.6613 27.1396 112.832 22.6232 27.8643 20.2184 40.2017 34.1283 24.8951 170.847 20.4544 23.6375 21.8059 267.606 52.0329 34.8611 199.596 45.6966 160.693 102.966 80.4427 102.928 21.7708 953.604 88.04 43.3038 95.764 74.852
internal_count=7521 4121 2140 1981 3400 1374 3320 628 453 746 1620 607 2867 605 520 360 546 1132 488 2262 798 261 366 200 712 1024 265 479 248 259 108 170 149 342 122 545 416 178 206 91 916 657 434 104 108 120 87 1464 235 65 112 470 97 76 373 125 361 66 67 267 342 105 75 48 77 1421 122 56 86 104 61 153 192 72 238 108 64 74 98 195 80 101 61 154 104 84 295 55 44 51 390 101 78 330 93 269 190 320 170 47 1299 146 88 154 118
is_linear=0
shrinkage=0.0530772


Tree=7
num_leaves=106
num_cat=0
split_feature=369 622 622 371 357 18 622 230 66 248 157 192 68 354 233 440 572 410 180 462 585 457 464 580 245 8 2 230 475 596 22 66 249 316 463 23 464 521 198 67 39 248 615 249 527 36 361 620 210 378 70 122 368 103 463 156 388 103 350 72 520 16 316 411 41 204 549 175 22 200 150 336 2 93 527 616 103 411 552 625 140 569 599 0 0 156 22 192 633 517 371 633 627 36 315 461 625 475 43 92 2 256 106 191 119
split_gain=288.748 177.747 115.799 104.697 103.162 86.6167 95.111 78.7192 69.4747 57.3974 56.1577 56.0966 49.6861 45.9359 44.6996 44.385 39.0743 36.9046 40.6177 49.0152 36.7043 34.4409 32.5919 31.418 29.3346 29.0707 38.8701 28.3722 27.1648 26.626 26.5807 30.6995 26.4172 26.353 25.5951 25.9964 25.2215 24.5003 24.1757 23.8308 23.0246 22.9244 27.4785 22.0768 21.4565 20.7412 29.0884 20.4231 20.4087 20.4008 20.0685 20.0201 19.9719 19.7877 19.412 30.7524 19.1637 18.248 20.8658 17.6251 17.5412 17.3963 16.7652 19.4615 16.2709 16.0975 20.5394 15.9349 15.7336 15.3539 15.0875 14.9663 17.5388 14.8076 17.0788 14.6858 14.5846 14.4746 17.2927 14.2625 15.0515 14.1527 14.0892 13.4563 16.0644 13.2519 12.8037 12.6228 12.3141 18.2795 12.2553 11.7254 11.3245 10.9971 10.7424 10.5867 10.2566 15.5176 9.93662 9.56265 8.85146 8.81829 11.5521 8.78889 13.1813
