tree
version=v4
num_class=1
num_tree_per_iteration=1
label_index=0
max_feature_idx=647
objective=binary sigmoid:1
feature_names=QRSDuration Q_TInterval QTCCalculation QTcFredericia QTcFramingham QTc_Bazett QOnset QOffset TOffset RAxis TAxis ECGSampleBase Q_PeakAmpl_I Q_Duration_I Q_Area_I Q_PeakTime_I R_PeakAmpl_I R_Duration_I R_Area_I R_PeakTime_I S_PeakAmpl_I S_Duration_I S_Area_I S_PeakTime_I RP_PeakAmpl_I RP_Duration_I RP_Area_I RP_PeakTime_I SP_PeakAmpl_I SP_Duration_I SP_Area_I SP_PeakTime_I STJ_I STM_I STE_I MaxST_I MinST_I T_Special_I QRS_Balance_I QRS_Deflection_I Max_R_Ampl_I Max_S_Ampl_I T_PeakAmpl_I T_Duration_I T_Area_I T_PeakTime_I TP_PeakAmpl_I TP_Duration_I TP_Area_I TP_PeakTime_I T_End_I QRS_Area_I TFull_Area_I QRSint_I TTALL_I STDOWN_I STELEV_I JELEV_I DLTWV_I STINJ_I PPDEEP_I QRS_T_REVERSE_I QRS_ST_REVERSE_I ST_T_REVERSE_I BRUGFLG_I Q_PeakAmpl_II Q_Duration_II Q_Area_II Q_PeakTime_II R_PeakAmpl_II R_Duration_II R_Area_II R_PeakTime_II S_PeakAmpl_II S_Duration_II S_Area_II S_PeakTime_II RP_PeakAmpl_II RP_Duration_II RP_Area_II RP_PeakTime_II SP_PeakAmpl_II SP_Duration_II SP_Area_II SP_PeakTime_II STJ_II STM_II STE_II MaxST_II MinST_II T_Special_II QRS_Balance_II QRS_Deflection_II Max_R_Ampl_II Max_S_Ampl_II T_PeakAmpl_II T_Duration_II T_Area_II T_PeakTime_II TP_PeakAmpl_II TP_Duration_II TP_Area_II TP_PeakTime_II T_End_II QRS_Area_II TFull_Area_II QRSint_II TTALL_II STDOWN_II STELEV_II JELEV_II DLTWV_II STINJ_II PPDEEP_II QRS_T_REVERSE_II QRS_ST_REVERSE_II ST_T_REVERSE_II BRUGFLG_II Q_PeakAmpl_III Q_Duration_III Q_Area_III Q_PeakTime_III R_PeakAmpl_III R_Duration_III R_Area_III R_PeakTime_III S_PeakAmpl_III S_Duration_III S_Area_III S_PeakTime_III RP_PeakAmpl_III RP_Duration_III RP_Area_III RP_PeakTime_III SP_PeakAmpl_III SP_Duration_III SP_Area_III SP_PeakTime_III STJ_III STM_III STE_III MaxST_III MinST_III T_Special_III QRS_Balance_III QRS_Deflection_III Max_R_Ampl_III Max_S_Ampl_III T_PeakAmpl_III T_Duration_III T_Area_III T_PeakTime_III TP_PeakAmpl_III TP_Duration_III TP_Area_III TP_PeakTime_III T_End_III QRS_Area_III TFull_Area_III QRSint_III TTALL_III STDOWN_III STELEV_III JELEV_III DLTWV_III STINJ_III PPDEEP_III QRS_T_REVERSE_III QRS_ST_REVERSE_III ST_T_REVERSE_III BRUGFLG_III Q_PeakAmpl_AVR Q_Duration_AVR Q_Area_AVR Q_PeakTime_AVR R_PeakAmpl_AVR R_Duration_AVR R_Area_AVR R_PeakTime_AVR S_PeakAmpl_AVR S_Duration_AVR S_Area_AVR S_PeakTime_AVR RP_PeakAmpl_AVR RP_Duration_AVR RP_Area_AVR RP_PeakTime_AVR SP_PeakAmpl_AVR SP_Duration_AVR SP_Area_AVR SP_PeakTime_AVR STJ_AVR STM_AVR STE_AVR MaxST_AVR MinST_AVR T_Special_AVR QRS_Balance_AVR QRS_Deflection_AVR Max_R_Ampl_AVR Max_S_Ampl_AVR T_PeakAmpl_AVR T_Duration_AVR T_Area_AVR T_PeakTime_AVR TP_PeakAmpl_AVR TP_Duration_AVR TP_Area_AVR TP_PeakTime_AVR T_End_AVR QRS_Area_AVR TFull_Area_AVR QRSint_AVR TTALL_AVR STDOWN_AVR STELEV_AVR JELEV_AVR DLTWV_AVR STINJ_AVR PPDEEP_AVR QRS_T_REVERSE_AVR QRS_ST_REVERSE_AVR ST_T_REVERSE_AVR BRUGFLG_AVR Q_PeakAmpl_AVL Q_Duration_AVL Q_Area_AVL Q_PeakTime_AVL R_PeakAmpl_AVL R_Duration_AVL R_Area_AVL R_PeakTime_AVL S_PeakAmpl_AVL S_Duration_AVL S_Area_AVL S_PeakTime_AVL RP_PeakAmpl_AVL RP_Duration_AVL RP_Area_AVL RP_PeakTime_AVL SP_PeakAmpl_AVL SP_Duration_AVL SP_Area_AVL SP_PeakTime_AVL STJ_AVL STM_AVL STE_AVL MaxST_AVL MinST_AVL T_Special_AVL QRS_Balance_AVL QRS_Deflection_AVL Max_R_Ampl_AVL Max_S_Ampl_AVL T_PeakAmpl_AVL T_Duration_AVL T_Area_AVL T_PeakTime_AVL TP_PeakAmpl_AVL TP_Duration_AVL TP_Area_AVL TP_PeakTime_AVL T_End_AVL QRS_Area_AVL TFull_Area_AVL QRSint_AVL TTALL_AVL STDOWN_AVL STELEV_AVL JELEV_AVL DLTWV_AVL STINJ_AVL PPDEEP_AVL QRS_T_REVERSE_AVL QRS_ST_REVERSE_AVL ST_T_REVERSE_AVL BRUGFLG_AVL Q_PeakAmpl_aVF Q_Duration_aVF Q_Area_aVF Q_PeakTime_aVF R_PeakAmpl_aVF R_Duration_aVF R_Area_aVF R_PeakTime_aVF S_PeakAmpl_aVF S_Duration_aVF S_Area_aVF S_PeakTime_aVF RP_PeakAmpl_aVF RP_Duration_aVF RP_Area_aVF RP_PeakTime_aVF SP_PeakAmpl_aVF SP_Duration_aVF SP_Area_aVF SP_PeakTime_aVF STJ_aVF STM_aVF STE_aVF MaxST_aVF MinST_aVF T_Special_aVF QRS_Balance_aVF QRS_Deflection_aVF Max_R_Ampl_aVF Max_S_Ampl_aVF T_PeakAmpl_aVF T_Duration_aVF T_Area_aVF T_PeakTime_aVF TP_PeakAmpl_aVF TP_Duration_aVF TP_Area_aVF TP_PeakTime_aVF T_End_aVF QRS_Area_aVF TFull_Area_aVF QRSint_aVF TTALL_AVF STDOWN_AVF STELEV_AVF JELEV_AVF DLTWV_AVF STINJ_AVF PPDEEP_AVF QRS_T_REVERSE_AVF QRS_ST_REVERSE_AVF ST_T_REVERSE_AVF BRUGFLG_AVF Q_PeakAmpl_V1 Q_Duration_V1 Q_Area_V1 Q_PeakTime_V1 R_PeakAmpl_V1 R_Duration_V1 R_Area_V1 R_PeakTime_V1 S_PeakAmpl_V1 S_Duration_V1 S_Area_V1 S_PeakTime_V1 RP_PeakAmpl_V1 RP_Duration_V1 RP_Area_V1 RP_PeakTime_V1 SP_PeakAmpl_V1 SP_Duration_V1 SP_Area_V1 SP_PeakTime_V1 STJ_V1 STM_V1 STE_V1 MaxST_V1 MinST_V1 T_Special_V1 QRS_Balance_V1 QRS_Deflection_V1 Max_R_Ampl_V1 Max_S_Ampl_V1 T_PeakAmpl_V1 T_Duration_V1 T_Area_V1 T_PeakTime_V1 TP_PeakAmpl_V1 TP_Duration_V1 TP_Area_V1 TP_PeakTime_V1 T_End_V1 QRS_Area_V1 TFull_Area_V1 QRSint_V1 TTALL_V1 STDOWN_V1 STELEV_V1 JELEV_V1 DLTWV_V1 STINJ_V1 PPDEEP_V1 QRS_T_REVERSE_V1 QRS_ST_REVERSE_V1 ST_T_REVERSE_V1 BRUGFLG_V1 Q_PeakAmpl_V2 Q_Duration_V2 Q_Area_V2 Q_PeakTime_V2 R_PeakAmpl_V2 R_Duration_V2 R_Area_V2 R_PeakTime_V2 S_PeakAmpl_V2 S_Duration_V2 S_Area_V2 S_PeakTime_V2 RP_PeakAmpl_V2 RP_Duration_V2 RP_Area_V2 RP_PeakTime_V2 SP_PeakAmpl_V2 SP_Duration_V2 SP_Area_V2 SP_PeakTime_V2 STJ_V2 STM_V2 STE_V2 MaxST_V2 MinST_V2 T_Special_V2 QRS_Balance_V2 QRS_Deflection_V2 Max_R_Ampl_V2 Max_S_Ampl_V2 T_PeakAmpl_V2 T_Duration_V2 T_Area_V2 T_PeakTime_V2 TP_PeakAmpl_V2 TP_Duration_V2 TP_Area_V2 TP_PeakTime_V2 T_End_V2 QRS_Area_V2 TFull_Area_V2 QRSint_V2 TTALL_V2 STDOWN_V2 STELEV_V2 JELEV_V2 DLTWV_V2 STINJ_V2 PPDEEP_V2 QRS_T_REVERSE_V2 QRS_ST_REVERSE_V2 ST_T_REVERSE_V2 BRUGFLG_V2 Q_PeakAmpl_V3 Q_Duration_V3 Q_Area_V3 Q_PeakTime_V3 R_PeakAmpl_V3 R_Duration_V3 R_Area_V3 R_PeakTime_V3 S_PeakAmpl_V3 S_Duration_V3 S_Area_V3 S_PeakTime_V3 RP_PeakAmpl_V3 RP_Duration_V3 RP_Area_V3 RP_PeakTime_V3 SP_PeakAmpl_V3 SP_Duration_V3 SP_Area_V3 SP_PeakTime_V3 STJ_V3 STM_V3 STE_V3 MaxST_V3 MinST_V3 T_Special_V3 QRS_Balance_V3 QRS_Deflection_V3 Max_R_Ampl_V3 Max_S_Ampl_V3 T_PeakAmpl_V3 T_Duration_V3 T_Area_V3 T_PeakTime_V3 TP_PeakAmpl_V3 TP_Duration_V3 TP_Area_V3 TP_PeakTime_V3 T_End_V3 QRS_Area_V3 TFull_Area_V3 QRSint_V3 TTALL_V3 STDOWN_V3 STELEV_V3 JELEV_V3 DLTWV_V3 STINJ_V3 PPDEEP_V3 QRS_T_REVERSE_V3 QRS_ST_REVERSE_V3 ST_T_REVERSE_V3 BRUGFLG_V3 Q_PeakAmpl_V4 Q_Duration_V4 Q_Area_V4 Q_PeakTime_V4 R_PeakAmpl_V4 R_Duration_V4 R_Area_V4 R_PeakTime_V4 S_PeakAmpl_V4 S_Duration_V4 S_Area_V4 S_PeakTime_V4 RP_PeakAmpl_V4 RP_Duration_V4 RP_Area_V4 RP_PeakTime_V4 SP_PeakAmpl_V4 SP_Duration_V4 SP_Area_V4 SP_PeakTime_V4 STJ_V4 STM_V4 STE_V4 MaxST_V4 MinST_V4 T_Special_V4 QRS_Balance_V4 QRS_Deflection_V4 Max_R_Ampl_V4 Max_S_Ampl_V4 T_PeakAmpl_V4 T_Duration_V4 T_Area_V4 T_PeakTime_V4 TP_PeakAmpl_V4 TP_Duration_V4 TP_Area_V4 TP_PeakTime_V4 T_End_V4 QRS_Area_V4 TFull_Area_V4 QRSint_V4 TTALL_V4 STDOWN_V4 STELEV_V4 JELEV_V4 DLTWV_V4 STINJ_V4 PPDEEP_V4 QRS_T_REVERSE_V4 QRS_ST_REVERSE_V4 ST_T_REVERSE_V4 BRUGFLG_V4 Q_PeakAmpl_V5 Q_Duration_V5 Q_Area_V5 Q_PeakTime_V5 R_PeakAmpl_V5 R_Duration_V5 R_Area_V5 R_PeakTime_V5 S_PeakAmpl_V5 S_Duration_V5 S_Area_V5 S_PeakTime_V5 RP_PeakAmpl_V5 RP_Duration_V5 RP_Area_V5 RP_PeakTime_V5 SP_PeakAmpl_V5 SP_Duration_V5 SP_Area_V5 SP_PeakTime_V5 STJ_V5 STM_V5 STE_V5 MaxST_V5 MinST_V5 T_Special_V5 QRS_Balance_V5 QRS_Deflection_V5 Max_R_Ampl_V5 Max_S_Ampl_V5 T_PeakAmpl_V5 T_Duration_V5 T_Area_V5 T_PeakTime_V5 TP_PeakAmpl_V5 TP_Duration_V5 TP_Area_V5 TP_PeakTime_V5 T_End_V5 QRS_Area_V5 TFull_Area_V5 QRSint_V5 TTALL_V5 STDOWN_V5 STELEV_V5 JELEV_V5 DLTWV_V5 STINJ_V5 PPDEEP_V5 QRS_T_REVERSE_V5 QRS_ST_REVERSE_V5 ST_T_REVERSE_V5 BRUGFLG_V5 Q_PeakAmpl_V6 Q_Duration_V6 Q_Area_V6 Q_PeakTime_V6 R_PeakAmpl_V6 R_Duration_V6 R_Area_V6 R_PeakTime_V6 S_PeakAmpl_V6 S_Duration_V6 S_Area_V6 S_PeakTime_V6 RP_PeakAmpl_V6 RP_Duration_V6 RP_Area_V6 RP_PeakTime_V6 SP_PeakAmpl_V6 SP_Duration_V6 SP_Area_V6 SP_PeakTime_V6 STJ_V6 STM_V6 STE_V6 MaxST_V6 MinST_V6 T_Special_V6 QRS_Balance_V6 QRS_Deflection_V6 Max_R_Ampl_V6 Max_S_Ampl_V6 T_PeakAmpl_V6 T_Duration_V6 T_Area_V6 T_PeakTime_V6 TP_PeakAmpl_V6 TP_Duration_V6 TP_Area_V6 TP_PeakTime_V6 T_End_V6 QRS_Area_V6 TFull_Area_V6 QRSint_V6 TTALL_V6 STDOWN_V6 STELEV_V6 JELEV_V6 DLTWV_V6 STINJ_V6 PPDEEP_V6 QRS_T_REVERSE_V6 QRS_ST_REVERSE_V6 ST_T_REVERSE_V6 BRUGFLG_V6
feature_infos=[8:302] [116:750] [84:824] [94:782] [8:65518] [84:824] [141:247] [249:349] [285:589] [-89:270] [-89:270] none [0:10126] [0:302] [0:16832] [0:214] [0:10034] [0:256] [0:9877] [0:200] [0:7617] [0:202] [0:22013] [0:202] [0:9965] [0:154] [0:32766] [0:200] [0:415] [0:101] [0:894] [0:150] [-6919:7089] [-6392:6894] [-5118:5717] [-5118:7089] [-6919:6894] [-5926:484] [-7495:9814] [1:13421] [0:10034] [0:10126] [-5170:1083] [0:496] [-13093:4740] [0:408] [-302:3334] [0:317] [-2380:1204] [0:384] [-782:3286] [-20975:32766] [-13013:12593] [0:214] [0:1] [0:2] [0:4] [0:8] [0:16] [0:32] none [0:128] [0:256] [0:512] none [0:10820] [0:292] [0:13277] [0:200] [0:3959] [0:222] [0:14061] [0:170] [0:10004] [0:210] [0:8487] [0:190] [0:1943] [0:114] [0:4937] [0:144] [0:844] [0:135] [0:1771] [0:202] [-1304:2250] [-1285:2197] [-1431:2143] [-1036:2250] [-1304:2197] [-1479:679] [-9595:3876] [1:13549] [0:3959] [0:10820] [-1440:2143] [0:492] [-7177:8097] [0:376] [-327:415] [0:430] [-1405:4307] [0:400] [-645:917] [-13076:13858] [-14253:8079] [0:200] [0:1] [0:2] [0:4] [0:8] [0:16] [0:32] none [0:128] [0:256] [0:512] none [0:10410] [0:282] [0:14796] [0:188] [0:7451] [0:254] [0:30894] [0:192] [0:19892] [0:198] [0:32767] [0:194] [0:2221] [0:115] [0:4506] [0:160] [0:11738] [0:144] [0:13248] [0:190] [-6919:6757] [-6719:6215] [-5572:4946] [-5572:6757] [-6919:6215] [-3090:855] [-19653:7373] [1:20131] [0:7451] [0:19892] [-1176:5009] [0:496] [-13708:12533] [0:366] [-3090:546] [0:404] [-1789:6975] [0:412] [-3042:830] [-31459:30442] [-13647:12458] [0:194] [0:1] [0:2] [0:4] [0:8] [0:16] [0:32] none [0:128] [0:256] [0:512] none [0:4829] [0:256] [0:3565] [0:202] [0:10473] [0:302] [0:11475] [0:214] [0:4506] [0:154] [0:18642] [0:208] [0:1000] [0:170] [0:3561] [0:156] [0:937] [0:80] [0:1107] [0:152] [-3633:3540] [-3536:3281] [-2935:2641] [-2935:3540] [-3633:3281] [-1791:347] [-4448:7461] [1:13485] [0:10473] [0:4829] [-1616:2666] [0:492] [-5276:6821] [0:388] [-1791:190] [0:276] [-1491:1005] [0:370] [-1768:415] [-17037:11413] [-6667:7429] [0:214] [0:1] [0:2] [0:4] [0:8] none [0:32] none [0:128] [0:256] [0:512] none [0:4716] [0:254] [0:23851] [0:176] [0:10224] [0:266] [0:11534] [0:200] [0:7534] [0:209] [0:21813] [0:192] [0:14931] [0:151] [0:9855] [0:192] [0:502] [0:64] [0:539] [0:180] [-6836:7006] [-6304:6806] [-5030:5644] [-5030:7006] [-6836:6806] [-5922:527] [-7432:14736] [1:15126] [0:14931] [0:7534] [-5087:830] [0:496] [-12809:6575] [0:428] [-234:3212] [0:293] [-1900:1459] [0:406] [-757:3164] [-23513:32113] [-12735:12223] [0:200] [0:1] [0:2] [0:4] [0:8] [0:16] [0:32] none [0:128] [0:256] [0:512] none [0:5756] [0:288] [0:10734] [0:192] [0:4233] [0:254] [0:22491] [0:192] [0:14907] [0:221] [0:16751] [0:224] [0:2304] [0:115] [0:4727] [0:204] [0:888] [0:136] [0:2397] [0:158] [-3375:3300] [-3272:3022] [-2710:2387] [-2710:3300] [-3375:3022] [-2099:767] [-14556:4233] [1:15258] [0:4233] [0:14907] [-1181:2426] [0:496] [-6830:8718] [0:368] [-1420:444] [0:418] [-2447:5656] [0:400] [-1397:834] [-15076:22150] [-13950:8687] [0:192] [0:1] [0:2] [0:4] [0:8] [0:16] [0:32] none [0:128] [0:256] [0:512] none [0:5029] [0:244] [0:32767] [0:178] [0:8046] [0:302] [0:15651] [0:200] [0:5073] [0:229] [0:12345] [0:190] [0:2695] [0:157] [0:6870] [0:196] [0:5009] [0:127] [0:13977] [0:178] [-7608:2280] [-7198:2026] [-6783:1547] [-6783:2280] [-7608:2026] [-2998:1431] [-3657:3794] [1:13119] [0:8046] [0:5073] [-2998:2451] [0:496] [-7997:14022] [0:474] [-341:434] [0:379] [-1124:1992] [0:430] [-3746:478] [-32767:15417] [-14091:14014] [0:200] [0:1] [0:2] [0:4] [0:8] [0:16] [0:32] [0:64] [0:128] [0:256] [0:512] none [0:6103] [0:237] [0:32767] [0:178] [0:7431] [0:294] [0:15967] [0:216] [0:9697] [0:185] [0:16756] [0:220] [0:2934] [0:136] [0:10653] [0:196] [0:5405] [0:134] [0:14816] [0:198] [-7867:2407] [-7584:2607] [-7256:1953] [-7256:2607] [-7867:2407] [-4033:1954] [-9531:3697] [1:12997] [0:7431] [0:9697] [-4033:2329] [0:496] [-16877:17672] [0:386] [-751:703] [0:368] [-5550:4324] [0:370] [-4732:898] [-32767:15893] [-16234:17604] [0:220] [0:1] [0:2] [0:4] [0:8] [0:16] [0:32] none [0:128] [0:256] [0:512] none [0:5820] [0:244] [0:31883] [0:178] [0:8261] [0:222] [0:23851] [0:180] [0:9580] [0:243] [0:24084] [0:240] [0:4619] [0:123] [0:10269] [0:170] [0:4130] [0:155] [0:14970] [0:186] [-8213:3471] [-8101:3041] [-7793:2646] [-7793:3471] [-8213:3041] [-2001:2119] [-8623:6441] [1:13114] [0:8261] [0:9580] [-2001:4765] [0:496] [-21695:20001] [0:366] [-1230:761] [0:350] [-6943:3200] [0:372] [-3692:4184] [-32767:23752] [-21614:19926] [0:186] [0:1] [0:2] [0:4] [0:8] [0:16] [0:32] none [0:128] [0:256] [0:512] none [0:7241] [0:302] [0:32767] [0:216] [0:7915] [0:222] [0:22861] [0:198] [0:9799] [0:201] [0:17144] [0:226] [0:3525] [0:91] [0:3287] [0:154] [0:4492] [0:146] [0:12111] [0:174] [-4336:1132] [-5235:1152] [-4297:1733] [-4297:1733] [-5235:1132] [-3393:2007] [-9443:5781] [1:13129] [0:7915] [0:9799] [-3393:2719] [0:496] [-28374:15461] [0:378] [-2509:1044] [0:361] [-9148:5354] [0:420] [-3873:1450] [-32767:22782] [-28031:15443] [0:222] [0:1] [0:2] [0:4] [0:8] [0:16] [0:32] none [0:128] [0:256] [0:512] none [0:7397] [0:302] [0:29451] [0:216] [0:15058] [0:222] [0:21291] [0:198] [0:9951] [0:194] [0:20152] [0:226] [0:4077] [0:83] [0:4050] [0:212] [0:2329] [0:142] [0:5844] [0:164] [-7662:4785] [-7710:4570] [-7437:4589] [-7437:4785] [-7710:4570] [-4497:1734] [-9532:13848] [1:16268] [0:15058] [0:9951] [-4497:4682] [0:452] [-32767:32766] [0:406] [-3828:3974] [0:385] [-32767:22886] [0:402] [-3589:4721] [-29154:20801] [-32767:32766] [0:216] [0:1] [0:2] [0:4] [0:8] [0:16] [0:32] none [0:128] [0:256] [0:512] none [0:9345] [0:302] [0:22577] [0:214] [0:12543] [0:256] [0:25137] [0:180] [0:5434] [0:189] [0:17651] [0:178] [0:3320] [0:99] [0:4467] [0:210] [0:1040] [0:156] [0:2910] [0:164] [-7354:4790] [-7603:4409] [-7330:4072] [-7330:4790] [-7603:4409] [-4399:3370] [-8887:9379] [1:15707] [0:12543] [0:9345] [-4399:5214] [0:496] [-26176:32766] [0:478] [-883:1894] [0:303] [-3692:5291] [0:312] [-3741:3271] [-22468:24647] [-24407:32766] [0:214] [0:1] [0:2] [0:4] [0:8] [0:16] [0:32] none [0:128] [0:256] [0:512] none
tree_sizes=10164 10215 10238 10263 10268 10267 10247 10285 10272 10289 10257 10274 10299 10295 10313 10283 10329 10330 10298 10312 10326 10293 10284 9777 10316 10296 10342 9686 10127 9981 9399 10006 9692 8852 9297 7684 9483 9164 8505 8338 7060 8329 6120 8125 8122 8524 6006 8247 6537 5479 7078 7501 7798 5789 7383 4870 5296 7608 6952 5366 7079 7279 5067 6667 7294 3808 6652 4015 5849 5832 4438 6348 6046 6882 4438 5467 6150 6148 6574 5166 6471 4964 6248 5373 6369 3167 5919 5396 5920 6158 3804 6154 6037 4763 5723 4452 5718 5525 5391 4231 5503 4346 5199 4728 3487 5281 5517 5426 5280 4155 3596 4874 5295 4772 3064 4758 5074 3069 5094 5301 4748 4992 4145 4657 4001 4978 3489 4668 4350 3496 3590 4351 4554 4546 4553 4881 4765 4547 4664 4245 3401 4458 4457 4566 3394 4005 4251 4346 2206 4558 4137 4136 2743 4324 3782 4217 4131 4108 4140 3936 4034 3275 4136 2958 3382 3500 3917 4031 3489 3802 3928 3802 3174 3928 3822 3935 3596 3624 3691 3830 3184 3605 3706 3601 3509 3369 3707 3176 3609 3604 3609 3504 3386 3819 3502 3507 3495 3503 3521 3516 3305 3253 3069 3403 3263 2963 3401 3388 3279 3400 3390 3381 3049 2975 3389 3153 3186 3299 2981 3072 2975 2644 3185 3302 3075 2953 2976 3085 3294 3059 3088 2980 3088 2984 2975 3183 3178 3077 2754 2859 2847 2764 2971 2436 2979 2876 3094 2864 2749 2852 2865 2978 2962 2755 2650 2861 2757 2546 2750 2883 2761 2753 2988 2640 2540 2838 2761 2622 2762 2760 2651 2423 2540 2851 2662 2551 2532 2653 2864 2539 2758 2544 2653 2412 2632 2625 2443 2544 2652 2429 2554 2219 2542 2866 2658 2539 2543 2443 2327 2425 2434 2651 2530 2526 2446 2422 2430 2440 2545 2532 2413 2319 2534 2321 2431 2524 2319 2519 2432 2320 2325 2543 2210 2213 2211 2311 2209 2329 2321 2552 2543 2219 2328 2219 2317 2333 2219 2440 2316 2315 2307 2212 2324 2108 2328 2228 2442 2005 2218 2210 2326 2326 2104 2201 2214 2003 2106 2089 2326 2107 2210 2101 1992 2205 2100 2101 2102 2107 2299 2310 2108 2010 2099 2105 2106 1880 1889 2122 2332 2211 2104 1984 2009 1998 1981 2015 2109 1990 2009 2105 1900 2115 2108 2210 1993 1859 1891 1992 2115 1884 2094 2097 1975 2008 1998 2000 2077 1888 1883 1990 1989 1990 2116 1976 1899 1900 2010 1999 1889 1893 1992 1883 1786 2001 1998 1864 1891 1886 1996 1881 2090 2004 1887 1877 1881 1763 2011 2005 1890 1764 1997 1889 1996 2009 1897 1779 1778 1887 1991 1893 1787 2003 1886 1894 1770 1664 1781 1775 1772 1672 1962 1667 1879 1895 1678 1800 1793 1791 1786 1676 1788 1656 1894 1884 1681 1691 1788 1798 1780 1683 1661 1864 1787 1786 1680 1786 1666 1899 1774 1563 1793 1775 1784 1557 1904 1680 1678 1784 1555 1672 1677 1769 1757 1878 1560 1659 1549 1571 1675 1907 1563 1662 1677 1569 1570 1667 1673 1676 1683 1681 1681 1774 1788 1568 1657 1545 1651 1567 1673 1661 1681 1778 1680 1651 1787 1565 1557 1562 1557 1565 1580 1685 1672 1568 1557 1678 1464 1576 1569 1659 1778 1536 1659 1539 1771 1764 1675 1566 1780 1459 1676 1452 1445 1662 1555 1452 1569 1573 1569 1452 1454 1448 1554 1564 1670 1566 1558 1564 1571 1558 1542 1558 1666 1567 1554 1535 1581 1667 1448 1451 1470 1458 1351 1568 1573 1345 1558 1537 1560 1559 1553 1339 1566 1648 1557 1560 1563 1455 1428 1557 1678 1559 1458 1334 1675 1561 1348 1349 1568 1466 1568 1463 1454 1462 1557 1358 1458 1462 1352 1451 1457 1452 1455 1452 1466 1460 1343 1455 1446 1671 1445 1471 1352 1246 1458 1567 1462 1458 1462 1469 1358 1364 1352 1460 1463 1459 1353 1247 1574 1356 1465 1455 1538 1450 1344 1236 1346 1453 1452 1566 1457 1336 1452 1448 1449 1339 1444 1329 1562 1451 1337 1200 1454 1450 1321 1347 1341 1457 1342 1451 1452 1239 1346 1361 1454 1348 1246 1245 1352 1354 1248 1448 1341 1343 1342 1234 1349 1338 1449 1224 1342 1330 1343 1345 1450 1325 1338 1334 1234 1231 1331 1452 1451 1114 1342 1239 1356 1465 1355 1250 1353 1344 1356 1243 1352 1355 1455 1242 1458 1333 1449 1342 1454 1238 1244 1354 1465 1358 1250 1236 1244 1330 1356 1353 1358 1347 1245 1246 1350 1342 1236 1346 1333 1231 1136 1474 1347 1354 1356 1244 1349 1240 1241 1241 1238 1244 1222 1250 1366 1346 1346 1232 1238 1340 1233 1453 1339 1230 1229 1237 1244 1235 1226 1231 1341 1233 1123 1353 1112 1346 1327 1341 1338 1344 1252 1347 1241 1353 1254 1349 1335 1125 1233 1346 1235 1231 1344 1232 1234 1121 1347 1451 1345 1231 1241 1345 1126 1245 1135 1251 1248 1243 1242 1251 1244 1249 1252 1127 1455 1251 1137 1243 1248 1246 1252 1234 1344 1118 1224 1235 1329 1230 1234 1234 1347 1124 1120 1235 1131 1022 1341 1126 1347 1237 1125 1342 1234 1240 1233 1236 1240 1234 1240 1131 1122 1226 1128 1344 1132 1123 1242 1240 1228 1239 1135 1231 1347 1124 1231 1120 1133 1026 1130 1238 1236 1135 1358 1257 1132 1141 1220 1251 1135 1123 1249 1130 1247 1357 1352 1128 1247 1137 1244 1032 1252 1245 1250 1131 1131 1132 1353 1128 1233 1240 1243 1243 1227 1029 1139 1133 1136 1252 1248 1136 1254 1139 1243 1136 1141 1136 1140 1137 1138 1033 1036 1252 1256 1141 1031 1142 1143 1021 1139 1148 1254 1249 1036 1036 1129 1135 1027 1138 1138 1247 1125 1125 1237 1129 1023 1132 1125 1237 1132 1017 1151 1141 1137 1136 1143 1126 1125 1017 1019 1017 1124 1127 1126 1198 1127 1016 1245 1128 1126 1135 1018 1038 1131 1006 1137 1130

Tree=0
num_leaves=96
num_cat=0
split_feature=250 622 622 7 159 369 369 32 356 572 7 625 16 596 316 65 230 32 548 98 39 516 393 409 8 464 410 530 172 103 67 39 5 18 316 603 244 119 391 298 67 201 65 224 180 384 412 334 7 159 90 142 403 98 463 65 547 249 143 622 18 229 416 332 562 622 527 474 603 462 32 622 173 172 628 445 7 412 624 383 68 0 157 391 246 103 356 158 140 549 363 281 359 628 71
split_gain=431.723 180.786 169.147 117.992 96.9452 90.6425 88.1087 80.6461 67.7406 61.5353 51.3107 52.0242 44.1222 43.5981 37.1984 35.7966 32.6751 31.5034 27.3084 27.11 27.7142 26.2283 25.1639 24.2099 24.1897 23.6198 23.386 26.9624 21.4669 21.4491 21.1601 21.1182 20.9175 20.3664 19.4985 20.7971 19.3949 19.265 19.1776 18.9662 18.8811 18.8155 18.1166 17.9083 17.1341 17.0029 16.9495 16.8234 16.2312 15.5614 14.5664 14.2672 14.1233 13.8233 15.7877 13.644 13.5933 13.3517 13.0144 12.738 14.2945 12.6645 12.5569 12.5538 12.2997 11.9511 11.9345 11.8498 11.7416 11.2839 11.0659 11.1862 11.0072 10.7904 10.3038 10.2332 10.0405 9.4432 8.96783 8.60775 8.5765 8.76268 7.93976 7.85253 7.62175 7.60443 7.22216 7.1029 7.05519 6.66471 6.17814 5.50138 5.42264 4.80835 4.80392
threshold=429.50000000000006 1159.0000000000002 1581.5000000000002 259.50000000000006 83.000000000000014 -396.49999999999994 -951.49999999999989 -17.499999999999996 -817.99999999999989 148.50000000000003 259.50000000000006 275.50000000000006 841.50000000000011 21.500000000000004 -339.49999999999994 133.50000000000003 312.50000000000006 -22.499999999999996 1046.5000000000002 131.00000000000003 202.00000000000003 2091.0000000000005 1414.5000000000002 -573.99999999999989 394.50000000000006 1442.5000000000002 2152.5000000000005 41.000000000000007 62.500000000000007 21.500000000000004 81.500000000000014 802.00000000000011 412.50000000000006 794.50000000000011 -133.49999999999997 182.50000000000003 -7.4999999999999991 32.500000000000007 1237.5000000000002 26.500000000000004 47.500000000000007 11.500000000000002 55.500000000000007 94.500000000000014 53.500000000000007 30.500000000000004 1159.5000000000002 182.50000000000003 264.50000000000006 49.000000000000007 58.500000000000007 -1.0000000180025095e-35 -27.499999999999996 125.00000000000001 1261.0000000000002 45.500000000000007 46.500000000000007 170.50000000000003 56.000000000000007 1945.0000000000002 1009.5000000000001 62.500000000000007 87.000000000000014 272.00000000000006 -7.4999999999999991 2008.5000000000002 36.500000000000007 1.0000000180025095e-35 207.00000000000003 561.50000000000011 -12.499999999999998 1139.0000000000002 594.50000000000011 46.500000000000007 91.000000000000014 24.500000000000004 265.50000000000006 1286.5000000000002 348.50000000000006 133.50000000000003 17.000000000000004 111.00000000000001 -935.49999999999989 1305.5000000000002 -12.499999999999998 50.500000000000007 -407.99999999999994 481.50000000000006 26.500000000000004 37.000000000000007 89.000000000000014 50.500000000000007 407.50000000000006 117.00000000000001 1081.5000000000002
decision_type=2 2 2 2 2 2 2 2 2 2 2 2 2 2 2 2 2 2 2 2 2 2 2 2 2 2 2 2 2 2 2 2 2 2 2 2 2 2 2 2 2 2 2 2 2 2 2 2 2 2 2 2 2 2 2 2 2 2 2 2 2 2 2 2 2 2 2 2 2 2 2 2 2 2 2 2 2 2 2 2 2 2 2 2 2 2 2 2 2 2 2 2 2 2 2
left_child=1 3 4 24 6 9 10 12 21 19 22 26 65 14 18 56 64 23 45 20 -5 32 61 30 87 34 53 51 52 -26 46 -20 -3 58 88 41 -17 84 62 50 74 -36 -27 92 59 49 -10 -46 -39 78 -16 -28 -22 70 -55 76 79 80 -34 60 -9 -2 -31 90 77 -4 -62 -30 93 -58 -12 -72 -69 -73 -18 -66 -29 -11 -8 -7 -19 -82 -24 -35 -23 -13 -52 -1 -14 -48 94 -61 -15 -54 -25
right_child=2 8 7 5 -6 15 13 44 17 16 11 85 25 43 39 36 40 57 31 -21 28 37 82 63 29 42 27 55 67 38 -32 -33 33 83 35 -37 -38 48 -40 -41 -42 -43 -44 -45 47 -47 89 -49 -50 -51 86 -53 68 54 -56 -57 69 -59 -60 91 66 -63 -64 -65 75 -67 -68 72 -70 -71 71 73 -74 -75 -76 -77 -78 -79 -80 -81 81 -83 -84 -85 -86 -87 -88 -89 -90 -91 -92 -93 -94 -95 -96
leaf_value=-0.4215328580518185 -0.28132356244132556 -0.18615715991185572 -0.28477846031938375 -0.31628491242290313 -0.40378934524543192 -0.39639344890399225 -0.18072016687320297 -0.40090916976563706 -0.23865638505635139 -0.22704389975381079 -0.11899508487499688 -0.33920033497958019 -0.22216550900054124 -0.21901022313725937 -0.27673971144181031 -0.17721586835501218 -0.23005991323819239 -0.41822562947764907 -0.37011914597283724 -0.3170845158955598 -0.2399825463003144 -0.31827365578717037 -0.27521455504230025 -0.44140328119819705 -0.39493126371207954 -0.38665434976383806 -0.36144439535042239 -0.28448866025992209 -0.30178815582484886 -0.31442925765809532 -0.19544562788274036 -0.23717480439254629 -0.41723288998506641 -0.18376886066228321 -0.14274819110933301 -0.35096149380662756 -0.32268865212083064 -0.36081976087581064 -0.38397919282770826 -0.24898004172509186 -0.16477933784453813 -0.29425457862564747 -0.22547377581775324 -0.288875170263237 -0.20869697431600887 -0.1331003998718297 -0.41268428620985703 -0.35485854793194133 -0.22279017908952697 -0.33081863108990295 -0.34222496201204655 -0.22891179678458085 -0.12321102200676634 -0.1479512014653028 -0.28128549637907319 -0.13198935611601426 -0.25064354877158335 -0.31042148824047477 -0.29489895862307314 -0.35138002371371768 -0.23978117275154681 -0.15868890931426358 -0.20389915573830816 -0.29238018459647536 -0.29719514915785528 -0.39422369367518129 -0.35662948443349773 -0.27955927389241964 -0.22891184924792729 -0.36423786167815309 -0.14749669196678336 -0.15958661184585862 -0.16401855674974408 -0.27150536317701462 -0.32107853836423733 -0.39847132128574675 -0.18136028173905286 -0.34247196408364555 -0.27876511895686473 -0.32081629942056694 -0.3952296830886422 -0.30925343550225476 -0.37306601379749516 -0.29101258000325242 -0.39830046004452707 -0.24394952666208691 -0.42392495491222859 -0.34928923043116206 -0.12328097322080994 -0.31751374670778088 -0.34106636856842509 -0.42756494183391286 -0.13212581060317191 -0.2030299708562196 -0.36645159575435576
leaf_weight=47.242375716567039 11.935575872659685 16.104927465319633 13.955106019973757 13.851038351655005 20.737386867403984 51.713086947798729 23.657695919275284 17.536223649978638 10.264657914638518 10.550945147871973 101.45501443743706 14.277809530496599 10.30630688369274 10.571772471070288 12.711070746183394 14.840066164731981 17.734127044677734 182.7741928845644 18.905192792415619 16.115253269672394 17.692433804273605 13.340888336300848 10.936112627387049 24.97434276342392 22.512356624007225 10.399929568171503 10.462402746081354 12.18014979362488 15.667617738246916 14.361107617616655 11.409822374582289 17.447836235165596 12.049954578280451 10.144961237907411 14.965012311935427 10.238584458827971 13.075421959161757 11.461796313524248 11.399324059486387 16.120502427220345 16.1882244348526 11.139106109738348 10.040839880704878 10.139712318778036 10.082488343119623 16.313170239329338 13.049348846077921 13.726052343845366 14.163362607359884 10.790340915322302 18.275386780500408 14.142535775899885 61.354018345475197 13.637676775455477 14.2205863147974 30.23713992536068 14.324707686901094 11.852209582924841 14.93368938565254 12.23737286031246 13.080670997500421 15.168005868792532 17.328139528632164 10.384354799985884 11.383717149496077 17.067749679088593 12.971300467848776 10.670646026730539 14.142535403370855 11.951081991195677 81.68025404214859 12.55499152839184 17.494733810424805 15.016986712813376 20.378296837210655 25.95817543566227 19.758988007903099 10.259408995509146 11.180754899978636 16.604538321495056 36.623570710420609 13.117070555686949 14.662973538041113 10.894464015960692 38.825356006622314 11.019409671425818 18.920768156647686 16.745059162378311 23.194482207298279 11.076633378863333 12.768306419253348 34.640359565615654 26.296786069869995 10.61341445147991 13.439761027693747
leaf_count=192 47 62 55 55 84 209 91 71 40 41 385 57 40 41 50 57 69 742 76 64 69 53 43 102 91 42 42 48 62 57 44 68 49 39 57 41 52 46 46 63 62 44 39 40 39 62 53 55 55 43 73 55 233 52 56 115 56 47 59 49 51 58 67 41 45 69 52 42 55 48 312 48 67 59 81 105 76 41 44 66 148 52 59 43 157 43 77 67 88 44 51 141 100 41 54
internal_value=-0.28757 -0.326511 -0.241276 -0.290913 -0.21735 -0.26756 -0.210908 -0.305855 -0.365543 -0.240413 -0.186465 -0.17414 -0.255301 -0.257828 -0.279774 -0.331754 -0.292171 -0.386509 -0.245141 -0.207828 -0.196855 -0.31332 -0.269138 -0.345546 -0.364927 -0.223902 -0.164578 -0.206006 -0.185581 -0.326155 -0.296195 -0.306431 -0.271235 -0.301231 -0.199469 -0.246634 -0.244122 -0.3479 -0.288925 -0.331291 -0.242808 -0.205168 -0.307844 -0.182872 -0.359418 -0.209506 -0.331347 -0.292113 -0.284712 -0.239466 -0.358243 -0.28567 -0.163436 -0.149906 -0.213402 -0.175083 -0.357862 -0.404249 -0.351764 -0.376994 -0.340767 -0.210468 -0.253172 -0.381691 -0.338338 -0.346069 -0.29804 -0.239651 -0.148456 -0.30286 -0.141901 -0.164454 -0.205912 -0.21782 -0.278231 -0.368411 -0.219283 -0.283609 -0.210949 -0.37862 -0.408948 -0.373241 -0.33198 -0.236798 -0.378604 -0.297342 -0.385893 -0.403668 -0.150953 -0.371434 -0.39956 -0.409148 -0.154592 -0.133678 -0.417462
internal_weight=1906.8 1035.81 870.997 542.152 635.415 412.563 614.678 235.582 493.654 290.055 403.347 350.644 121.307 211.331 164.323 122.509 112.453 351.734 98.295 177.602 161.486 141.919 52.7027 107.367 129.588 90.2843 325.347 86.7812 147.635 65.6009 45.8005 36.353 64.128 48.0231 69.8435 36.3427 27.9155 77.7914 43.0886 66.0277 54.3006 26.1041 20.4408 47.0083 114.274 61.942 34.3906 23.8085 25.6252 45.6288 49.9072 24.6049 103.802 238.566 27.8583 62.1763 94.5934 244.367 26.9836 90.4659 43.5882 27.1036 31.6892 61.5668 58.1522 31.0229 26.052 43.833 86.11 26.2758 210.707 109.252 28.1654 27.572 38.1124 37.3419 31.9391 20.8104 34.8385 68.3176 232.515 49.7406 25.5991 21.0394 52.1662 25.2972 37.1962 63.9874 33.5008 24.126 51.1824 46.8777 36.8686 71.9674 38.4141
internal_count=7521 4121 3400 2140 2467 1620 2383 933 1981 1132 1555 1348 475 828 647 488 444 1418 384 688 624 563 207 429 520 351 1248 336 569 261 181 144 252 190 270 142 109 311 170 263 212 101 81 181 458 240 137 94 101 178 200 97 398 912 108 239 379 989 108 364 174 105 124 248 232 124 103 171 329 104 804 419 109 107 150 150 124 82 135 275 942 200 102 82 210 100 150 259 128 97 207 190 141 274 156
is_linear=0
shrinkage=1


Tree=1
num_leaves=96
num_cat=0
split_feature=229 620 356 103 569 230 7 622 65 8 423 39 527 315 119 1 32 96 36 18 622 389 624 622 622 2 36 463 622 145 437 606 146 2 444 567 359 330 463 385 480 150 627 440 552 351 105 622 244 32 39 254 463 339 199 493 7 76 2 250 339 447 467 622 361 548 87 36 389 521 368 94 414 32 634 625 51 263 7 510 118 620 19 303 355 123 233 441 477 194 628 457 123 228 282
split_gain=362.233 188.419 143.916 121.164 95.7525 74.8244 57.9779 47.7523 46.3278 44.4601 41.4929 40.5677 39.6952 38.0944 33.1164 31.6121 31.4868 30.9391 29.0604 27.6689 27.2892 26.4198 25.9031 25.7878 25.1558 24.4479 23.9831 23.1593 21.5969 21.0362 22.1894 20.5993 19.8447 18.9098 19.9413 18.0361 16.7941 16.2833 20.4604 16.14 15.6094 15.4978 14.7018 14.3805 15.0302 14.3633 14.0877 13.9304 13.5523 13.4769 13.1177 13.0764 12.6435 12.4109 12.4036 12.0907 11.7359 14.0522 11.6752 11.1809 10.2251 10.2102 10.1146 9.93809 10.796 9.85474 9.78388 9.65218 9.49369 9.26883 9.24461 9.17702 8.99937 8.9605 10.7307 8.84878 8.77517 8.53781 8.42818 8.25239 7.98833 7.35238 8.93327 8.74672 9.98641 7.26112 7.24079 7.16165 7.06102 6.9029 6.73698 7.69642 6.67792 6.11398 6.06016
threshold=52.500000000000007 151.50000000000003 -478.49999999999994 11.500000000000002 1588.0000000000002 692.50000000000011 257.50000000000006 1424.5000000000002 55.500000000000007 377.50000000000006 378.50000000000006 343.00000000000006 75.500000000000014 31.500000000000004 40.500000000000007 335.00000000000006 -1.0000000180025095e-35 205.50000000000003 -37.499999999999993 794.50000000000011 1808.0000000000002 35.500000000000007 202.50000000000003 1981.5000000000002 1244.5000000000002 464.50000000000006 -12.499999999999998 2455.5000000000005 1066.0000000000002 392.00000000000006 28.500000000000004 45.000000000000007 592.50000000000011 416.50000000000006 436.50000000000006 92.500000000000014 290.00000000000006 285.50000000000006 1032.0000000000002 61.500000000000007 1.0000000180025095e-35 666.50000000000011 1224.5000000000002 749.00000000000011 335.50000000000006 41.000000000000007 457.50000000000006 1014.5000000000001 21.500000000000004 -32.499999999999993 819.50000000000011 -50.499999999999993 2743.5000000000005 59.500000000000007 55.500000000000007 1330.5000000000002 263.50000000000006 59.000000000000007 437.50000000000006 891.00000000000011 54.500000000000007 41.000000000000007 173.50000000000003 1283.5000000000002 129.50000000000003 1055.5000000000002 -1.0000000180025095e-35 -12.499999999999998 575.50000000000011 1799.5000000000002 16.500000000000004 75.500000000000014 207.50000000000003 -32.499999999999993 232.50000000000003 177.50000000000003 592.50000000000011 834.50000000000011 265.50000000000006 45.500000000000007 109.50000000000001 195.50000000000003 33.000000000000007 493.50000000000006 -79.999999999999986 41.500000000000007 43.500000000000007 34.500000000000007 39.000000000000007 1.0000000180025095e-35 115.00000000000001 -12.499999999999998 21.500000000000004 368.50000000000006 25.500000000000004
decision_type=2 2 2 2 2 2 2 2 2 2 2 2 2 2 2 2 2 2 2 2 2 2 2 2 2 2 2 2 2 2 2 2 2 2 2 2 2 2 2 2 2 2 2 2 2 2 2 2 2 2 2 2 2 2 2 2 2 2 2 2 2 2 2 2 2 2 2 2 2 2 2 2 2 2 2 2 2 2 2 2 2 2 2 2 2 2 2 2 2 2 2 2 2 2 2
left_child=2 3 4 7 6 15 70 10 37 -7 45 35 13 27 39 -5 22 23 50 41 33 69 32 31 36 26 60 29 42 -3 40 -11 76 89 80 71 -16 63 -39 53 56 -15 68 72 -45 66 -24 54 -28 -25 -9 -30 75 81 -36 -48 77 94 -34 -20 -23 -18 -52 64 -4 -53 -2 -49 92 -12 -1 -8 -19 -66 79 90 -6 -31 -21 -75 -35 82 -10 84 -84 -38 -40 -78 -26 -17 91 -33 -13 -56 -58
right_child=1 12 8 5 16 9 11 18 14 17 21 28 -14 19 24 20 61 43 59 78 -22 25 46 49 88 -27 48 -29 51 30 -32 52 58 34 47 -37 85 38 86 -41 -42 -43 -44 44 -46 -47 55 67 -50 -51 62 65 -54 -55 93 -57 57 -59 -60 -61 -62 -63 -64 -65 73 -67 -68 -69 -70 -71 -72 -73 -74 74 -76 -77 87 -79 -80 -81 -82 -83 83 -85 -86 -87 -88 -89 -90 -91 -92 -93 -94 -95 -96
leaf_value=-0.1048515524789518 -0.14344147308997773 -0.12045769623824332 -0.12048603403549148 -0.070997274505902916 0.0028402859245389273 -0.027358122937257714 -0.013099889929752044 -0.057172728438272168 -0.11290370464347017 0.1567058458306009 0.123898334249278 0.054352050759779676 -0.090328098756903147 -0.090620498744483829 -0.018287545061368617 0.065546729302407306 -0.025984000210637761 0.035139810244065588 -0.11561179552542336 0.050581655071810214 -0.060859740166117525 0.039437881652577604 -0.10691069856148158 0.090147643299078095 -0.10557567462536958 -0.062806181837652325 0.049878671209083347 -0.11875851896822828 0.089863623822701813 -0.099099794740159633 0.1073846031391793 0.059140152900827123 0.018918915090881044 0.046137204396430813 -0.021311574384364169 -0.077019159844035401 0.045865712000962795 0.034529107107763857 -0.11665028491439143 0.040723832888880616 -0.11457416546929253 0.041361632451537747 0.0091968109143898413 0.06120790781215725 -0.065994536545098792 0.037280248447851536 0.038531229401445474 0.012258166400721226 -0.080803891271116771 -0.03824920514589196 -0.0056512525544590081 -0.066715870184414536 0.032430726915013863 -0.0053009572840094082 0.036341291625080221 -0.075455242026437774 0.026758455073154108 -0.039496347507169627 -0.089113855170931899 -0.010892743356380205 0.15136497447505154 -0.11210252067025309 0.1121792619591236 -0.12943213498162923 0.0041591025422457011 0.033656625391860984 -0.029189220799864041 -0.094727121635334186 0.02893436075109361 0.033649765992538369 -0.0017574037554408026 0.092417759082807832 0.1211572066867548 -0.076091726012839297 -0.11488292335665301 0.038734616098884442 0.13884393208751575 0.002631577185443303 0.13871338208608036 0.015557739744878429 0.14032830707151486 -0.13018842711867226 -0.072083887880466199 -0.095906257218987573 0.038924598224698868 0.1458143694949306 -0.039734396639580713 0.040529637543033362 -0.00724254416579013 0.16409568566820121 0.05655999901985212 0.14368841720428602 0.13426973046677088 0.13636571985621754 0.1196202616757536
leaf_weight=20.736096829175953 10.97276408970356 12.636901557445524 50.115391030907631 19.514048144221306 14.107271328568457 18.468259871006012 14.353486821055414 11.635474890470503 23.086579859256744 149.93611581623554 45.896067455410957 11.408429607748984 58.267913728952408 12.263133585453035 13.74330313503742 11.367311328649523 14.687740489840506 16.008974835276604 34.833360567688942 18.26419734954834 15.323598071932791 11.547360599040987 27.837813496589661 14.806554377079012 10.699732691049578 18.185685575008392 12.659005880355837 21.137071415781975 17.158741176128387 12.048555150628092 11.992251023650168 11.648327261209486 15.453861594200136 14.410636901855471 12.138918370008467 20.188401460647583 11.759088963270189 15.720765322446821 22.598398610949516 10.188770070672033 10.698224470019339 14.536598905920981 12.184226319193838 17.618791833519939 11.43676498532295 10.56202022731304 14.436296075582506 14.223797544837 10.959545284509657 10.429371789097784 10.885602667927744 11.856458812952043 17.13378332555294 17.574554160237312 10.255042031407358 13.512221336364744 12.495071470737459 13.729164794087408 14.97934830188751 10.80738654732704 17.050498470664024 52.313092589378357 11.296615689992903 88.28536131978035 12.2940506786108 19.132149174809456 13.265476077795029 11.50891801714897 10.035345092415808 12.331452473998068 10.275324776768683 10.890322238206862 28.396159201860428 18.693981736898426 31.661152273416519 11.554508671164511 11.874589115381243 13.216184660792349 18.99004253745079 12.571362823247908 16.631988868117332 24.221674174070358 10.359444603323935 13.907542333006857 14.248984917998316 13.477136224508284 19.13262414932251 13.038530468940733 12.01110991835594 16.209674522280693 12.1829537153244 79.614459320902824 71.96515879034996 10.314730823040007 10.43462850153446
leaf_count=85 45 52 206 79 56 73 57 47 95 563 174 44 237 50 55 44 59 62 143 71 62 45 114 57 44 73 49 87 66 49 46 45 61 56 48 82 46 62 93 40 44 57 48 68 46 41 57 56 44 42 43 48 67 70 40 55 49 55 61 43 64 215 43 366 49 75 53 47 39 48 41 42 108 76 130 45 45 52 72 50 63 100 42 57 56 51 77 51 48 61 47 300 273 39 40
internal_value=0.00665319 0.0423206 -0.0358261 0.063279 0.0015356 0.0863988 0.0403086 0.0106877 -0.0711188 0.106666 0.0382332 0.058007 -0.026788 -0.00614255 -0.0350833 0.0328055 -0.044856 0.113219 -0.0457468 0.0488912 0.0484933 0.0615604 -0.0181568 0.125714 0.0174026 0.0242317 0.0551194 -0.0360728 0.0798038 -0.0171596 -0.000606326 0.133452 0.0181697 0.0631747 0.0424513 -0.015848 0.0604315 -0.0942211 -0.0507895 -0.0635102 -0.0195579 -0.0199823 0.102291 0.0600402 0.0106215 -0.0473333 -0.0629689 0.0112422 -0.0114633 0.0375577 0.016793 0.0294851 0.106169 -0.0740562 0.0493176 -0.0171802 -0.00170901 0.0302725 -0.0352612 -0.0915331 0.108807 -0.0938385 0.0563586 -0.105633 -0.0880511 -0.00551824 -0.0842613 -0.0371466 0.114218 0.105612 -0.0717459 0.0340066 0.0914933 -0.0652498 -0.0786934 0.116806 0.059723 -0.0475954 0.0977623 -0.0398079 0.0991863 -0.0879206 -0.0696369 -0.0416755 -0.0086662 0.102489 -0.083006 0.0906614 -0.0558896 0.12689 0.125104 0.133597 0.124049 0.0901876 0.0720044
internal_weight=1903.51 1034.73 868.776 794.022 422.425 551.134 230.184 242.888 446.351 399.235 163.43 199.173 240.71 182.442 175.278 151.899 192.241 380.767 79.4584 64.054 132.385 128.63 125.24 307.306 61.6904 70.4021 52.2164 118.388 153.741 97.251 84.6141 282.07 69.4536 117.061 89.484 45.4322 38.9795 271.073 57.4518 113.588 72.6218 26.7997 105.593 73.4607 29.0556 34.8003 55.7863 58.4414 23.6186 25.2359 33.8177 48.1473 132.134 103.399 32.7087 27.9485 61.9236 36.6589 30.4332 45.6407 28.5979 67.0008 22.1822 213.621 125.336 30.9886 24.2382 25.7327 93.4089 58.2275 31.0114 25.2438 44.4051 75.2205 62.9265 115 39.0204 25.2647 37.2542 31.2653 31.0426 85.8242 61.6026 38.516 24.6084 25.2362 41.731 24.9131 22.7108 27.577 103.446 91.2628 83.3736 20.5698 22.9297
internal_count=7521 4034 3487 3073 1674 2118 900 955 1813 1523 636 774 961 724 704 595 774 1450 319 250 516 497 500 1166 244 275 202 474 593 387 335 1067 274 454 349 181 152 1109 232 460 289 107 404 284 114 139 226 230 93 99 133 189 504 420 127 112 245 144 122 186 109 274 86 877 511 123 98 103 356 222 126 99 170 305 256 437 152 101 143 126 119 350 250 155 98 97 170 96 92 105 392 345 317 79 89
is_linear=0
shrinkage=0.089272


Tree=2
num_leaves=96
num_cat=0
split_feature=250 622 622 7 606 385 369 356 572 316 66 389 315 244 574 66 230 553 230 66 5 4 567 403 625 622 8 36 103 5 98 67 119 368 228 622 389 497 103 391 67 411 438 36 543 123 147 623 18 119 315 496 0 515 553 315 529 103 412 337 622 98 176 416 339 67 247 50 247 70 462 569 569 356 332 304 33 209 16 459 141 317 340 2 196 351 443 360 392 158 445 145 210 34 633
split_gain=307.878 133.645 120.739 87.9172 77.3537 76.8029 64.8527 52.0495 43.6947 42.4945 44.8997 39.0678 38.8712 36.7483 33.0421 29.0424 28.4618 30.7783 25.2548 24.7709 22.9041 26.0146 21.9478 33.1634 20.8794 20.3877 19.9643 17.6727 17.316 16.7057 16.701 16.3887 20.0884 16.1914 16.1273 16.1134 16.1046 15.9616 15.8665 15.3739 14.7842 14.1721 14.1657 14.1264 16.4874 13.9712 17.0336 14.1313 13.7464 13.203 18.9196 13.1161 13.0176 15.593 12.899 12.7135 12.6434 12.1146 12.0707 12.9964 11.797 11.3689 11.1046 10.9903 10.4562 10.3231 10.275 10.1236 10.0639 9.75424 9.39155 9.23033 9.0895 10.4652 8.56989 12.6288 8.5025 8.61815 8.48618 8.41352 8.26905 8.14843 8.11413 7.73817 7.5875 7.41397 7.30703 6.72621 6.20507 6.15599 6.14761 5.98175 5.59791 5.38616 4.71531
threshold=429.50000000000006 1159.0000000000002 1981.5000000000002 259.50000000000006 43.000000000000007 84.500000000000014 -396.49999999999994 -817.99999999999989 148.50000000000003 -2523.4999999999995 23.500000000000004 105.50000000000001 -32.499999999999993 -27.499999999999996 2330.0000000000005 25.500000000000004 862.50000000000011 81.000000000000014 312.50000000000006 26.500000000000004 427.50000000000006 409.50000000000006 227.00000000000003 50.500000000000007 192.50000000000003 910.00000000000011 394.50000000000006 -32.499999999999993 21.500000000000004 459.50000000000006 131.00000000000003 45.500000000000007 74.500000000000014 26.500000000000004 607.50000000000011 780.50000000000011 273.50000000000006 465.50000000000006 21.500000000000004 1261.5000000000002 62.500000000000007 651.50000000000011 126.50000000000001 -17.499999999999996 15.500000000000002 34.500000000000007 314.50000000000006 876.00000000000011 1657.5000000000002 44.500000000000007 11.500000000000002 29.000000000000004 91.000000000000014 1137.5000000000002 45.000000000000007 41.000000000000007 3073.5000000000005 16.500000000000004 1906.5000000000002 13.000000000000002 1151.5000000000002 93.000000000000014 22.500000000000004 67.000000000000014 67.500000000000014 122.50000000000001 6.5000000000000009 26.500000000000004 16.500000000000004 54.500000000000007 19.500000000000004 1940.0000000000002 2633.0000000000005 -705.99999999999989 820.00000000000011 670.00000000000011 1.0000000180025095e-35 -27.499999999999996 353.50000000000006 177.50000000000003 31.500000000000004 206.50000000000003 927.50000000000011 432.50000000000006 -199.49999999999997 109.50000000000001 29.000000000000004 85.000000000000014 55.500000000000007 481.50000000000006 55.500000000000007 1027.0000000000002 -574.49999999999989 45.500000000000007 1.0000000180025095e-35
decision_type=2 2 2 2 2 2 2 2 2 2 2 2 2 2 2 2 2 2 2 2 2 2 2 2 2 2 2 2 2 2 2 2 2 2 2 2 2 2 2 2 2 2 2 2 2 2 2 2 2 2 2 2 2 2 2 2 2 2 2 2 2 2 2 2 2 2 2 2 2 2 2 2 2 2 2 2 2 2 2 2 2 2 2 2 2 2 2 2 2 2 2 2 2 2 2
left_child=1 3 4 26 9 14 8 22 20 -2 11 58 -7 48 16 42 25 31 63 27 43 -22 23 64 57 37 89 36 -28 54 45 32 35 65 60 -18 51 -6 61 68 67 76 -8 -5 -45 46 -23 -47 -4 66 -51 -9 53 -12 -25 88 71 -21 59 84 -14 -33 85 69 87 -17 -13 83 -30 -10 -59 -36 73 -15 91 -76 77 -37 -65 -24 -60 -34 -38 -20 -11 -56 -52 -3 -27 -1 -74 -29 -83 -26 -54
right_child=2 7 13 6 5 12 15 19 18 10 52 49 34 72 -16 33 17 -19 40 24 21 30 79 29 93 55 28 74 39 -31 -32 38 81 -35 56 41 82 -39 -40 -41 -42 -43 -44 44 -46 47 -48 -49 -50 50 86 -53 94 -55 62 -57 -58 70 80 -61 -62 -63 -64 78 -66 -67 -68 -69 -70 -71 -72 -73 90 -75 75 -77 -78 -79 -80 -81 -82 92 -84 -85 -86 -87 -88 -89 -90 -91 -92 -93 -94 -95 -96
leaf_value=-0.11446175355600433 -0.070330388578705161 -0.030508212874767269 -0.02024856398951248 0.15729077187740778 -0.05634791982185277 -0.072403712424684602 -0.079718251122185738 -0.049999769352774406 0.062942065180597154 0.059379302974006481 0.12808414558737974 0.035489113714012706 0.087155186627180262 0.024461051477496127 -0.088687548347126499 -0.0095724670488655048 0.071955644019084442 -0.068559448585304841 0.034610681951725016 -0.064232609634439053 -0.067299388664337961 -0.050731779559872132 -0.010299967213204931 0.12702125486508936 -0.11757056982242749 -0.10917014373002749 -0.089227724251180099 -0.12137066776377355 0.080630459088062628 -0.036479865057138121 -0.023404188444193046 0.08590916744470535 0.022573221088095796 -0.055440848194105635 0.13807473228900463 0.087409274968731354 -0.11697820014918844 0.07715126132915473 0.12858144415926084 -0.083345071157496925 0.12290052876546667 -0.098258225023260579 0.02265754934156335 0.011618015336869111 0.13287418177624413 0.12853911265629886 0.088480966070485195 0.027307980420085531 0.087196446650953427 -0.031711719172094636 0.12305480881821884 0.073362946566400106 0.084077292677253765 0.0059766593092068065 -0.052029525227761997 0.021806476389135351 0.018698471446183983 0.086725871413494471 -0.014106604572818163 0.029828219243276746 -0.037458297557933423 -0.036705540424407289 0.099778869687239924 -0.1004627689551118 0.012806233327932832 0.099439041210155676 -0.064231225130334246 0.068135808527381478 -0.017229781026384346 -0.046683176671327813 -0.016331494874316912 0.06364302830362345 -0.11575063476012193 -0.091192625343973127 -0.098077606273613699 0.021284842550848594 -0.048399402325776837 -0.0165490268956957 -0.0031021889647570313 -0.10264692844603675 0.089687463919532098 0.062928193088372913 -0.026730019043547656 -0.063910949819005747 0.15171961969181039 0.048526579652391523 0.037241578838227679 -0.12510511611294239 -0.035208330797754435 -0.0468306686686146 -0.047522688861423544 -0.074800398610269977 0.16101020014275702 -0.042301021665591458 0.15557874317988832
leaf_weight=45.492193832993507 12.087867081165312 10.432809591293337 18.724530503153801 31.945435151457787 10.18166705965996 10.71101303398609 66.125082284212112 14.947960600256922 11.737096190452577 10.123591572046278 21.20884607732296 13.094562068581579 12.127715378999712 13.370056286454203 25.873589336872101 10.204275637865068 17.530366271734238 19.326129049062729 10.775974810123445 10.945999488234518 13.037960365414618 12.405201077461244 11.665514841675757 17.807402268052101 17.377923429012299 26.0792406052351 21.839774936437607 142.77969804406166 17.868599236011505 15.516440793871878 14.62435223162174 12.031015753746034 12.34944039583206 12.352837502956389 77.627779737114906 11.833818361163138 24.211835965514183 19.474514156579971 31.31363382935524 10.350860193371771 13.573095977306364 14.14627021551132 12.400760278105734 18.178654298186302 17.083737596869469 42.991244539618492 13.976887300610541 15.471385478973387 17.752607226371765 15.519515663385389 18.075386330485344 11.212578371167181 11.853433370590208 13.553195580840109 11.663326337933542 11.347321659326552 10.389236390590666 15.661844268441202 10.247332513332369 11.105656817555426 10.56177608668804 10.537848100066183 11.660660266876219 23.073213040828705 10.674687579274176 19.590837568044662 19.363600194454193 17.099246367812157 14.608880713582037 12.347403123974798 11.807011201977728 18.91592513024807 36.618933692574501 10.305189430713652 20.288620695471767 10.156773895025252 14.498297259211538 12.169560298323633 10.2732036113739 24.877997681498528 13.461929336190222 11.191502809524534 12.623202323913572 13.173018231987951 51.455717027187347 10.017778456211088 15.526647180318831 16.139687985181808 15.464028060436247 16.440655067563057 17.379915341734886 32.962275356054306 10.451104730367662 15.710675761103628 97.506048485636711
leaf_count=192 49 42 75 119 41 43 273 61 46 39 80 51 46 53 106 41 67 78 42 45 52 49 47 68 73 108 91 605 69 63 58 46 48 50 291 45 102 75 118 43 51 58 49 71 64 162 53 60 68 62 68 44 45 53 47 45 41 61 40 43 42 42 45 95 42 75 78 66 58 50 48 73 153 43 85 41 58 48 41 103 51 43 51 53 192 39 60 67 62 67 71 138 39 64 363
internal_value=0.00603166 -0.0272748 0.0448774 0.0032597 0.0577268 0.0323992 0.0232467 -0.0614278 0.045974 0.089845 0.0960401 0.0654853 0.0862555 -0.0404788 0.00576178 -0.0316281 0.0154432 0.0355426 0.00215278 -0.0802437 0.0731426 0.0478638 -0.0155589 0.00550244 -0.0329626 -0.0276513 -0.0615478 -0.0926463 -0.0262663 0.0430361 0.063441 0.048597 0.0274994 0.0277474 0.0997859 -1.09702e-05 -0.0501494 0.0309712 0.0882351 0.00700007 0.0452381 -0.0248063 -0.0634637 0.114244 0.0722512 0.0785118 0.0234718 0.102594 0.0328608 0.019662 0.0485114 0.0035215 0.133119 0.0818681 0.0673934 -0.0605092 0.11423 0.0118469 0.103711 0.12175 0.0298933 0.0294064 0.0329963 -0.0388728 -0.0610744 0.06289 -0.0240982 0.0174317 0.0373072 0.00704341 0.0432847 0.12423 -0.0749156 -0.0273436 -0.105349 -0.0587598 0.00379432 0.0359766 -0.0713754 -0.0741591 0.0459166 0.082851 -0.0874638 -0.0198926 0.137638 -0.00543767 0.0854538 -0.0902355 -0.0830037 -0.0974601 -0.0949577 -0.113071 0.114908 -0.0839448 0.148593
internal_weight=1894.65 1020.18 874.467 539.042 760.316 426.133 412.441 481.143 291.767 334.183 322.095 177.974 140.333 114.151 285.799 120.674 259.926 177.379 112.052 340.686 179.715 112.507 140.456 103.913 71.5035 82.5468 126.601 269.183 64.6681 66.6656 99.4691 158.053 104.17 42.148 129.622 70.1783 62.9956 29.6562 53.8825 42.8283 54.6213 52.6479 78.5258 67.2078 35.2624 84.8447 26.3821 58.4626 36.4771 81.5797 49.1215 26.1605 144.122 34.762 51.1492 52.8906 106.933 38.4149 96.3942 72.685 22.6895 22.5689 33.3418 57.4309 37.2472 29.7951 32.4582 41.0482 32.4775 24.0845 27.4689 96.5437 77.6741 23.6752 206.187 30.4454 38.5017 24.0034 33.3464 36.5435 23.7093 33.992 36.835 23.949 61.5793 21.6811 33.602 26.5725 41.5433 61.9328 53.9988 175.742 21.6426 33.0886 109.359
internal_count=7521 4121 3400 2140 2937 1663 1620 1981 1132 1274 1225 684 536 463 1127 488 1021 690 444 1418 688 434 563 413 291 331 520 1127 261 262 382 612 406 166 493 276 258 116 206 170 212 209 322 254 135 324 102 222 143 319 190 105 541 133 199 215 405 154 365 274 88 88 131 232 151 116 129 161 127 96 109 364 320 96 869 126 151 93 136 150 91 130 153 95 231 86 128 109 170 259 224 743 82 137 408
is_linear=0
shrinkage=0.089272


Tree=3
num_leaves=96
num_cat=0
split_feature=369 622 18 66 157 569 371 7 36 8 440 622 622 572 39 490 601 7 330 67 341 625 425 40 298 474 368 412 229 2 355 567 283 177 622 635 424 98 2 278 121 246 263 391 622 172 422 412 33 405 547 564 85 33 18 388 457 120 413 70 172 315 393 192 438 567 179 281 463 67 39 33 571 339 256 369 415 463 248 622 39 474 176 209 616 85 416 550 626 359 391 331 446 256 462
split_gain=260.124 129.591 100.076 97.8014 69.2765 68.3478 60.1175 49.4588 43.7356 40.6898 35.1343 33.8107 33.3083 33.1956 33.1644 29.1378 28.9488 26.4124 25.805 25.5508 30.3261 22.7099 23.2357 21.7018 21.4731 20.6661 20.0313 18.289 18.2103 17.1963 16.4602 15.996 16.2398 20.9235 15.699 15.0761 15.0342 14.9881 14.9035 14.5163 13.9332 13.5146 14.5309 13.4586 13.2503 12.8987 12.5361 14.4378 12.4169 12.1224 11.7618 12.1086 11.6309 11.537 11.5172 11.3527 11.2973 11.1705 10.7421 10.5524 10.2597 10.1394 9.94827 9.92316 9.91816 9.82066 9.58159 9.45408 9.2628 9.16117 9.03829 8.13394 7.75789 7.46593 7.87478 7.44699 8.39853 7.25053 7.19964 7.00065 6.85298 6.74344 6.56907 6.29052 6.14531 6.12734 8.12829 6.54805 6.00895 5.99692 5.95437 5.85587 5.52295 5.45322 5.31763
threshold=-817.49999999999989 1981.5000000000002 761.50000000000011 26.500000000000004 -506.49999999999994 1229.5000000000002 81.000000000000014 264.50000000000006 -51.499999999999993 385.50000000000006 744.50000000000011 1273.5000000000002 1217.0000000000002 475.50000000000006 397.00000000000006 27.500000000000004 1258.5000000000002 263.50000000000006 192.50000000000003 45.500000000000007 43.000000000000007 226.50000000000003 1.0000000180025095e-35 334.00000000000006 -17.499999999999996 85.000000000000014 21.500000000000004 1730.5000000000002 49.500000000000007 450.50000000000006 126.50000000000001 247.00000000000003 271.50000000000006 59.500000000000007 682.50000000000011 1236.5000000000002 47.000000000000007 135.00000000000003 470.50000000000006 34.500000000000007 31.000000000000004 -17.499999999999996 826.50000000000011 1593.5000000000002 1322.5000000000002 52.500000000000007 -1710.4999999999998 1852.5000000000002 -27.499999999999996 133.50000000000003 39.500000000000007 41.000000000000007 -27.499999999999996 -1.0000000180025095e-35 837.50000000000011 41.500000000000007 41.000000000000007 389.50000000000006 50.500000000000007 54.500000000000007 50.500000000000007 -12.499999999999998 750.50000000000011 36.500000000000007 151.50000000000003 1.0000000180025095e-35 392.50000000000006 211.50000000000003 2162.5000000000005 92.500000000000014 265.50000000000006 -7.4999999999999991 168.00000000000003 23.500000000000004 -298.49999999999994 -2004.4999999999998 3369.5000000000005 1351.5000000000002 -22.499999999999996 1090.0000000000002 441.00000000000006 31.500000000000004 32.500000000000007 -37.499999999999993 -17.499999999999996 1.0000000180025095e-35 77.000000000000014 290.00000000000006 149.50000000000003 397.50000000000006 1100.5000000000002 72.500000000000014 1181.5000000000002 215.50000000000003 -1315.9999999999998
decision_type=2 2 2 2 2 2 2 2 2 2 2 2 2 2 2 2 2 2 2 2 2 2 2 2 2 2 2 2 2 2 2 2 2 2 2 2 2 2 2 2 2 2 2 2 2 2 2 2 2 2 2 2 2 2 2 2 2 2 2 2 2 2 2 2 2 2 2 2 2 2 2 2 2 2 2 2 2 2 2 2 2 2 2 2 2 2 2 2 2 2 2 2 2 2 2
left_child=1 2 5 4 16 15 7 10 30 29 27 14 18 19 81 23 24 57 40 20 37 22 48 50 89 54 69 41 -26 -5 91 32 84 44 56 65 -24 43 -21 75 73 90 53 61 -34 -29 47 -22 -12 -28 51 -1 -20 -43 62 -48 -25 64 -54 -42 -36 79 -13 -14 -7 -30 -41 -38 -65 83 -17 -52 -62 -6 -75 76 -10 -76 -18 -9 -60 -11 -33 -16 -19 -63 87 -87 -44 -2 -4 -3 -90 -79 -47
right_child=3 8 6 9 12 17 -8 13 39 11 21 25 63 -15 26 70 78 31 52 38 46 -23 36 34 28 -27 49 45 35 -31 -32 82 33 -35 60 -37 67 -39 -40 66 59 42 88 -45 -46 94 55 -49 -50 -51 71 -53 58 -55 -56 -57 -58 -59 80 -61 72 85 -64 68 -66 -67 -68 -69 -70 -71 -72 -73 -74 74 77 -77 -78 93 -80 -81 -82 -83 -84 -85 -86 86 -88 -89 92 -91 -92 -93 -94 -95 -96
leaf_value=0.089558056182719947 -0.10424504158034298 0.036519984433486224 0.13729064766194304 -0.0029436851420675684 -0.11620368703117315 -0.096532767132900613 -0.13745091283949873 0.10764047138677627 0.0072600064495147972 -0.078290033920264818 0.030595409511136276 0.038106390553697959 -0.11118571013436734 -0.031231790339783624 0.099166228481589666 0.027440002222586253 -0.013205871301816654 0.01092049357463945 0.066579225447938928 0.14681870092930768 0.10570602513055134 -0.089384363731564109 -0.01836876712752003 0.028686160678330814 -0.044687964405141278 -0.11622154576495815 -0.045761491064870152 0.069265991461135296 0.01327002852128213 -0.12589864898168801 -0.041164152515571706 -0.10201131459285843 0.059136921466704309 0.11519514788227003 0.067277258078814725 -0.010120197379753237 0.1472933752864701 -0.0020897355637330126 0.047491295683923671 -0.059196210393742142 0.030332546730157336 0.0742025763244758 0.025879135702970502 0.030679878155962091 -0.048043132188625361 0.0085982492631406504 -0.065608167405995593 -0.00041133831070594922 -0.078294218064931212 0.077380965246079306 0.0035626183362896489 -0.036541755820795087 0.035225535249117132 -0.038319130684811284 0.061484593874662007 0.050447588179201745 0.13493978481972818 -0.0011607760716041383 -0.10217707628462264 -0.076260705033383003 0.032039056720036777 0.14865958357874601 -0.067808962374468595 0.010919608940922509 -0.0028200727741379177 0.10192079158444817 0.048829745616441197 0.041248648900086692 -0.099182752464971616 0.12846953963285718 0.12481982937684175 -0.089723033149189585 -0.062746860035996388 0.0051945758383767542 -0.031466494048038633 -0.10661398189902874 -0.094047721004547169 -0.13104785220464207 -0.096272646154112684 0.004555224104611658 -0.0090547085663424069 0.017423339787489032 -0.007055319040729105 0.0023861625144795703 -0.079235980683474913 0.10690803034927225 0.14888330038906528 0.012253773932692683 0.12834335126667379 -0.010123138612257965 0.068923177963085433 0.1245257106765601 0.044083874626694636 -0.067558208534840902 -0.078263848125870228
leaf_weight=11.584604546427729 10.737776815891268 14.530403688549997 35.081138879060745 16.788894906640053 37.624188825488091 57.900956332683563 10.492371201515196 10.105715721845629 12.147876128554346 12.084476724267008 13.125748693943022 10.678259566426279 159.1188633441925 16.074009224772453 10.68814228475094 10.204638302326201 12.595136150717734 10.086247727274896 15.078996539115904 95.616135522723198 22.769708827137947 18.60712830722332 12.113522991538046 13.078847467899321 16.611034974455833 13.046617284417151 12.630016982555391 15.382994264364241 13.486526951193808 18.95840759575367 13.671032458543776 13.264428779482843 16.718805104494095 20.650852143764496 18.331057325005531 19.536208808422089 14.474692210555078 10.172914922237394 15.058817952871321 13.945775642991068 17.40159206092358 10.911556139588358 10.879125654697416 16.039403602480888 18.306811049580574 10.794923827052115 15.49720583856106 17.927972882986069 20.238255605101585 11.155378848314284 11.829402923583986 11.056708946824072 14.908592030405996 17.93594978749752 18.113929018378258 10.524906426668165 22.373903498053551 16.937210246920586 12.656290099024774 11.548739716410635 12.252459764480593 66.474642843008041 17.587035179138184 11.517858803272249 10.720155820250509 41.061139315366745 10.817318141460417 13.655843988060949 11.604635298252104 50.221375867724419 38.326042965054512 18.812158390879631 13.644143193960188 10.574136123061178 21.66604420542717 61.609356597065926 12.83469535410404 20.55516704916954 25.775646314024925 10.236614808440207 12.168890446424482 10.169249236583708 10.122409865260122 10.069179862737654 13.307658165693281 11.095800518989565 14.46157495677471 11.888112187385557 23.464310213923454 10.504724413156508 18.785034835338593 11.01052366197109 10.130232363939284 30.907975241541862 10.407356560230257
leaf_count=45 45 57 131 68 161 242 44 38 49 49 51 43 691 65 41 40 51 40 59 357 86 77 48 51 68 55 51 59 53 80 55 56 65 79 71 79 54 40 58 58 70 42 42 62 75 42 62 70 82 43 47 45 59 72 71 41 84 68 53 48 48 248 73 47 43 157 43 53 50 190 144 78 55 43 89 261 54 87 109 40 49 40 41 40 54 42 54 46 88 42 72 42 39 130 42
internal_value=0.00550854 0.0325408 0.044389 -0.0352359 -0.0554647 0.00768769 0.0665595 0.0703313 -0.0443684 0.0160319 0.040397 0.033671 -0.0753873 0.0924427 0.0613642 0.046652 -0.00397441 -0.0299629 -0.0503376 0.0985785 0.0801397 -0.00367553 0.0188003 0.0246905 0.0190182 -0.0209459 0.0842519 0.0651029 0.0379646 -0.0696825 0.0360851 0.000684725 0.0199598 0.0459954 0.0539496 0.0568273 0.0638409 0.102279 0.133809 -0.0727709 -0.0693629 0.0810075 0.054918 0.109819 0.00328899 0.00916072 0.0294914 0.059944 -0.0357489 0.0126703 -0.0192153 0.0288973 0.00208428 0.00517076 0.00754762 -0.0185108 0.0974639 -0.0662983 -0.0233049 -0.0131783 0.017788 0.119729 -0.0278185 -0.103183 -0.0821357 0.080597 -0.0119078 0.0987465 -0.0459515 0.107762 0.105244 -0.0546085 -0.0182945 -0.0825634 -0.0663466 -0.0898604 -0.0462165 -0.0766423 -0.0699674 0.058224 -0.0584988 -0.0355365 -0.0627529 0.0543328 -0.0413644 0.131151 0.0972605 0.060317 0.0864148 -0.0600681 0.115004 0.0774673 0.104792 -0.0947671 -0.0354521
internal_weight=1880.33 1130.5 979.933 749.831 537.64 369.51 610.424 599.931 150.567 212.191 255.988 176.444 387.332 343.944 117.018 181.494 150.308 188.016 205.091 327.87 217.195 92.2152 73.6081 132.963 111.937 59.4258 94.7641 163.773 90.6949 35.7473 39.212 102.457 79.0704 55.6765 79.6804 74.0839 40.2441 150.475 110.675 111.355 150.278 127.187 73.3212 140.302 35.0256 36.5853 66.7198 40.6977 33.364 23.7854 53.2829 22.6413 54.8128 28.8475 46.3792 26.0221 35.4528 85.5583 39.7338 28.9503 44.2277 124.262 28.2653 182.241 68.6211 54.5477 24.7631 28.1305 23.1225 70.9787 48.5307 30.6416 25.8966 121.328 83.7033 86.5919 24.9826 73.1292 38.3708 20.3423 24.8252 22.2537 23.3868 20.7573 23.3939 103.92 37.4455 22.9839 44.4737 21.2425 53.8662 25.5409 33.5945 51.4631 21.2023
internal_count=7521 4437 3818 3084 2240 1471 2347 2303 619 844 994 696 1636 1309 454 708 604 763 848 1244 829 365 288 524 444 242 365 629 357 148 154 410 313 219 309 289 155 570 415 465 628 486 283 530 140 143 259 156 133 94 215 90 220 114 187 103 135 353 161 118 174 468 116 788 285 210 101 107 97 271 184 125 103 510 349 364 103 306 160 78 102 89 97 81 94 390 142 88 169 87 203 99 127 217 84
is_linear=0
shrinkage=0.089272


Tree=4
num_leaves=96
num_cat=0
split_feature=356 620 8 66 630 606 144 622 180 599 66 263 622 330 38 442 438 306 569 246 542 250 624 158 20 209 496 440 423 551 389 119 120 474 521 571 464 198 2 246 393 389 622 231 361 411 235 463 628 306 36 573 40 8 628 143 466 43 7 229 149 463 37 175 464 460 580 2 620 9 195 355 103 69 191 45 567 306 551 257 569 368 251 354 176 361 122 530 356 43 318 171 302 408 253
split_gain=226.463 128.836 94.1633 84.6734 76.6159 68.1427 49.3225 44.3569 42.7328 42.2062 36.5571 31.7593 29.5197 27.2502 25.6694 25.6724 22.2209 26.0213 20.5594 20.3336 20.023 19.2684 18.6293 27.556 18.9472 18.2766 16.9939 16.9324 16.9279 16.8587 16.7385 14.9308 14.3711 14.0982 13.8196 12.932 12.8153 22.2085 12.6646 12.6017 13.7544 12.4032 12.1813 12.112 11.6395 11.6368 11.4418 11.4043 11.131 10.875 10.6661 10.0413 10.036 10.6926 9.94604 9.93255 9.91404 10.9227 9.79696 9.72644 9.53798 9.3749 9.35577 9.21714 8.8544 8.82452 8.68233 11.5296 8.65357 10.1361 8.56455 10.1124 8.52018 8.91721 8.46694 7.80052 7.27358 7.01262 6.98642 6.86947 6.85438 7.92869 6.75849 6.68469 6.66775 6.57195 6.09693 5.85371 5.78818 5.76045 5.69212 6.13916 5.0977 5.08007 5.03464
threshold=-436.99999999999994 170.50000000000003 380.50000000000006 26.500000000000004 1.0000000180025095e-35 1.0000000180025095e-35 -590.49999999999989 1151.5000000000002 14.500000000000002 1134.5000000000002 21.500000000000004 1615.0000000000002 1881.0000000000002 358.50000000000006 664.50000000000011 675.50000000000011 68.500000000000014 226.50000000000003 1200.5000000000002 -32.499999999999993 75.500000000000014 251.00000000000003 177.50000000000003 170.50000000000003 60.500000000000007 -22.499999999999996 35.000000000000007 80.500000000000014 1452.5000000000002 43.500000000000007 82.500000000000014 81.500000000000014 202.50000000000003 -32.499999999999993 964.50000000000011 1037.5000000000002 99.500000000000014 553.00000000000011 403.50000000000006 -12.499999999999998 2133.5000000000005 256.50000000000006 1205.5000000000002 35.000000000000007 129.50000000000003 1198.5000000000002 55.000000000000007 2355.0000000000005 125.00000000000001 172.50000000000003 -12.499999999999998 165.50000000000003 480.50000000000006 414.50000000000006 105.00000000000001 112.50000000000001 480.50000000000006 159.50000000000003 266.50000000000006 70.500000000000014 135.50000000000003 1996.5000000000002 90.000000000000014 60.500000000000007 148.50000000000003 -32.499999999999993 50.500000000000007 444.50000000000006 90.000000000000014 17.500000000000004 -61.499999999999993 -135.49999999999997 31.500000000000004 270.50000000000006 6.5000000000000009 41.000000000000007 112.50000000000001 158.50000000000003 39.500000000000007 103.00000000000001 1395.5000000000002 6.5000000000000009 690.00000000000011 -32.499999999999993 33.500000000000007 151.50000000000003 55.500000000000007 47.000000000000007 -314.99999999999994 207.50000000000003 35.000000000000007 651.50000000000011 19.500000000000004 437.00000000000006 270.50000000000006
decision_type=2 2 2 2 2 2 2 2 2 2 2 2 2 2 2 2 2 2 2 2 2 2 2 2 2 2 2 2 2 2 2 2 2 2 2 2 2 2 2 2 2 2 2 2 2 2 2 2 2 2 2 2 2 2 2 2 2 2 2 2 2 2 2 2 2 2 2 2 2 2 2 2 2 2 2 2 2 2 2 2 2 2 2 2 2 2 2 2 2 2 2 2 2 2 2
left_child=1 2 18 6 5 10 20 16 46 21 19 22 14 31 36 55 17 28 27 79 29 47 24 90 59 75 49 -1 51 -2 33 42 61 -21 64 -31 37 -3 -20 40 74 86 44 -26 88 68 -5 56 -18 -15 62 -7 53 -35 -13 78 57 -10 -17 -9 -48 -32 -14 -23 -25 -34 67 -11 83 -70 -46 94 73 -73 -6 -19 87 -74 -16 -4 81 -38 -36 -12 -82 -54 -27 -41 -8 -77 -24 -92 -30 -44 -72
right_child=3 12 4 8 39 7 13 11 9 66 45 54 50 26 15 58 48 25 38 30 -22 63 23 34 43 41 -28 -29 92 35 32 -33 65 52 82 -37 80 -39 -40 76 -42 -43 93 -45 70 -47 60 -49 -50 -51 -52 -53 85 -55 -56 -57 -58 -59 -60 -61 -62 -63 -64 -65 -66 -67 -68 -69 69 -71 71 72 77 -75 -76 89 -78 -79 -80 -81 84 -83 -84 -85 -86 -87 -88 -89 -90 -91 91 -93 -94 -95 -96
leaf_value=0.078323660904200856 -0.038396983233708937 -0.075067044912693018 0.11441102123303749 -0.081614405583674221 -0.027052503397905114 0.10347977579301257 -0.04416999851034336 -0.055592638924423128 0.07932279943106163 0.052649762412096769 0.054086796744232821 0.11529351577513217 -0.095717967432503256 -0.089949435343964018 0.052433346689930327 -0.072983705112450267 0.12159475166893197 0.022364211905852395 -0.0053908171954202859 -0.032607164320864281 -0.071087505406583137 0.047548379175084733 -0.025624751132706045 0.022055512052487038 0.016079992696668901 0.096448985977661425 0.082392925708965017 -0.045468493109116243 -0.0099131648984220767 0.10046669548658761 -0.10257207633862417 0.022236314031867599 -0.021370129640804571 -0.0069039119542157806 0.0019650658943630235 -0.011749430275772386 0.014337564070489334 0.069110772310038857 -0.10609868020124327 -0.0054609710959777104 -0.079357948195866015 -0.063662211760143 -0.10842363008465397 0.13834521046413478 0.025620172753874845 0.03458576344970004 -0.059665127034407579 -0.056904597983240449 0.020249102567742941 0.0077805168893679555 -0.11755175038470665 -0.0044751989326528331 0.049116976741805408 0.095046518759522094 0.0089042392036085757 -0.0081962092793941444 0.11470948508873823 -0.036829103020339329 0.029244840738319747 0.044055681859627847 0.05130766906906014 0.0072116070453362401 0.017481697760800906 0.12615582271504214 -0.077801064357866184 0.077442819762647136 -0.096338724058092115 -0.07127690262479551 0.11062613305020812 0.008209411563507572 -0.12249638931811352 -0.016144036993753177 0.03208310356897074 -0.11556975712331988 0.069721076587068706 0.12562127098855055 -0.13318420884551335 -0.050623457431744776 0.13692702206611548 0.034338617909633842 -0.10287673394270272 -0.080219102228147182 0.091698352104727515 0.13645999231905762 -0.024331602416595557 0.11844665368648305 0.0058694965484383573 -0.089408136353024054 -0.11317371615468334 0.051425666618488707 -0.11620808789749452 -0.03443078416676594 -0.090778212094265509 -0.038061764489542342 -0.048963173722211456
leaf_weight=14.441890239715574 16.697901427745819 14.438298702239988 53.637850001454353 37.297581359744072 11.05157580971718 10.748453885316851 14.187249630689619 20.037594348192219 10.484033167362215 11.348436281085016 10.13320606946945 21.863562867045403 10.066192895174028 16.448475420475006 19.357919365167618 19.392735585570339 53.031467422842979 10.266524478793142 13.403063848614691 10.520831510424612 18.187577649950981 19.477159470319748 12.93322244286537 12.041142806410791 12.205492585897447 10.825971916317942 11.42364266514778 19.762055173516273 10.548405870795252 26.57744574546814 11.979061976075174 10.364263013005255 10.827215358614923 20.260951146483421 11.501000419259073 11.382296741008757 16.365762203931812 18.223745256662369 39.169569402933121 14.642922654747965 11.359349578619002 10.231053248047827 137.66928826272488 13.532408207654951 10.510472446680067 14.583838224411009 10.910117998719217 10.235784918069838 10.798276007175444 18.702596083283424 34.495992720127106 16.496028497815132 17.996447786688805 12.71787606179714 10.378676623106001 10.027863293886183 10.697192922234533 14.030610918998716 11.170418739318846 11.607851028442381 12.015046507120131 11.698770105838774 11.864043116569517 38.102014437317848 15.177767962217329 18.771129488945007 14.209020435810087 10.793403610587118 22.415095522999763 11.763252273201941 21.098320290446281 14.069974035024645 18.807981073856357 14.62681423127651 17.833012610673904 41.929818212985992 10.244744941592215 13.045403361320494 14.860552728176115 11.335344761610029 33.778490722179413 11.220570579171179 15.300471797585486 126.90795168280602 12.417778879404066 37.735795319080353 12.265553399920462 11.414223149418829 48.241083160042763 12.696539670228956 30.20447139441967 10.907157123088835 15.241316437721251 10.087948277592657 14.131141051650046
leaf_count=56 68 61 203 155 44 41 59 82 41 45 39 83 43 71 75 80 200 40 54 42 76 76 54 48 49 41 45 80 42 102 49 42 43 81 47 46 66 72 165 59 46 41 618 51 43 57 45 42 42 76 152 66 70 49 41 40 41 57 44 45 47 47 48 144 63 72 61 45 85 47 91 58 76 63 69 158 44 54 56 44 145 47 59 478 51 143 48 47 211 49 129 45 62 44 60
internal_value=0.00504327 0.027712 0.0420154 -0.037651 0.0506498 0.0586591 -0.0592335 0.0330459 0.0106467 0.0377511 0.0847392 0.00247359 -0.0311572 -0.0723139 -0.0134164 0.0264613 0.0610133 0.0419325 -0.0463927 0.059468 0.00786887 0.0667917 -0.0134321 -0.0351654 0.0273885 0.0689418 -0.00822353 0.0074428 -0.00838533 0.0348923 0.0412222 -0.0813956 0.000761806 0.0627306 0.00993674 0.0673021 -0.0414391 0.00503909 -0.0809704 -0.0344113 0.000182805 0.0146034 -0.0848466 0.0829244 -0.0676981 0.113881 -0.051695 0.0226382 0.10499 -0.0390334 -0.0870128 0.0400386 0.0742647 0.033872 0.0822594 0.0693616 0.046638 0.0138607 -0.0358208 -0.0187991 -0.0017207 -0.0500215 -0.036169 0.100733 -0.0343018 0.041701 -0.0441507 -0.00814184 0.120411 0.0765304 -0.0489962 -0.0573587 -0.0343631 -0.0688449 0.0329624 0.0962428 -0.0718605 -0.00222027 0.0917452 0.101122 -0.0618397 -0.0254145 0.0545548 0.130772 -0.0826607 0.0972229 0.0504196 -0.044043 -0.0983658 0.109517 -0.0796865 -0.0957485 -0.0592029 -0.103888 -0.094999
internal_weight=1862.92 1217.06 979.377 645.86 892.601 816.055 446.26 412.77 199.6 139.378 403.285 197.691 237.68 373.415 181.254 74.8095 215.079 151.25 86.7766 217.481 72.8452 103.027 165.449 108.065 57.3833 98.2155 46.5747 34.2039 53.0342 54.6576 152.508 326.84 53.2762 99.2319 54.0204 37.9597 106.445 32.662 52.5726 76.5458 40.2439 33.3226 316.476 25.7379 168.718 185.803 60.2227 45.4476 63.8297 35.1511 56.4262 27.2445 88.7111 32.9788 32.2422 44.2463 35.2118 24.5146 30.5632 31.6454 22.9252 23.6778 21.9302 57.5792 27.2189 29.5983 36.3509 22.1418 171.22 34.1783 106.29 95.7796 60.5502 28.6968 28.8846 64.8929 36.3019 31.8534 34.2185 64.9732 73.7826 27.5863 26.8015 137.041 46.1963 55.7322 23.0915 26.0571 62.4283 54.6264 54.0449 41.1116 25.7897 147.757 35.2295
internal_count=7521 4819 3839 2702 3484 3175 1903 1626 799 552 1549 796 980 1611 737 295 830 588 355 843 292 401 672 445 227 377 192 136 211 216 596 1419 211 385 217 148 442 133 219 309 159 130 1377 100 715 706 247 181 242 147 243 107 343 130 124 171 139 98 124 127 92 96 91 220 111 115 151 90 649 132 445 402 251 121 113 247 150 130 131 247 309 113 106 517 196 213 89 106 270 207 228 174 104 662 151
is_linear=0
shrinkage=0.089272


Tree=5
num_leaves=96
num_cat=0
split_feature=229 625 356 5 622 516 66 0 228 103 244 580 624 279 41 94 387 8 233 442 229 8 67 388 315 254 315 622 550 231 410 330 198 330 385 546 98 391 285 248 1 440 414 547 209 330 172 606 444 575 283 192 569 464 139 582 421 622 530 622 198 405 580 23 359 191 22 209 32 371 86 157 362 550 563 458 32 66 197 626 603 543 403 32 606 604 249 392 574 421 495 66 181 316 410
split_gain=195.128 102.205 85.2327 75.5234 55.5912 54.2518 53.902 46.2749 43.0148 29.0131 28.323 26.7815 23.8601 23.2376 20.5521 19.5149 19.0533 18.8642 18.064 22.2504 18.537 17.7647 17.699 34.8189 17.2487 17.1129 15.8744 15.6561 15.1367 15.1298 15.1234 14.9879 14.2118 14.1511 13.3621 13.3469 12.4709 12.3529 12.1088 11.9738 11.9447 13.334 12.4108 11.3617 11.2715 11.1253 11.9989 10.9939 13.8063 12.4199 10.6921 11.2193 10.5084 10.4995 11.5383 10.4103 10.2433 10.2394 10.4875 10.2243 15.8923 10.2166 10.6232 9.9024 9.83511 9.63819 9.46706 9.17747 13.1729 10.0023 9.09713 13.6566 8.97151 8.72485 8.62162 8.46023 8.43162 7.9223 8.43871 15.1652 7.89204 7.73832 7.66132 7.51312 7.47988 8.85775 7.34011 7.04365 7.01928 6.95256 6.19198 6.06516 5.93335 5.66011 5.48915
threshold=57.500000000000007 270.50000000000006 -402.99999999999994 503.50000000000006 1981.5000000000002 2396.5000000000005 26.500000000000004 87.000000000000014 495.50000000000006 -1.0000000180025095e-35 -27.499999999999996 75.500000000000014 207.00000000000003 101.50000000000001 143.50000000000003 75.500000000000014 60.500000000000007 369.50000000000006 40.500000000000007 123.50000000000001 68.500000000000014 377.50000000000006 30.500000000000004 16.500000000000004 31.500000000000004 -133.49999999999997 -1.0000000180025095e-35 1593.0000000000002 138.50000000000003 33.000000000000007 1852.0000000000002 255.50000000000003 260.00000000000006 373.00000000000006 55.500000000000007 1012.5000000000001 89.000000000000014 1076.5000000000002 94.500000000000014 -7.4999999999999991 363.00000000000006 1085.5000000000002 200.50000000000003 48.500000000000007 -7.4999999999999991 827.50000000000011 71.500000000000014 63.000000000000007 519.50000000000011 119.00000000000001 1428.5000000000002 16.500000000000004 1168.0000000000002 153.50000000000003 11.500000000000002 884.50000000000011 75.500000000000014 1305.0000000000002 31.000000000000004 868.50000000000011 580.50000000000011 182.50000000000003 55.500000000000007 41.000000000000007 1266.5000000000002 11.500000000000002 45.500000000000007 -22.499999999999996 -17.499999999999996 49.000000000000007 16.500000000000004 -388.49999999999994 915.50000000000011 417.00000000000006 65.500000000000014 36.500000000000007 -7.4999999999999991 19.500000000000004 -641.99999999999989 179.50000000000003 50.500000000000007 15.500000000000002 21.500000000000004 -12.499999999999998 53.000000000000007 30.500000000000004 17.000000000000004 50.500000000000007 683.50000000000011 6.5000000000000009 1982.5000000000002 21.500000000000004 655.50000000000011 301.50000000000006 1427.5000000000002
decision_type=2 2 2 2 2 2 2 2 2 2 2 2 2 2 2 2 2 2 2 2 2 2 2 2 2 2 2 2 2 2 2 2 2 2 2 2 2 2 2 2 2 2 2 2 2 2 2 2 2 2 2 2 2 2 2 2 2 2 2 2 2 2 2 2 2 2 2 2 2 2 2 2 2 2 2 2 2 2 2 2 2 2 2 2 2 2 2 2 2 2 2 2 2 2 2
left_child=2 3 5 4 8 7 33 16 18 30 37 12 15 25 83 50 26 -11 19 32 91 -8 23 -19 61 -7 -1 44 72 -15 39 36 -2 57 81 -30 -26 -6 -12 -10 88 53 -43 90 56 -27 -47 49 -49 -17 51 77 -16 -42 -55 89 73 58 -4 66 -61 62 82 -62 -32 -35 -28 68 69 -60 87 -72 -22 75 -69 -23 -54 78 -9 -80 -73 -5 -3 -14 -24 -86 -70 -18 -25 -34 -31 -21 -29 -88 -87
right_child=1 24 6 34 10 13 21 11 9 17 38 -13 14 29 52 47 70 22 -20 20 28 27 84 40 31 45 59 92 35 43 64 -33 55 65 -36 -37 -38 -39 -40 -41 41 42 -44 -45 -46 46 -48 48 -50 -51 -52 -53 76 54 -56 -57 -58 -59 67 60 63 -63 -64 -65 -66 -67 -68 74 86 -71 71 80 -74 -75 -76 -77 -78 -79 79 -81 -82 -83 -84 -85 85 94 93 -89 -90 -91 -92 -93 -94 -95 -96
leaf_value=-0.068186627615027653 -0.042971137691847419 -0.043370865051838729 -0.099153654280614442 -0.11883536361776904 0.13159725712608805 0.03481006463133083 -0.096093895930716003 0.054765363897407979 0.095929721855264521 -0.029622620948735037 -0.00085711057178017357 -0.062339191871690382 -0.001759624962388831 -0.059290186344659525 0.11067210753560557 0.13199337141330175 -0.10212128929014563 0.10888144243284532 0.11049618844264371 -0.12849424311952209 0.012013093132936012 0.025068918429983603 0.12761767503715749 0.028506837664467856 -0.10021996025672511 -0.10584023929279651 0.02043123848818694 -0.10065012465233041 0.023348404001439477 0.042173199697298026 -0.083082137346815743 0.076092344653987148 0.038353560038511682 -0.058150232710995016 0.0050192912090686343 -0.082187766595297751 0.020265101516105759 -0.0025625264273679074 -0.091309328692560102 -0.0053762867290202913 -0.01093564287457678 0.04472944143878483 -0.076069750109970344 0.10020313604851842 -0.045423876542415191 0.025208492896203676 -0.091379334673873658 0.12065856347738813 -0.0064482488054832107 0.029137695876647586 -0.0486942773282616 0.10044000156269139 0.048951943373393203 0.041894712666375719 0.12247227371920856 0.0076663614909016301 -0.033256738079140195 -0.10070586360795913 0.087189167858440497 -0.079813552370880239 0.10157027257044024 -0.10674100535093556 -0.10544711843489439 -0.0091287722715054365 0.029380008261655592 0.050765920603647 0.127034503693849 -0.10137291216584551 -0.10621740517376976 -0.02920304030462011 0.067207896539138001 0.001321588611757997 0.11655422488664313 0.0096046591037014569 -0.0073918436829394345 0.11743959794975996 -0.051054784862927041 0.077777539900258916 0.029476072345619986 -0.10064696612269326 -0.10470729434261788 -0.025063975131894047 0.053494887398643866 -0.097520834676160906 0.012331726005508888 0.051904230697622483 9.567140087602244e-05 -0.031001447638746512 -0.070238438105468717 0.11296173172243189 -0.049614836249827536 -0.03087171174059691 -0.0056135655119470404 -0.077647285600490806 0.12572847046695454
leaf_weight=15.959777072072027 10.439904019236563 15.001212120056154 48.15238381922245 22.285821348428726 10.083107843995096 10.175754785537718 12.630777329206465 15.572724372148508 21.921047389507294 10.449908241629599 19.050724804401398 18.538650363683701 10.96032175421715 20.165204063057899 11.264982178807257 51.084799498319626 30.235487520694733 111.46157935261726 17.047695145010948 11.291189193725588 14.615655183792116 12.609758287668226 103.88087859749794 10.817335471510889 12.048173680901529 60.59577439725399 14.84510286152363 10.042334929108621 19.209817171096802 10.838141247630121 13.418531745672228 13.395786404609678 16.56168369948864 13.123147904872896 18.151296123862267 17.477852135896683 13.965887948870657 10.791148841381071 30.237674042582512 15.500883460044859 10.027296975255011 16.955814450979236 10.015675261616705 12.713476508855818 11.912011861801146 13.09747761487961 13.532126501202582 10.245677202939989 17.234597980976105 12.180705174803732 10.422721058130263 20.208021342754364 16.213364854454994 27.29278863966465 32.1825792491436 17.891979247331619 10.145394906401632 111.83243109285831 10.711795017123224 12.57638071477413 10.57708513736725 33.26278093457222 11.338485062122343 14.31939686834812 10.263658329844473 11.129683539271353 11.80128166079521 33.566791594028473 14.00771129131317 11.218507140874861 10.200518414378168 10.661735355854036 11.332558318972586 17.552102580666542 10.272252693772314 23.521180838346481 10.169758126139643 14.976634070277212 16.311386451125152 11.374866709113119 10.768629461526869 10.934447929263113 10.106245398521422 15.45351994037628 11.54972794651985 14.17758649587631 20.150199979543689 18.989056259393692 10.461300536990164 30.487078234553337 10.779292494058607 10.017194062471388 10.297920674085615 10.919701084494589 26.695696622133255
leaf_count=67 42 63 216 94 38 41 55 61 84 42 79 77 44 87 43 194 128 424 65 48 58 50 397 42 51 265 59 44 76 43 55 53 65 56 73 73 56 43 131 62 39 66 41 49 49 53 59 39 69 48 42 77 64 106 122 72 41 521 43 55 41 145 50 58 40 45 45 148 61 48 40 44 43 70 44 90 43 58 64 47 47 45 41 66 45 55 85 78 42 116 45 41 43 48 101
internal_value=0.00460836 0.0355064 -0.0226743 0.0471794 0.0548186 -0.000582347 -0.0540609 0.0158508 0.0631625 0.0776023 -0.0203419 0.0389292 0.0468405 -0.0461901 1.78038e-05 0.0634509 -0.0217522 0.0864267 0.02553 0.0158582 -0.0156961 -0.000289638 0.0896372 0.0732402 -0.044971 -0.0721101 0.00909219 0.0130745 0.00901401 0.000539452 0.019974 0.00226624 0.05078 -0.0738054 -0.056567 -0.02767 -0.0369931 0.0649739 -0.0570163 0.0548047 0.03892 0.0521918 -0.00110563 0.0363335 0.0317703 -0.0848252 -0.0350565 0.0924534 0.0432449 0.112898 0.0331885 0.0445136 0.0420083 0.0726375 0.0866978 0.0662518 0.0466275 -0.079639 -0.0643279 0.0290264 -0.00126934 -0.0713778 -0.0372671 0.0397764 -0.0350128 -0.00809796 0.0703095 -0.0485082 -0.0271154 0.0288065 -0.0520753 -0.0140942 0.0601033 0.0620456 -0.0799712 0.0866336 0.00994855 0.0238467 0.00393791 -0.0254441 -0.0539975 -0.0894876 -0.0038342 -0.059201 0.113115 0.0826758 -0.0543761 -0.0757639 -0.0208785 0.0879427 -0.00370364 -0.0857822 -0.0548775 -0.0286214 0.101829
internal_weight=1842.94 864.098 978.841 754.979 703.608 575.044 403.796 423.147 633.445 457.072 70.1627 262.213 243.674 151.897 64.0619 179.612 160.934 395.968 176.373 159.325 83.9443 108.711 385.518 229.214 109.119 97.4011 80.079 96.0807 62.6359 54.4961 61.1041 39.4098 75.3806 295.085 51.3716 36.6877 26.0141 20.8743 49.2884 37.4219 117.753 96.4742 26.9715 34.3309 75.7404 87.2254 26.6296 90.7458 27.4803 63.2655 88.8664 78.4436 37.6481 69.5027 59.4754 64.9407 63.8284 270.832 158.999 64.1192 37.4729 69.7087 36.4459 24.8965 23.6822 24.2528 26.6464 110.847 67.0079 21.9303 80.8554 31.6309 25.9482 53.683 43.839 36.1309 26.3831 58.2356 43.259 27.6863 21.4304 33.2203 25.1075 26.4138 156.304 52.423 45.0776 49.2245 21.2786 47.0488 21.6174 21.3084 20.3403 31.0699 40.8733
internal_count=7521 3424 4097 2965 2753 2340 1757 1698 2462 1763 291 1036 959 642 260 699 662 1522 699 634 339 442 1480 882 459 418 325 387 250 224 241 160 295 1315 212 149 107 81 210 146 458 374 107 137 300 377 112 350 108 242 349 307 150 267 228 253 251 1214 693 258 154 299 154 99 95 101 104 477 285 91 337 131 101 210 192 140 107 230 172 111 91 139 104 110 598 201 194 206 84 181 88 89 87 133 156
is_linear=0
shrinkage=0.089272


Tree=6
num_leaves=96
num_cat=0
split_feature=250 622 622 530 38 245 159 7 550 8 627 2 410 390 66 88 246 409 440 181 8 552 341 5 119 36 103 437 630 18 10 596 403 7 151 106 2 92 542 407 436 1 546 16 440 363 67 39 565 156 446 279 464 464 65 39 416 144 299 388 255 422 445 245 85 96 229 51 181 144 572 424 628 103 495 406 119 17 196 175 575 620 390 249 211 6 618 8 209 172 108 50 38 74 333
split_gain=166.024 77.4452 70.2923 57.6162 54.1563 44.0682 43.0764 37.8855 33.7735 33.628 31.2065 28.5523 26.7137 26.5308 41.0769 23.6402 23.1829 22.8079 22.6777 20.8228 20.0045 18.9853 17.8348 17.7681 17.2426 16.2611 16.1332 15.7205 14.7814 14.4964 15.0173 14.0032 13.5527 13.1799 13.038 12.8762 14.6758 12.3722 12.2011 11.9867 11.6469 11.1418 10.7735 14.1444 18.632 14.0919 11.3163 10.93 10.4973 11.5331 10.3501 16.23 12.7595 10.2605 10.2867 10.0925 9.7727 10.6518 9.67412 9.60779 9.39435 9.23981 9.18763 9.98355 9.08177 8.98853 8.98573 8.83378 8.56357 8.5115 8.37291 8.15108 8.07295 7.61579 7.60501 7.44311 7.0827 7.04264 6.87352 6.6323 6.54432 6.54334 6.47058 6.33646 6.18018 6.14124 6.03731 5.8778 5.81553 5.43681 5.33773 5.33637 5.18947 5.797 5.12156
threshold=429.50000000000006 1159.0000000000002 1283.5000000000002 33.000000000000007 705.50000000000011 16.500000000000004 83.000000000000014 256.50000000000006 99.500000000000014 376.50000000000006 1224.5000000000002 431.50000000000006 2086.5000000000005 9.0000000000000018 23.500000000000004 6.5000000000000009 -12.499999999999998 -182.99999999999997 148.50000000000003 1256.0000000000002 392.50000000000006 722.50000000000011 45.000000000000007 531.50000000000011 36.500000000000007 -12.499999999999998 1.0000000180025095e-35 23.500000000000004 50.500000000000007 330.50000000000006 43.500000000000007 26.500000000000004 55.500000000000007 262.50000000000006 75.000000000000014 47.000000000000007 466.50000000000006 575.50000000000011 21.500000000000004 -85.999999999999986 324.50000000000006 353.00000000000006 2448.5000000000005 309.50000000000006 856.50000000000011 63.000000000000007 107.50000000000001 768.00000000000011 85.000000000000014 -7.4999999999999991 447.50000000000006 89.500000000000014 119.50000000000001 797.50000000000011 45.500000000000007 702.50000000000011 115.00000000000001 -431.99999999999994 31.500000000000004 24.500000000000004 189.50000000000003 -540.49999999999989 58.500000000000007 1.0000000180025095e-35 1.0000000180025095e-35 147.50000000000003 59.500000000000007 240.50000000000003 48.500000000000007 -551.49999999999989 275.50000000000006 51.000000000000007 35.000000000000007 11.500000000000002 274.50000000000006 -1.0000000180025095e-35 44.500000000000007 66.500000000000014 -116.49999999999999 26.500000000000004 93.000000000000014 185.50000000000003 17.000000000000004 7.0000000000000009 -338.49999999999994 222.50000000000003 -32.499999999999993 395.50000000000006 -12.499999999999998 53.500000000000007 1.0000000180025095e-35 11.500000000000002 359.00000000000006 29.500000000000004 51.000000000000007
decision_type=2 2 2 2 2 2 2 2 2 2 2 2 2 2 2 2 2 2 2 2 2 2 2 2 2 2 2 2 2 2 2 2 2 2 2 2 2 2 2 2 2 2 2 2 2 2 2 2 2 2 2 2 2 2 2 2 2 2 2 2 2 2 2 2 2 2 2 2 2 2 2 2 2 2 2 2 2 2 2 2 2 2 2 2 2 2 2 2 2 2 2 2 2 2 2
left_child=1 3 6 17 26 12 7 66 15 40 11 25 34 69 22 65 18 29 55 35 58 70 38 28 59 -11 -4 76 50 -1 90 67 62 -18 87 91 -37 -36 56 -20 82 -28 43 -35 45 64 -46 -47 49 -7 79 52 -52 -39 -55 84 57 81 83 -17 74 -40 63 -24 -45 77 -2 -27 -23 94 73 -53 -71 -16 -43 -19 92 -3 -32 -22 -74 85 -5 -13 -10 -15 -41 -6 -81 -69 -31 -14 93 -12 -9
right_child=2 8 4 9 5 48 -8 13 16 10 27 20 19 14 21 24 33 75 39 -21 23 68 32 -25 -26 31 41 -29 -30 30 78 -33 -34 42 37 36 -38 53 61 86 -42 60 -44 44 46 47 -48 -49 -50 -51 51 71 -54 54 -56 -57 -58 -59 -60 -61 -62 -63 -64 -65 -66 -67 -68 89 -70 72 -72 -73 80 -75 -76 -77 -78 -79 -80 88 -82 -83 -84 -85 -86 -87 -88 -89 -90 -91 -92 -93 -94 -95 -96
leaf_value=-0.084833204143653709 -0.069256202346803658 0.029366012087122473 -0.1076568179507667 -0.034068006592863201 0.037350243325898376 -0.066319248167430928 -0.08696258899886232 0.12392802226902466 -0.046945036775852322 0.11545455129470451 -0.12488809185768847 -0.016421072592739901 -0.014632826619505226 0.1052143848994828 0.056456028068173097 -0.017587630903110052 -0.10508110727547065 -0.037943045177278104 0.022339947596219677 0.090359495293387326 0.020307130816839221 -0.046922679222379575 0.031760200300349636 -0.073236468337423935 0.04456260404392786 -0.042042438355914591 -0.10452450403643944 0.052499065780081844 -0.050128844099955841 -0.0043867138953921888 0.083587048423340915 0.12549124900479788 0.051982161870550887 -0.091749778492508788 -0.019435535529298931 0.068994118011985558 -0.059634878305824326 0.088867722896793372 0.038730545449831046 -0.02933434156559191 0.021775801143332243 0.080426800464816331 -0.10805653470517142 0.086935364135889565 -0.096779683802447128 -0.073238802716565576 0.0063670093149431947 0.029924267453476011 -0.1008684923438745 0.052754868206358586 0.066620647459796165 0.024406089660212481 -0.033825659710137068 -0.046465674231315798 0.070552149064980765 0.10533338573348253 -0.018039826284660158 0.0035027624382640526 0.029420038897391913 -0.11041184510409344 -0.060997775721075197 -0.076212542243581829 -0.10696213152971062 -0.074363456766009736 -0.011315114526638817 -0.0036632046063510859 0.016791787321028585 0.078813207505748439 0.064075122765304471 -0.0048600707555093653 0.041007849677616032 0.11073125238335446 0.13004122350137956 0.1237259232973015 -0.011372826021807737 -0.1219452932694073 0.011302398332898122 0.13026893663187536 0.00093860759772752714 0.11605103348832263 0.043054498115996605 0.013007643061187088 -0.11865465272093567 -0.10914498060651456 0.042446201999571241 0.038940535340919298 -0.09657147476445517 0.1138885975843211 0.043198207835540202 -0.00075571917734443663 -0.090366249984193278 -0.085049533195134502 -0.01931869115199452 -0.03514172874120098 0.049528868032475096
leaf_weight=19.278471320867538 18.6482322961092 10.313754960894586 31.809626445174217 13.589830905199053 11.325185954570768 14.096848607063295 15.868913933634756 79.005989998579025 10.270763024687765 47.739534512162209 16.215898618102077 10.431324452161791 14.603464961051939 48.693239986896515 18.79308620095253 16.425704389810562 76.765128120779991 12.579345464706419 12.63312992453575 15.122383847832678 13.245199248194693 10.256274312734606 15.18788765370846 10.95788726210594 14.008368760347365 13.095694646239279 11.251049071550367 13.464282795786856 12.441644281148909 10.86855174601078 15.582007572054865 11.438201650977133 14.81831608712673 46.102494761347771 19.937949240207672 18.034609556198124 10.426691502332686 37.420479282736778 10.187165826559069 17.492737531661987 10.860335677862166 10.220566749572756 31.426128298044205 16.109080255031589 37.625889018177986 23.365349516272545 10.705302700400351 11.712763682007788 21.054814383387566 10.545117333531378 13.09456145763397 16.427752733230591 35.087719097733498 11.185283571481706 10.979795619845389 10.445203974843023 12.740986198186873 18.769247010350227 10.254547402262686 19.638247355818748 16.308237656950951 10.388402685523031 12.314107224345205 11.734729945659636 13.039319932460783 12.870620876550673 18.542654052376747 15.155497670173647 10.103336215019224 10.138425558805464 16.911496311426163 19.473656669259071 13.838237300515177 82.945226281881332 19.770744919776917 33.698011353611946 10.154520660638807 12.952767312526701 15.704274594783781 30.140360698103901 15.606573656201361 10.791584581136702 17.41587208211422 13.833998188376425 12.834364071488382 16.364225089550018 31.554003193974495 41.787728995084763 14.383747443556787 11.848827943205832 11.626636981964111 21.68889419734478 11.500300869345663 10.09473843872547 10.011747449636458
leaf_count=85 78 42 140 57 45 60 68 303 44 184 72 43 59 186 73 69 357 55 54 59 52 42 60 46 56 54 48 53 52 45 61 44 58 213 81 70 43 145 40 74 44 40 145 65 178 104 45 49 93 43 51 65 144 47 43 41 51 76 41 90 70 43 50 49 56 54 73 59 39 40 67 75 53 322 82 155 41 50 63 116 61 43 78 60 52 64 143 162 57 47 51 92 47 43 39
internal_value=0.00421548 -0.0210175 0.0329952 0.00237274 0.0021064 0.0228486 0.0543092 0.0590698 -0.0481892 0.018543 0.0273676 0.0392608 0.0399571 0.0662274 0.052232 0.00200702 -0.0601187 -0.0518653 -0.0220177 -0.000858461 0.0196448 0.0886339 0.0241197 0.0325595 -0.0374387 0.0781877 -0.0574446 -0.0302428 0.0404638 -0.0203171 0.00381304 0.0422481 -0.018641 -0.0735911 0.0643838 -0.023131 0.021449 0.0407387 0.0421992 -0.0538779 -0.0563838 -0.0284335 -0.06043 -0.0504295 -0.0328978 -0.00118979 -0.0742148 -0.0388766 -0.055921 -0.0152581 0.0486849 0.0281927 -0.00577932 0.0608806 0.0119495 0.0364009 0.0542015 0.0640192 -0.0414009 -0.069631 -0.00826804 -0.0200211 -0.0459109 -0.0153735 0.0439331 0.0562709 -0.0269479 0.0162281 0.00849292 0.100543 0.102208 0.0728337 0.0635897 0.111919 0.0213189 -0.100302 -0.0540338 0.088363 0.0433291 0.0775968 0.0866343 0.0787622 -0.0836348 -0.0713537 0.00239339 0.0893247 -0.07358 0.0984889 0.0938708 0.044972 -0.05065 -0.0577908 -0.0714617 -0.0928114 0.116156
internal_weight=1820.2 969.974 850.23 521.683 347.569 258.209 502.66 486.791 448.291 402.346 360.48 299.05 212.512 449.6 320.999 86.2095 362.082 119.337 95.2302 79.876 199.772 139.009 181.99 165.253 50.0723 99.2778 89.3602 61.4297 154.295 73.0599 53.7815 51.5382 54.055 266.851 132.636 64.7537 28.4613 79.5235 127.935 61.6799 41.866 57.5506 190.086 158.66 112.558 64.2265 48.3312 35.0781 45.6968 24.642 141.853 84.0837 48.1823 59.5856 22.1651 33.5503 107.359 94.6183 34.5199 36.064 46.2995 20.5756 39.2367 26.9226 29.1484 36.1371 37.1909 40.1 20.3596 128.601 118.65 35.9014 39.5832 101.738 29.9913 46.2774 47.9655 23.2665 31.2863 57.7693 29.4448 75.849 31.0057 24.2653 23.1051 65.0575 49.0467 53.1129 44.5241 27.0043 22.4952 36.2924 37.8109 26.3106 89.0177
internal_count=7521 4121 3400 2140 1422 1042 1978 1910 1981 1625 1446 1190 846 1759 1263 361 1620 515 408 323 802 543 720 658 215 388 380 256 612 305 220 204 217 1212 523 264 113 316 503 271 179 240 855 710 497 274 223 153 196 103 560 335 195 235 90 137 420 369 144 159 192 83 159 109 121 146 151 160 81 496 462 140 154 395 122 210 203 92 124 225 114 293 135 103 96 250 217 207 173 106 96 151 162 115 342
is_linear=0
shrinkage=0.089272


Tree=7
num_leaves=96
num_cat=0
split_feature=356 620 8 66 632 628 144 603 8 103 140 330 580 620 440 156 571 351 410 622 569 39 229 474 623 103 542 622 198 411 599 66 474 495 18 551 623 410 68 441 284 36 66 157 498 39 520 201 422 424 620 550 416 121 180 251 464 567 97 177 387 71 310 551 105 474 2 204 563 140 622 622 392 36 74 171 315 62 624 615 17 443 459 121 94 157 361 122 36 268 332 309 315 496 495
split_gain=145.021 85.0159 67.257 57.0899 54.0043 48.1609 34.3339 33.7816 31.1795 29.533 28.9031 24.4313 22.0628 21.9429 20.9875 19.0126 19.5299 18.7724 18.4405 17.5877 17.4839 17.0368 16.977 16.6891 16.1474 16.0405 16.0388 14.895 14.4298 16.8347 14.0366 13.561 19.1731 12.9889 12.5581 12.4481 11.9387 11.6108 11.5624 11.3655 12.0063 11.2301 11.1288 11.1132 11.0385 10.9613 10.6612 10.3452 10.2554 12.4606 10.2208 10.0209 9.81384 9.70173 9.25984 9.07741 10.177 9.07569 9.35884 9.02294 8.84904 8.74637 8.64552 8.56294 8.43211 8.35576 8.10679 7.94718 7.79428 7.76321 11.9794 7.70502 11.8032 9.09154 7.55052 7.37758 7.12637 7.00926 6.82577 6.10908 7.7894 5.99251 5.92581 6.22424 8.57297 5.8626 5.60695 5.52224 5.35617 4.95053 4.89481 4.87656 4.696 6.7958 4.58543
threshold=-436.99999999999994 170.50000000000003 392.50000000000006 25.500000000000004 1.0000000180025095e-35 127.00000000000001 -590.49999999999989 70.500000000000014 375.50000000000006 6.5000000000000009 31.500000000000004 202.50000000000003 75.500000000000014 146.50000000000003 724.50000000000011 21.500000000000004 622.50000000000011 26.500000000000004 1998.5000000000002 863.50000000000011 2223.0000000000005 1056.0000000000002 46.500000000000007 -32.499999999999993 1139.5000000000002 21.500000000000004 75.500000000000014 1117.5000000000002 536.50000000000011 192.50000000000003 871.50000000000011 28.500000000000004 94.500000000000014 102.50000000000001 481.50000000000006 42.500000000000007 685.50000000000011 2858.5000000000005 11.000000000000002 42.500000000000007 35.000000000000007 -7.4999999999999991 23.500000000000004 -410.49999999999994 42.500000000000007 797.00000000000011 135.50000000000003 -75.499999999999986 -4116.4999999999991 43.000000000000007 85.000000000000014 959.00000000000011 47.000000000000007 17.000000000000004 9.5000000000000018 555.50000000000011 714.50000000000011 122.50000000000001 519.50000000000011 27.500000000000004 729.50000000000011 135.50000000000003 91.000000000000014 45.500000000000007 899.50000000000011 21.500000000000004 427.50000000000006 111.00000000000001 1.0000000180025095e-35 31.500000000000004 1261.0000000000002 1139.0000000000002 48.500000000000007 -12.499999999999998 29.500000000000004 631.50000000000011 -1.0000000180025095e-35 1.0000000180025095e-35 182.50000000000003 -22.499999999999996 54.500000000000007 41.000000000000007 260.50000000000006 23.000000000000004 70.500000000000014 52.500000000000007 135.50000000000003 158.50000000000003 -27.499999999999996 1.0000000180025095e-35 1436.5000000000002 896.50000000000011 50.500000000000007 35.000000000000007 680.50000000000011
decision_type=2 2 2 2 2 2 2 2 2 2 2 2 2 2 2 2 2 2 2 2 2 2 2 2 2 2 2 2 2 2 2 2 2 2 2 2 2 2 2 2 2 2 2 2 2 2 2 2 2 2 2 2 2 2 2 2 2 2 2 2 2 2 2 2 2 2 2 2 2 2 2 2 2 2 2 2 2 2 2 2 2 2 2 2 2 2 2 2 2 2 2 2 2 2 2
left_child=1 2 10 6 5 7 26 23 -5 36 17 71 20 24 22 16 39 42 86 63 28 74 33 30 54 48 35 66 61 53 -4 32 37 -9 -15 -2 65 55 -20 40 45 78 -1 -21 91 -7 -45 -42 -24 -50 67 -37 -35 75 -11 56 68 58 88 -56 -23 -3 -39 -13 -60 -10 -19 -17 90 70 -51 72 82 -74 -16 94 77 -57 -22 -27 -81 -36 83 -8 -85 -61 -12 -29 -6 -14 -25 -31 -73 -94 -30
right_child=3 12 4 8 57 15 11 14 9 13 18 19 89 34 21 50 -18 27 38 43 41 60 25 31 -26 79 -28 87 29 44 -32 -33 -34 52 81 51 -38 62 -40 -41 47 -43 -44 46 -46 -47 -48 -49 49 69 -52 -53 -54 -55 59 76 -58 -59 64 85 -62 -63 -64 -65 -66 -67 -68 -69 -70 -71 -72 92 73 -75 -76 -77 -78 -79 -80 80 -82 -83 -84 84 -86 -87 -88 -89 -90 -91 -92 -93 93 -95 -96
leaf_value=-0.11109799862293079 -0.035840631017854396 0.020989292093187215 0.07890292851574375 -0.09880480719722072 -0.0035525679274655188 -0.003682183731542033 -0.10998396335693915 0.068632037986877975 -0.05831331871535872 0.018704658003606225 0.029190262459231776 -0.0092580204466276624 -0.043066153434331948 -0.066060356089335345 -0.09687593192012961 0.023094637744346395 -0.11620784995792983 0.067968477317292761 -0.069409551118803509 0.030715074907259249 0.041297182932598805 0.099982896489149362 -0.044805030507441258 0.13290961778556504 -0.015968589762994492 0.11220566611073118 -0.067736437493087484 -0.0054257595021660072 0.013567485507817506 -0.091410422414463274 -0.057714950935359027 0.11808337280087768 -0.022073110983482035 0.044401622350923202 0.056230814478480433 0.092750946131773426 -0.10179125629874257 0.071410826925627668 0.048688620357900926 -0.07316718758530974 0.033918935250618204 -0.095269459087615388 -0.0096247928703853056 -0.0047919817860546483 0.030213191522807596 0.11309345579583216 -0.093835876820433928 -0.077670788259522575 0.098847608106680737 0.044063459979621293 -0.010773337043597238 -0.0040436456899756645 -0.056503135449800151 0.11165057314431619 0.021752670114106934 0.0080794996363680351 -0.014160941179222808 -0.096959487325363067 0.077613090547625815 0.12148601169911159 -0.0034338435447548521 -0.070200305928811477 -0.037807928572628213 0.090861620849320021 -0.024719167545506317 0.04795273346886262 -0.012397800890839333 0.12381681232085516 0.03128196043547482 0.074814570638587513 -0.073013531897702336 -0.10326801628250075 0.022149670557745284 -0.057034557894271046 -0.011141665870855277 -0.020077022411276721 0.11510881205733407 0.10723232171316602 -0.055356999921525069 0.1171391780749907 0.023219805974704338 -0.027669254815103357 -0.01468315725214064 -0.10861051103271835 -0.010692430205078483 0.043802775135239051 0.10459015735795561 -0.078455470402817334 -0.081451263784180217 -0.10627763704357102 0.055508344781313612 -0.011263595311604018 -0.093193042833888309 -3.0751568311734923e-05 0.095018419478394095
leaf_weight=33.317282453179359 14.865147367119787 11.618109509348868 10.466944172978403 19.48095577955246 12.209518402814863 11.723127886652948 45.73837947845459 17.142404913902283 10.778536587953569 19.281910762190819 13.748372510075567 13.87424495816231 18.508284896612167 20.508201286196709 14.339653074741362 11.344815894961359 14.300253376364706 17.952729061245918 15.431850269436838 11.141821950674055 10.346519514918329 11.592368930578234 10.185951948165892 19.09079194068909 18.940893992781639 52.746276199817657 16.385120809078217 12.805986791849135 10.128680393099787 13.602581769227983 11.77034670114517 86.13886547088623 14.717051282525061 10.463763073086737 16.955969199538234 23.539388224482536 18.184079229831696 11.018000751733782 10.263308033347128 13.579744532704352 11.544121414422987 27.138861551880836 11.786653727293013 15.786715909838675 20.041791215538979 13.027083262801169 33.312894970178604 13.443828672170641 23.421113833785057 14.059925198554994 14.264083236455916 12.943117260932921 23.235078409314156 16.150896638631821 13.117777377367018 12.207533821463585 11.546722143888472 12.762902766466139 11.588641703128816 41.997740164399147 13.793917283415793 26.158274471759796 10.382341563701628 12.149493232369421 12.49573168158531 11.001568615436552 20.766605764627457 14.587978824973105 19.83319790661335 11.418353363871573 12.141348421573637 93.215869247913361 19.306210890412331 26.472240269184113 18.33223195374012 14.396724596619604 95.926538109779358 10.034607723355293 11.184572070837019 10.625007241964342 19.702721148729324 10.214092984795569 10.037661895155905 11.933689072728159 16.574950829148293 11.203055799007414 21.084778741002083 23.22349813580513 16.067788064479831 26.740719884634018 12.840102404356001 10.927417889237402 14.761800616979601 10.408845871686934 12.257808834314345
leaf_count=147 62 47 41 90 49 47 215 68 45 77 55 58 81 89 62 45 63 70 64 47 42 45 42 73 79 205 72 52 41 58 49 342 60 42 68 91 81 43 41 56 46 126 50 70 81 50 157 56 92 55 58 53 98 62 52 49 47 57 45 163 57 116 42 47 51 44 85 56 79 45 52 463 81 117 75 59 373 39 50 41 78 43 44 55 72 45 83 101 68 123 50 46 73 49 48
